{
  "layers": [7, 14, 6, 3],
  "biases": [
    [0.0, 0.0, 0.0, 0.0, 0.0, 0.0, 0.0],
    [0.0, 0.0, 0.0, 0.0, 0.0, 0.0, 0.0, 0.0, 0.0, 0.0, 0.0, 0.0, 0.0, 0.0],
    [0.0, 0.0, 0.0, 0.0, 0.0, 0.0],
    [0.0, 0.0, 0.0]
  ],
  "weights": [
    [
      [
        0.4195914, 0.104271419, -0.522498667, 0.448364973, 0.17375131,
        -0.0135441795, -0.49519667
      ],
      [
        0.78918004, 0.3389228, -0.677346766, 0.237464413, 0.641020656,
        0.319428384, -0.58713764
      ],
      [
        0.275220037, -0.02923791, -0.258485824, 0.0232165232, 0.2506312,
        -0.583719134, 0.721672833
      ],
      [
        0.319889247, 0.285248339, 0.432568341, -0.163955837, 0.0219375845,
        -0.07717051, -0.06598777
      ],
      [
        0.00515468558, 0.125188172, -0.252620578, 0.4174388, -0.189248532,
        0.830541551, 0.461147666
      ],
      [
        0.191347435, 0.3718966, 0.353875935, 0.246073052, -0.476073861,
        0.421603054, 0.3696154
      ],
      [
        0.142667338, 1.40279436, -0.406001478, -0.1966786, -0.415749073,
        -0.268256515, 0.357293844
      ],
      [
        -0.5468053, -0.285578877, 0.006028222, 0.7606031, -0.4889656,
        0.110176817, 0.5107867
      ],
      [
        0.671521664, 0.20873557, 0.2722075, -1.09622335, 0.311254919,
        0.520519555, -0.3151607
      ],
      [
        0.09307138, -0.156957448, 0.0664551556, 0.3323921, 0.6284054,
        0.278326631, 0.207196966
      ],
      [
        -0.0291505456, -0.6450678, 0.75461024, 0.3349527, 0.6664675, -0.2691214,
        0.7811173
      ],
      [
        -0.369918168, 0.0384726524, -0.469339371, 0.6197057, 0.8932918,
        -0.498878062, -0.238200411
      ],
      [
        -0.09928691, -0.4117875, -0.35117507, 0.218754828, 0.2664139,
        0.71542424, 0.6962567
      ],
      [
        0.6715637, -0.219803408, 0.09865865, 0.5979584, 0.784091, 0.103377759,
        -0.409563124
      ]
    ],
    [
      [
        -0.190158561, 0.425625235, -0.249125257, -0.09528248, -0.363984585,
        0.204001158, 0.473065674, 0.6680001, 0.215270877, -0.4982017,
        -0.5582967, -0.2660028, -0.15504314, -0.508688
      ],
      [
        -0.109862082, -0.056995444, -0.4228617, 0.28688398, -0.228558928,
        0.06653577, -0.3008617, -0.4169847, -0.324083626, -0.149944156,
        -0.91329205, 0.3120733, -0.00171921181, 0.255130142
      ],
      [
        -0.394298434, 0.04822572, 0.169636428, 0.270220846, -0.49578765,
        -0.256567985, 0.03865014, -0.261727542, -0.6310272, 0.716527641,
        0.175977185, -0.0958506241, 0.03367923, 0.199307635
      ],
      [
        0.2008103, -0.21596384, 0.449005127, 0.454808861, -0.4490205,
        0.331033915, 0.486015379, 0.0917987153, -0.16079554, 0.498140067,
        0.6358721, -0.187205032, -0.13603127, -0.354064822
      ],
      [
        0.0962135345, -0.110013068, -0.326916546, -0.212364525, 0.4192796,
        -0.2996925, 0.0009589992, -0.203401223, 0.277339339, 0.327726156,
        0.6303204, -0.265461415, 0.5097583, -0.5709693
      ],
      [
        0.3779183, 0.2897996, -0.238822639, 0.779116333, 0.412332743, 0.5445694,
        -0.139653042, -0.160143331, 0.412449628, 0.499721646, 0.370693684,
        -0.03576678, 0.07995175, 0.230509669
      ]
    ],
    [
      [
        -0.23261787, 0.455387, -0.324192733, -0.627781749, 0.139904365,
        0.5650291
      ],
      [
        0.294074684, -0.335326225, 0.340864539, 0.762792349, 0.375372022,
        -0.458195955
      ],
      [
        0.197113335, 0.203316972, -0.320620775, 0.597486436, -0.146913633,
        0.08258548
      ]
    ]
  ],
  "fitness": 819.694641
}
