{
  "_info": "A total of 10 cycles, each trained for 150 epochs, with a total of 55 agents, for a total of 1335.882 minutes.",
  "_additionalNotes": "Non greedy, without speed info, two hidden layers",
  "Evaluations": [
    {
      "LayerStructure": [7, 10, 8, 3],
      "FitnessConvergence": [
        4.77165, 6.893599, 7.627642, 8.363181, 8.36643, 17.6783676, 17.8101177,
        20.5381031, 27.35942, 28.3002853, 42.02813, 42.35394, 42.2515945,
        42.3206444, 42.25654, 65.04733, 65.06049, 65.3717651, 65.6294, 65.84034,
        181.589661, 188.59169, 190.64888, 192.778534, 195.950134, 196.550232,
        198.79715, 199.085388, 199.1143, 199.056488, 199.842743, 202.03241,
        202.649185, 204.06456, 204.06456, 204.096451, 204.352325, 205.030029,
        205.453979, 205.48674, 205.61795, 205.5195, 205.9805, 207.592346,
        214.09996, 213.985062, 214.484665, 217.04982, 217.9033, 224.199554,
        225.022675, 224.838821, 225.623978, 226.090454, 228.18483, 235.445435,
        242.553223, 220.754471, 245.049881, 245.922562, 252.475021, 265.076324,
        266.044983, 265.720825, 266.044983, 272.8051, 274.045135, 277.595245,
        278.528961, 278.811, 279.283051, 277.132019, 280.23468, 280.4262,
        280.139069, 280.522125, 279.6625, 279.283051, 280.4262, 282.6585,
        288.018921, 288.8555, 288.018921, 287.9149, 287.189728, 287.810944,
        288.436279, 287.499817, 287.0866, 287.293, 288.018921, 288.3318,
        287.0866, 289.065826, 263.0158, 235.337463, 289.171143, 287.499817,
        286.880676, 274.851746, 288.436279, 287.707123, 275.393646, 287.603424,
        289.065826, 286.7779, 286.367828, 288.540924, 287.603424, 288.540924,
        288.436279, 288.2274, 287.603424, 288.1231, 288.64566, 287.293,
        288.018921, 288.2274, 288.018921, 286.6752, 288.436279, 285.047516,
        287.0866, 274.851746, 288.2274, 285.654541, 287.9149, 288.2274,
        288.64566, 288.2274, 274.761749, 288.018921, 287.707123, 287.9149,
        274.4027, 287.189728, 288.2274, 287.293, 284.946716, 288.3318, 288.3318,
        288.3318, 273.8669, 287.499817, 289.276581, 287.9149, 287.9149,
        274.49234, 275.031982, 288.8555
      ],
      "fittestNetwork": {
        "layers": [7, 10, 8, 3],
        "biases": [
          [
            0.350740671, -0.0545497537, 0.479140639, 0.095561564, 0.215267047,
            -0.155462563, -0.176883519
          ],
          [
            0.261894822, 0.2877518, 0.256127834, -0.488776922, 0.0118985772,
            -0.308656454, 0.3542707, 0.213424072, 0.410475731, -0.311765552
          ],
          [
            0.13754569, -0.298404932, -0.3023473, -0.304049253, 0.291425467,
            -0.0194428563, 0.108245671, -0.209921062
          ],
          [0.328179121, 0.316969037, 0.161264285]
        ],
        "weights": [
          [
            [
              -0.0212531686, 0.211238712, -0.393519253, -0.3997163, -0.29999876,
              -0.5217382, 0.170842335
            ],
            [
              -0.210904062, -0.6034771, -0.121723369, -0.201835766, 0.493288517,
              0.4340744, -0.08663648
            ],
            [
              -0.407130718, 1.12741065, -5.876139e-6, 0.3154921, -0.22960414,
              0.69650805, -0.125920892
            ],
            [
              0.06470263, -0.8242764, -0.181189969, -0.025660675, -0.4056077,
              0.0240089539, 0.0132145975
            ],
            [
              -0.504206538, -0.5269501, -0.241632938, 0.0532200746, -0.34962514,
              0.362164974, -0.3481673
            ],
            [
              0.0486479178, -0.456695229, 0.879236162, -0.509930253, 0.4597664,
              -0.0101506189, 0.47937572
            ],
            [
              0.218076169, -0.145050243, -0.0121529941, 0.07418387, -0.26004073,
              -1.76542366, 0.0378364436
            ],
            [
              -1.20397806, -0.1136707, 0.106735982, -0.546355963, -0.06753068,
              -0.6942318, 0.3681072
            ],
            [
              0.281912684, 0.311584145, 0.0394412763, -0.428247541, 0.109916091,
              -0.650066137, 0.005517473
            ],
            [
              -0.235622227, -0.188600913, 1.27311409, -0.2050691, 0.206888869,
              -0.09876471, -0.008026315
            ]
          ],
          [
            [
              0.644096, 0.637611747, 0.460454226, -0.006592393, 0.4078811,
              0.294367164, -0.189896643, -0.43702817, 0.112465158, 1.67566931
            ],
            [
              -0.0007976711, -0.212948829, 0.767661333, -0.743224, -0.266070664,
              -0.694271147, 0.000561294262, 0.145296916, 0.180534825, 0.6314669
            ],
            [
              -0.305211961, -0.101694077, -0.04811138, -0.4458747, 0.0205705911,
              0.37471512, -0.002540545, 0.0227773823, -0.3399596, 0.028541347
            ],
            [
              -0.1765668, 0.328328133, 0.6895367, 0.266314477, 0.379322916,
              -0.133540943, 0.0935985446, 0.0715180039, -1.19493055,
              -0.813185632
            ],
            [
              -1.64319348, 0.7250757, -0.09411459, 0.0108463094, -0.8671863,
              -0.3139882, 0.371938944, -0.740692854, 0.759866953, 0.5801086
            ],
            [
              0.00307414448, 0.112373441, -0.5011543, 0.308598876, -0.6508776,
              0.174388915, -0.260971516, 0.32839942, -0.13442494, 0.137953371
            ],
            [
              0.321978182, 1.09233129, -0.479760557, 0.00696206372,
              -0.586837947, 0.6088629, 1.19851792, 0.5252199, -0.459795624,
              0.287086546
            ],
            [
              0.0433874726, -0.10115733, 0.370576978, 0.137675166, 0.943354547,
              -0.5667411, 0.37966156, 0.082738854, 0.3274267, -0.0689364448
            ]
          ],
          [
            [
              0.221055374, -0.100884691, -0.0120322732, 1.915604, 0.3901326,
              -0.0278266836, -0.0538733453, 0.00317604118
            ],
            [
              0.130318582, -0.646541953, 0.0751798749, -0.733632, 0.06135816,
              0.522748232, 1.37856293, 0.214048117
            ],
            [
              0.3603027, 0.631019533, -0.03183788, -0.09910225, 0.6924774,
              -3.17107916, 0.0478234477, 0.25002262
            ]
          ]
        ],
        "fitness": 289.276581
      }
    },
    {
      "LayerStructure": [7, 12, 8, 3],
      "FitnessConvergence": [
        6.722909, 6.99791336, 7.07583427, 7.10623837, 7.12889433, 7.207137,
        7.34689236, 7.326925, 7.37910843, 7.278216, 7.506138, 7.618266,
        7.76217556, 7.62758827, 7.62665844, 8.825117, 8.826887, 9.29046249,
        14.9603128, 17.6207848, 17.9142723, 18.045229, 18.6653919, 19.2348843,
        20.705986, 20.71159, 20.716835, 20.9495068, 21.0136585, 21.0041943,
        21.2485142, 21.62006, 21.66633, 21.6807785, 39.9984245, 27.7628784,
        27.3410015, 44.0697479, 44.1173744, 48.06596, 48.1449432, 48.1303444,
        48.08017, 48.11695, 48.14269, 48.1400261, 48.1536, 48.1166, 48.1548958,
        48.15059, 66.8127, 66.84653, 66.90661, 66.96644, 67.0941849, 204.609467,
        205.16011, 215.183685, 215.654465, 223.074142, 231.46019, 235.879028,
        249.718628, 251.252487, 264.1189, 276.763184, 278.7169, 278.341431,
        274.671844, 279.283051, 275.122253, 284.745453, 287.0866, 287.396362,
        289.382172, 288.436279, 289.382172, 288.9606, 290.337555, 287.9149,
        290.658173, 287.603424, 290.7653, 291.087341, 292.9331, 293.1526,
        293.2625, 293.1526, 293.593079, 293.593079, 293.593079, 292.9331,
        293.3726, 293.924774, 293.703522, 292.823547, 293.482758, 294.2576,
        294.035583, 292.9331, 293.3726, 293.482758, 292.9331, 292.9331,
        293.703522, 293.0428, 293.3726, 292.9331, 293.1526, 293.593079,
        293.3726, 293.814056, 293.703522, 293.1526, 293.2625, 293.3726,
        294.81485, 295.038635, 295.262939, 295.600372, 295.600372, 295.939,
        295.262939, 295.3753, 295.3753, 295.150726, 295.150726, 295.487762,
        295.487762, 295.826, 295.713135, 296.052124, 294.703125, 295.150726,
        295.713135, 295.600372, 295.826, 295.487762, 295.262939, 295.487762,
        295.038635, 295.487762, 296.3923, 297.764862, 297.0762, 297.3052,
        297.880127, 296.733643, 297.764862, 296.733643
      ],
      "fittestNetwork": {
        "layers": [7, 12, 8, 3],
        "biases": [
          [
            -0.3737781, -0.478328228, 0.183522686, 0.1559243, 0.2054783,
            -0.06189698, -0.487871647
          ],
          [
            -0.198972046, 0.239172921, 0.38462007, 0.232368812, -0.285574555,
            -0.445360541, 0.3761859, -0.220958889, 0.004268229, -0.2975359,
            -0.286450267, -0.245538175
          ],
          [
            0.324108243, -0.358517647, 0.03665465, 0.360630155, 0.310774684,
            0.4834473, -0.392036319, 0.202072009
          ],
          [-0.0392261147, 0.103308141, 0.42165637]
        ],
        "weights": [
          [
            [
              -0.0145832133, -0.0170720052, 0.06748687, 0.5890305, 0.254845262,
              0.3907287, -0.272351027
            ],
            [
              -0.008571335, 0.230064571, -0.4521861, 0.0500923134, -0.4586428,
              0.250840366, 0.273084
            ],
            [
              0.161656126, 0.0235924255, -0.2831385, 0.04590499,
              -0.000139149677, -0.0328338742, -0.4469707
            ],
            [
              -0.125512049, 0.548740864, -0.1299275, 0.3005842, 0.0176128782,
              0.413877815, 0.4492055
            ],
            [
              -0.427661419, -0.08486239, 0.3410231, 0.498766661, 0.5413192,
              -0.0911085, -0.478864551
            ],
            [
              0.06657844, 1.29563189, 0.033063, 0.3747706, -0.00564853149,
              0.6168233, -0.0663073137
            ],
            [
              -0.00194139162, -0.236231476, 0.829078853, -0.09904742,
              -0.00890237652, -0.676842868, 0.7342768
            ],
            [
              -0.0215040222, -0.0107359858, 0.7148311, 0.5628689, -0.476187348,
              -0.1753764, 1.046319
            ],
            [
              0.021486938, 0.7043615, -1.977793, 0.104374148, 0.446458161,
              -0.6052518, 0.1265557
            ],
            [
              -0.526492059, -0.2061945, 0.231507838, 0.123260982, 0.104485616,
              0.49855125, 0.0238811485
            ],
            [
              0.005837989, -0.8661809, 0.09243339, 0.298275, 0.846422732,
              0.248281762, -0.0731483251
            ],
            [
              0.7312277, -0.3850052, -0.14922595, -0.0574618354, 0.06328934,
              -0.4136492, -0.06506043
            ]
          ],
          [
            [
              0.3281384, 0.427806884, 0.130083025, 0.05499765, -0.263464272,
              0.457266957, -0.07469691, 0.7305225, 1.24200487, -0.5662011,
              0.00622910261, -0.8637201
            ],
            [
              -0.7422211, -0.06338575, 0.0258423537, 0.2551752, -0.0502235442,
              -0.171216279, 0.7898698, 0.0154367192, -0.4685735, 0.3940679,
              0.7877917, 0.13787955
            ],
            [
              0.3136958, -0.824550331, -0.002541795, -0.09962055, 0.036593318,
              0.058928363, -0.173096418, -0.126675665, -0.6418941,
              -0.0445859767, 0.09332017, -0.271605343
            ],
            [
              0.102465868, 0.0982473344, 0.357890278, -0.004069933, -0.03474244,
              -1.02872682, 0.646659851, 0.0916968659, 0.195069015, 0.264034659,
              0.06878535, -0.44823423
            ],
            [
              0.248156592, -0.011649264, 0.09868091, -1.11789048, -0.327617675,
              0.0512192845, 0.397502452, 1.71777785, 0.596282, 0.172969252,
              -0.171984851, 0.0404047929
            ],
            [
              0.346617937, -0.134728447, 0.4415101, 0.126017332, -1.52328122,
              0.229986414, -0.05744078, -0.466198325, 0.07978886, 0.104424953,
              0.170771629, -0.004239955
            ],
            [
              -0.473574758, 0.117961928, -0.0808774, 0.07690809, -0.1905632,
              -0.574929833, -4.03085375, 0.3846738, -0.2310391, -0.489425778,
              0.445907116, -0.0358263031
            ],
            [
              -0.128941029, 1.56369853, 0.00953958649, -0.005673184,
              0.027838964, 0.4199192, -0.0695319, -0.321680754, -0.011020422,
              0.382211536, 0.353533268, -0.07661691
            ]
          ],
          [
            [
              1.00533807, -0.235019386, -0.00127680285, -0.3328625, 0.53636694,
              -0.05700767, -0.0111345565, 0.418274879
            ],
            [
              -0.263976, 1.170315, -0.03396871, -0.283363581, 0.4007141,
              0.196812, -0.0605938435, -0.703996
            ],
            [
              -0.02633754, -0.2208077, 0.258921772, 0.128126115, 0.245468378,
              0.0495176539, 0.0541148521, 0.8851309
            ]
          ]
        ],
        "fitness": 297.880127
      }
    },
    {
      "LayerStructure": [7, 14, 8, 3],
      "FitnessConvergence": [
        3.93168926, 6.73177242, 18.5165939, 24.0843658, 40.09617, 43.9857254,
        66.97996, 66.95621, 66.979126, 66.9174, 66.94194, 66.9444656, 66.97218,
        66.96694, 66.97343, 66.93531, 66.95133, 66.9176, 66.95217, 66.95126,
        66.96798, 66.89578, 66.91277, 66.93457, 66.9437, 66.912796, 66.91357,
        66.88972, 66.918396, 66.9279251, 66.91891, 66.9467545, 66.92749,
        66.9147949, 66.93395, 66.94828, 66.93059, 66.87913, 66.94654, 66.94067,
        66.95088, 66.93878, 66.95562, 66.95021, 66.9468155, 66.97515, 66.94037,
        66.95064, 66.9347153, 66.9353, 66.9368057, 44.0122375, 66.9837,
        66.94535, 66.922554, 66.9146042, 66.96572, 66.96505, 66.93896, 66.95849,
        66.97094, 66.93982, 66.9357147, 66.96451, 66.93593, 66.936264, 66.96545,
        66.95423, 66.972374, 66.94051, 66.97157, 66.96336, 66.98694, 67.0011749,
        66.9099655, 66.79708, 67.056366, 67.06841, 67.0566559, 67.04642,
        67.0566559, 67.06062, 67.04975, 67.06108, 67.0762, 67.05174, 67.04547,
        67.071, 67.0565948, 67.0627747, 67.065, 67.07764, 67.0533, 67.0566559,
        67.0604553, 67.0618744, 67.05947, 67.0758057, 67.07558, 67.0467758,
        67.0545959, 67.05623, 67.05902, 67.06225, 67.0566559, 67.06697,
        67.04736, 67.06307, 67.07547, 67.06685, 67.03749, 67.06108, 67.05997,
        67.0677, 67.07332, 67.0566559, 67.06204, 67.0566559, 67.0620651,
        67.06002, 67.0566559, 67.0567856, 67.0801, 44.0337067, 44.07532,
        44.0827255, 67.0903549, 67.06155, 43.94617, 48.1049843, 67.06386,
        67.0272141, 67.0566559, 67.0565948, 67.0679, 67.039444, 67.06363,
        67.07391, 67.04366, 67.0921, 44.04956, 43.95417, 67.02645, 47.36221,
        67.04712, 67.0716553, 67.0329, 67.04814, 67.06335, 67.03148
      ],
      "fittestNetwork": {
        "layers": [7, 14, 8, 3],
        "biases": [
          [
            -0.100081265, 0.378650784, -0.159206092, 0.368169665, 0.124531448,
            -0.43872118, -0.031024158
          ],
          [
            -0.3693533, -0.4247074, -0.197790444, -0.491748929, 0.236190066,
            0.145394191, 0.383236051, 0.3437959, 0.448824048, -0.246280372,
            -0.05904621, 0.191751227, -0.483817816, 0.433849216
          ],
          [
            -0.295176268, 0.02985388, 0.311010361, 0.12926136, 0.0337699056,
            -0.106977522, -0.250596285, -0.2976271
          ],
          [0.187301621, -0.3083979, -0.100318253]
        ],
        "weights": [
          [
            [
              -0.3772763, 0.5348853, -0.0726683438, 0.149373472, 0.05526609,
              -0.712103963, -0.03961283
            ],
            [
              0.653424144, 0.00539576728, -0.4044662, -0.6118125, -0.6367047,
              -0.389207721, 0.465707719
            ],
            [
              0.220975071, 1.13186741, -0.5807183, -0.161788046, 0.6939187,
              0.428900242, -0.04298951
            ],
            [
              -0.5126389, -0.416486144, -0.15150696, 0.136229187, -0.33727777,
              0.33097595, -0.39122197
            ],
            [
              -0.5148562, 0.481267929, -0.250242144, -0.445698678, 0.0534525961,
              -0.09547334, -0.389445543
            ],
            [
              -0.8618041, 0.5203661, -0.7290013, -0.0939543843, 0.2413453,
              -0.7163979, -0.221354723
            ],
            [
              -0.299355984, -0.465834826, -0.4390216, -0.573799133, 0.4425864,
              -0.381176561, 0.195176631
            ],
            [
              -0.06022177, -0.2512045, -0.4990418, 0.041929584, -0.0424218439,
              1.04705465, -0.333826035
            ],
            [
              0.176287472, -0.28227967, 0.492281437, -0.483099461, -0.7317573,
              -0.7176379, -0.7617289
            ],
            [
              -0.07337483, 0.5060588, -0.623443842, 0.5753248, 0.477095366,
              0.692237258, -0.1599888
            ],
            [
              -0.09113622, -0.204624891, 0.131992936, 0.0213474035,
              -0.365543485, 0.146580338, 0.6826147
            ],
            [
              0.07402363, 0.7636483, 0.01315397, 0.6802288, 0.0474153161,
              0.230649441, 0.559118032
            ],
            [
              0.765628, 0.6595571, -0.6209734, -1.38698232, -0.8862472,
              -0.150490522, 0.45539546
            ],
            [
              -0.315973759, 0.0848627761, -0.464923024, -0.361666083,
              0.366344541, -0.5830247, -0.47974205
            ]
          ],
          [
            [
              -0.576408565, -0.0468416363, 0.178063512, 0.685673356,
              -0.594602466, -0.5445297, 0.283171177, -0.27946794, -0.675066948,
              -0.0258371234, 0.816149056, -1.13149571, 0.9585224, -0.784784555
            ],
            [
              -0.484315038, 0.06257222, -0.005589906, -0.118866384, 0.7515662,
              0.0409280881, -0.284495115, -0.125287652, -0.654170036,
              -0.5892881, 0.9067195, 0.4878965, -0.7127613, -0.5798224
            ],
            [
              -1.32414341, 0.122259974, 0.6509918, -0.361345679, 0.6664753,
              -0.353675485, -0.453742564, -0.07843977, 0.166546151, 0.3096971,
              -0.0437923074, -0.07839471, 0.155564725, -0.1437012
            ],
            [
              -0.4988804, -0.293828875, -0.7383464, 0.429042339, -0.586770058,
              0.649027348, -0.127070367, -0.1535632, 0.104477584, 0.264266,
              0.220050544, 0.305026174, -0.2561836, -0.4387251
            ],
            [
              -0.266338676, 0.4145156, 0.6565455, -0.0784318447, -0.44727543,
              0.9523608, 0.09647304, 0.261771619, -0.5212842, 0.4822453,
              0.1172654, -0.7141094, 0.813679039, -0.107716739
            ],
            [
              0.0922782645, 0.3287984, 0.387154341, -0.07964182, -0.259242177,
              -0.7241025, 0.8345276, 0.524083257, 0.139674067, 0.169931591,
              -1.3055228, -0.5398084, -0.3668195, 0.0220436715
            ],
            [
              0.131828427, -0.7303773, -0.327851, 0.0888606459, 0.407121181,
              0.4448982, -0.144636035, -0.364918947, 0.535675645, 0.05044812,
              -0.700113535, -0.763341069, 0.1054281, 0.7615955
            ],
            [
              0.506675839, 0.4900138, -0.314785659, -0.3612667, -0.114340231,
              0.235668451, -0.03069652, -0.3233652, -0.07936388, 0.591315,
              -0.7003174, 0.275981128, 0.07282519, 1.06601536
            ]
          ],
          [
            [
              -0.7673701, 0.08240199, 0.348403573, -0.27776134, 0.4370039,
              0.308093637, -0.6873734, 0.102086365
            ],
            [
              -0.5312284, 0.8691599, -0.6031326, 0.542743742, 0.6329597,
              -0.229924247, -0.6561531, -0.327418447
            ],
            [
              -0.568000853, -0.34825027, -0.334684432, 0.09636855,
              -0.0569558144, -0.04543685, 0.562829137, 0.162848145
            ]
          ]
        ],
        "fitness": 67.0921
      }
    },
    {
      "LayerStructure": [7, 16, 8, 3],
      "FitnessConvergence": [
        5.46835661, 5.83741665, 5.845535, 6.2921524, 7.03119659, 7.20725632,
        7.259864, 7.3219595, 7.31654739, 7.285887, 10.2553549, 17.1466465,
        17.1994686, 17.4203033, 20.055378, 20.0580235, 20.0639133, 21.18675,
        43.5100975, 43.6502876, 43.6632156, 43.60013, 43.54484, 43.6989441,
        43.6025734, 43.6721153, 43.59882, 43.58084, 43.70027, 43.61498,
        43.58462, 43.578167, 43.6488571, 43.5994263, 43.6544838, 43.63205,
        43.7016258, 43.71074, 43.7010422, 43.66118, 43.74053, 43.61596,
        43.7046661, 43.6937256, 43.54018, 43.71729, 43.71624, 43.71213,
        43.7438622, 43.72423, 43.71016, 43.7194748, 43.6756973, 43.710125,
        43.7387047, 43.71339, 43.7332039, 43.6928024, 43.71981, 43.73244,
        43.7222176, 43.7007675, 43.7767868, 43.75182, 43.7412376, 43.75248,
        43.7534676, 43.7587547, 43.7433662, 43.7470741, 43.8126564, 43.7718277,
        43.78618, 43.8213272, 44.5913239, 43.8872223, 44.4598846, 43.89078,
        44.48524, 43.90303, 43.865, 43.90825, 44.455307, 44.6663551, 44.0184059,
        43.93874, 43.8802948, 44.85625, 44.65846, 43.8911438, 44.8912277,
        43.9286232, 44.61227, 44.65273, 43.89903, 43.87688, 44.8426361, 44.9143,
        44.85677, 44.01905, 44.873558, 43.85182, 44.880127, 43.86921, 45.25687,
        44.65619, 43.9201775, 43.94631, 45.18352, 43.9821548, 44.7819633,
        43.8813972, 44.8971138, 44.74529, 44.8430824, 45.1030922, 43.98776,
        44.8187943, 45.1293755, 44.6567841, 44.7667, 45.125103, 43.89987,
        43.87774, 43.9137268, 43.921, 43.84187, 44.49288, 45.0493164,
        43.8890762, 44.586235, 43.91293, 44.7521935, 45.1221771, 45.0931549,
        44.7656555, 43.8426, 44.7591972, 44.6681633, 44.833313, 43.8861542,
        44.7507324, 43.99626, 44.82981, 45.1190948, 43.8945847, 45.07311,
        43.90211, 45.08718, 44.8162956
      ],
      "fittestNetwork": {
        "layers": [7, 16, 8, 3],
        "biases": [
          [
            0.295495272, -0.23260361, 0.4280635, 0.292590618, 0.367702961,
            -0.499830246, -0.181840241
          ],
          [
            0.3436556, -0.34677434, 0.07931596, -0.3610463, -0.456227064,
            -0.04460627, -0.0332500339, 0.436039448, -0.38864398, 0.4785874,
            0.144999728, -0.09258467, 0.122383654, 0.13929294, -0.365761518,
            0.203040943
          ],
          [
            -0.191538274, -0.0856367946, 0.242755875, 0.3295728, -0.481485724,
            -0.297407985, 0.3462478, 0.3747232
          ],
          [0.2123066, 0.06995195, 0.0589419]
        ],
        "weights": [
          [
            [
              0.540694, 0.0987953544, 0.875463, 1.09157288, 0.398119152,
              0.0189945754, -0.5141276
            ],
            [
              0.0489877127, 0.437984, 0.00879955851, 0.00389200449, -0.4598298,
              0.435663164, -0.120103
            ],
            [
              -0.06567794, 0.349122375, -0.453349322, 0.702400565, -0.6965411,
              0.0298962984, 0.187890753
            ],
            [
              0.482032567, 0.198052615, 0.387025177, -0.267973542, -0.231913149,
              0.439604521, -0.329012454
            ],
            [
              -0.325405, 0.897398, -0.4813664, 0.4263371, -0.00757026672,
              -0.175152242, -0.156461433
            ],
            [
              0.179047123, 0.3322758, 0.865807354, 0.280193031, -0.617478549,
              -0.501945257, -1.82001913
            ],
            [
              0.4834869, 0.885321438, -0.64106226, -0.3004695, 1.03329265,
              0.0726316348, 0.3272072
            ],
            [
              0.3483397, 0.24433659, 0.165196255, -0.07457852, 0.118841112,
              0.0106687946, -0.0309946537
            ],
            [
              0.483271539, -0.348785847, -0.109988965, -0.178510711, -0.431772,
              0.0930848941, 0.260778219
            ],
            [
              0.157758534, -0.027414022, -0.5413867, -0.0732275546, 0.5963646,
              -0.367433429, 0.118606962
            ],
            [
              -0.171037257, 0.0757525, -0.0492648073, 0.3343881, -1.26687229,
              0.5682189, 0.0520473644
            ],
            [
              0.697781444, -0.72116816, 0.363725841, -0.312422931, 0.240033463,
              0.00501512038, -0.292609453
            ],
            [
              0.245200038, -0.450982958, -0.117400408, -0.353452146, 1.253017,
              -0.0222117063, 0.180260718
            ],
            [
              -0.132566825, 1.10287809, 0.254801273, -0.00622316776, 0.5432445,
              -0.181766331, 0.483952045
            ],
            [
              0.290552378, -0.137165129, 0.215368509, -0.137104928, 0.225131676,
              0.585002661, 0.663866758
            ],
            [
              0.0131109655, -0.03618597, 0.439446658, -0.778299868, -0.6952027,
              -0.167917982, -0.00102210045
            ]
          ],
          [
            [
              0.04551707, 0.5913578, 0.04127723, 0.384093225, -0.0273596048,
              -0.0441819131, -0.350471526, -0.03791775, 0.181577742,
              0.194737345, 0.0248195156, -0.442980528, -0.357326478, 0.07480163,
              0.417005777, -0.6850656
            ],
            [
              -0.748719454, 0.267240554, -0.3068534, -0.2329219, 0.468509465,
              0.02492686, -0.501784265, -0.5342753, 0.06420845, -0.2546526,
              -0.352487534, -0.5035862, 1.300824, 0.6284895, 0.02254204,
              -0.0280268788
            ],
            [
              0.340063453, 1.31541181, 0.4609387, 0.184070334, 0.374844849,
              -0.185867414, 0.242467374, 0.6544925, -0.9371875, 0.255586177,
              0.4215653, 0.194050521, -0.3214154, -0.2776898, 0.22785674,
              -0.0566331148
            ],
            [
              1.17484736, 0.021140825, -0.664005458, 0.12178313, 0.0313939452,
              -0.244879961, -0.529994369, -0.2950393, -0.418034077, 0.429763258,
              0.4231695, -0.2256524, -0.443786621, -0.6750206, -0.164652541,
              0.5228069
            ],
            [
              0.946777344, 0.7123208, 0.339737684, 0.4342489, -0.7492559,
              -0.312094063, -0.17919606, -0.632241368, 0.0253548063, -0.5996188,
              0.6591737, 0.09977764, 0.4159943, 0.2395356, -0.2240533,
              -0.2563907
            ],
            [
              -0.254909337, 0.259984761, 0.12131232, -0.604546666, 0.417305321,
              -0.5841656, 0.0132932067, 0.09228551, 0.171146, -0.7465662,
              -0.1682617, -0.1471414, 0.0553551242, -0.209400743, 0.396669865,
              -1.25458825
            ],
            [
              -0.590335131, -0.237195134, -0.6536969, -1.04136038, -0.679639,
              0.0143889021, 0.132230684, -0.0131249977, 0.390410662, -0.9325823,
              0.271351784, -0.3453263, -0.546709061, -0.373021364, 0.333316684,
              0.12162751
            ],
            [
              -0.0247967243, 0.0348456055, 0.0201886166, -0.513664,
              -0.290553421, -0.12749359, 1.18633616, -0.5838008, -0.6891907,
              0.571453, -0.9948997, 0.150746837, 0.295174569, 0.5125768,
              0.197255939, -0.333609
            ]
          ],
          [
            [
              0.2536368, -0.02762967, 0.187066764, 0.05720136, -0.214170262,
              -0.0264864564, -0.7133455, -0.0164338276
            ],
            [
              -0.6450759, 0.101984762, 0.08631134, 1.30866706, 0.110355116,
              -0.5008105, 0.8591117, -0.458862752
            ],
            [
              0.30254972, -0.432493329, -0.199280679, -0.298740983, -0.5022341,
              0.149582639, 0.343770385, -0.533011138
            ]
          ]
        ],
        "fitness": 45.25687
      }
    },
    {
      "LayerStructure": [7, 18, 8, 3],
      "FitnessConvergence": [
        2.068013, 4.50382233, 5.36286259, 6.12652874, 6.55401325, 6.73674345,
        6.84198141, 6.84192753, 6.88590431, 6.97382069, 7.442391, 10.326231,
        17.8115311, 17.9492531, 19.5564747, 21.9220219, 43.89407, 43.9534,
        59.0680733, 59.0843658, 59.082283, 59.0856667, 59.0790138, 59.0752373,
        59.08027, 59.0994835, 59.08972, 59.1649551, 59.3830833, 59.3735161,
        59.3851738, 59.4962, 59.5228081, 59.51072, 59.530098, 59.5049934,
        59.4800835, 59.5048828, 59.53657, 59.50204, 204.480743, 204.5129,
        204.577255, 204.73851, 204.6417, 204.73851, 204.577255, 204.67395,
        204.67395, 204.609467, 205.290512, 205.257889, 205.257889, 205.5195,
        205.683685, 205.61795, 206.046677, 206.146118, 206.545792, 206.713211,
        206.679688, 206.412231, 206.545792, 206.780319, 206.881149, 206.545792,
        206.612686, 206.679688, 206.982178, 207.1848, 207.117172, 207.049637,
        207.1848, 206.948486, 207.1848, 207.218643, 207.490158, 207.456146,
        207.42215, 207.490158, 207.3203, 207.62645, 207.42215, 212.998825,
        212.140518, 213.187164, 212.40036, 217.985245, 219.1444, 219.35379,
        220.369217, 231.003723, 231.358475, 230.902725, 230.85228, 230.85228,
        231.307678, 231.307678, 231.613052, 230.299942, 231.104889, 230.550415,
        230.85228, 231.358475, 231.2062, 231.155533, 231.46019, 231.307678,
        231.5111, 231.155533, 230.34996, 231.003723, 231.46019, 231.054291,
        229.16, 232.022415, 230.902725, 230.299942, 230.450119, 231.054291,
        230.902725, 231.307678, 231.358475, 231.256927, 231.155533, 230.801865,
        230.902725, 231.358475, 231.715149, 231.256927, 230.801865, 230.650879,
        231.2062, 231.256927, 231.2062, 231.2062, 231.155533, 231.054291,
        231.613052, 230.9532, 231.003723, 230.550415, 231.307678, 231.155533,
        231.104889, 231.307678, 230.7515, 231.409317, 231.307678, 230.902725
      ],
      "fittestNetwork": {
        "layers": [7, 18, 8, 3],
        "biases": [
          [
            -0.0615049, 0.167362675, 0.176872715, -0.0166527629, -0.148282826,
            0.2758776, 0.282513618
          ],
          [
            0.473768353, -0.463073254, 0.353526235, 0.0271535516, -0.3899747,
            0.416941643, -0.377871752, 0.312246084, 0.243681535, -0.114846051,
            -0.29403317, 0.09807128, 0.0176338553, 0.2035849, -0.313971639,
            -0.104170024, 0.21629785, 0.1415615
          ],
          [
            0.007856667, 0.4039185, 0.347856879, -0.341665149, 0.274148,
            0.379791141, -0.337321877, -0.43946898
          ],
          [0.475430131, -0.174108684, 0.413157225]
        ],
        "weights": [
          [
            [
              -0.0244601257, 0.91564703, -0.192297876, 0.0236820057, 0.888984,
              0.3973746, 0.0371594764
            ],
            [
              0.456633747, 0.4254647, 0.01639397, 0.116492294, -0.221768558,
              0.728134632, 0.353408754
            ],
            [
              -0.266239464, 0.599119842, -0.3762486, -1.23896778, -0.285268217,
              0.233053923, 0.438739121
            ],
            [
              0.373831272, 0.113524139, 0.29703185, -0.633462369, 0.152580917,
              0.105220914, -0.102511242
            ],
            [
              0.7009654, 0.439843774, -0.418516278, -0.120375447, -0.2765067,
              -0.02767189, -0.7611501
            ],
            [
              -0.169435337, 0.166659087, 0.866427064, -0.5639859, 0.410632968,
              -0.08682655, -0.7458016
            ],
            [
              -1.12691212, -0.385804176, -0.3691436, 0.5650306, -0.583806157,
              -0.195996344, 0.008920449
            ],
            [
              0.3139432, -0.7687926, 0.153279737, -0.07141811, 0.514985561,
              -0.231002614, -0.09672052
            ],
            [
              0.2595271, 0.115068495, -0.3193291, -0.6418022, -0.106647909,
              -0.178092718, -0.05747068
            ],
            [
              0.410666257, 0.08411129, -0.2086674, 0.0003222823, 0.2328915,
              -0.165511072, -0.02704558
            ],
            [
              -0.141824111, -1.18126512, 0.461969972, -0.160054982,
              -0.504060268, -0.193218455, -0.25818184
            ],
            [
              0.199228078, -0.136781245, -0.4991882, 0.566431761, 0.07215004,
              0.009098714, 0.561488
            ],
            [
              0.000760430936, -0.4414213, 0.116996586, -0.0005796291,
              0.700416446, 0.4659983, 0.260416269
            ],
            [
              -0.1130566, -0.1210019, 0.7923181, 0.451069564, -1.21399009,
              -0.215590075, -0.7581847
            ],
            [
              0.00651284959, 0.36343345, -0.242864937, 0.8782116, 0.489276767,
              -0.0267579574, -0.04681067
            ],
            [
              0.36036253, 0.3257699, -0.7735768, -0.192668483, -0.09802401,
              -0.0185830165, 0.640349865
            ],
            [
              0.27738595, 0.8496936, -0.574770451, 0.741565, -0.7212671,
              0.741572738, -0.5528543
            ],
            [
              -0.5248667, 0.0005255173, -1.15825546, -0.235159308, 0.457848549,
              0.412898123, -0.139585286
            ]
          ],
          [
            [
              0.009811642, 0.129505262, 0.5478172, -0.2417576, 0.276437,
              -0.1475626, 0.1391303, -0.05178982, 0.01758647, 0.2883353,
              -0.2035555, 0.100217916, 0.180687964, -0.595696449, -0.5249505,
              0.367946923, 0.0191612579, -0.3772576
            ],
            [
              0.030317165, 0.29910773, 0.6631683, -0.7131051, -0.401304781,
              0.34925437, -0.479724228, -0.4285159, -0.350301266, -0.0057287314,
              -0.4524988, -0.319139451, -0.0004887166, -0.763174057, 0.7203871,
              0.206182614, 0.998803258, -1.02377415
            ],
            [
              -0.262703419, 0.8321241, 0.139583513, -0.09426757, -0.08420271,
              -0.489138037, 0.808155835, -1.165534, 0.163435355, 0.6298895,
              -0.298861027, -0.242898911, -0.09687896, -0.7383818, -0.300302684,
              -0.278889716, -0.6247493, -0.02684215
            ],
            [
              -0.7431402, -0.300249636, -0.287543684, -0.0407714844,
              -0.461963654, -0.0174528565, -0.1997445, 0.1694946, 0.383850574,
              0.894788861, -0.5755743, -0.0030884915, 1.45289052, -0.0104356511,
              0.007984866, -0.144465029, 0.8960627, 0.655930161
            ],
            [
              -0.81354, -0.233166173, -0.423514634, 0.657593, 0.375086,
              0.4123752, -0.11504741, -0.23541382, 0.306681752, 0.291479677,
              0.220893145, 0.07986707, -0.418783545, 0.02407307, 1.03309047,
              0.4368217, -0.1510629, 0.606368065
            ],
            [
              0.3880246, 0.6314639, 0.526114464, -0.0465571024, 1.23778522,
              1.74826086, 0.495077252, 4.245006, 0.1007002, 0.06451796,
              -0.7370882, -0.621747, -0.19530338, 0.322763, -0.3345275,
              -0.124968596, -0.1315226, -0.625789046
            ],
            [
              0.6959037, 0.4148593, 0.0115509294, 0.0674477145, 0.8886167,
              0.205465257, 0.237864822, -0.114093363, 0.0525498241, -0.6540173,
              0.455442667, 0.645557642, 0.558916152, 0.466044366, 0.0679948255,
              -0.004686135, 0.059720125, -0.260539174
            ],
            [
              0.111300975, 0.187185392, -0.3009998, -0.279251635, 0.120844789,
              0.124319658, -0.141233683, 0.220652044, 0.741227567, 0.210488975,
              0.297105134, 0.1256435, 0.84441787, 0.1535632, -0.161245644,
              0.6699542, -0.0620763637, 0.0174739957
            ]
          ],
          [
            [
              -0.26563248, 0.5041156, 0.7918296, 0.575283051, 0.07064964,
              0.11080502, 0.2066926, 0.3276022
            ],
            [
              -0.0791503, -0.2990851, 0.580217838, 0.56257844, 0.185138568,
              0.464480639, -0.288257957, 0.387474835
            ],
            [
              -0.221901879, -0.0113682151, -0.64210546, 2.51436853, 0.415340781,
              -0.5624118, 0.317729354, -0.111919709
            ]
          ]
        ],
        "fitness": 232.022415
      }
    },
    {
      "LayerStructure": [7, 20, 8, 3],
      "FitnessConvergence": [
        5.999303, 6.146139, 7.18293762, 25.6164246, 25.655056, 25.6251221,
        25.646513, 25.6278515, 25.6491356, 43.7716064, 43.7818756, 43.77845,
        43.8586426, 43.87543, 43.8717422, 43.8704071, 43.8750343, 43.87346,
        43.88119, 43.8591728, 43.8807373, 43.8940163, 43.86604, 43.8788,
        43.90011, 43.8986549, 43.8883553, 43.8771477, 43.9048538, 43.8930855,
        43.9268951, 43.93277, 43.94115, 43.96326, 44.0112419, 43.94303,
        43.94723, 43.987812, 44.0117722, 43.96416, 44.00675, 43.9424438,
        44.04118, 44.0551872, 44.04976, 44.0627, 66.38209, 66.4637, 66.4551849,
        66.81717, 66.8326645, 66.9223557, 66.70386, 66.92669, 66.94961,
        66.92427, 66.93431, 66.95242, 67.07226, 67.10926, 206.312271,
        206.579224, 206.948486, 207.42215, 207.728882, 208.037369, 208.244,
        208.486084, 208.451431, 208.416809, 208.416809, 213.451889, 224.701279,
        226.184174, 234.267181, 235.337463, 236.260712, 256.914, 242.3739,
        245.922562, 253.231888, 246.110931, 244.987961, 241.248642, 247.764069,
        240.663528, 256.624481, 241.661148, 241.131241, 243.577911, 242.553223,
        241.131241, 257.862335, 67.4725647, 206.612686, 256.2641, 258.822235,
        67.24806, 67.78157, 234.214111, 67.11648, 244.126389, 67.36839,
        228.2817, 67.4224854, 67.4473953, 67.56885, 242.613083, 67.481575,
        67.75057, 67.5296555, 248.280273, 67.71448, 220.711533, 67.41482,
        67.35814, 68.03161, 255.619568, 241.838669, 67.35588, 257.2774,
        250.581741, 249.652634, 67.35623, 67.48332, 207.558258, 67.48396,
        67.48909, 67.24782, 67.4335861, 67.4124146, 67.3209457, 250.115753,
        242.673, 254.627457, 67.48652, 253.787079, 67.4921646, 238.145538,
        255.619568, 43.918354, 246.299789, 67.6450348, 242.793, 67.2174454,
        67.63422, 66.8388, 217.780624, 67.0565948, 67.25005
      ],
      "fittestNetwork": {
        "layers": [7, 20, 8, 3],
        "biases": [
          [
            -0.120254934, -0.479694247, -0.12860769, -0.489663839, -0.137984931,
            0.395103574, 0.20082961
          ],
          [
            -0.200015485, 0.337496281, -0.16193825, 0.279629469, 0.06265062,
            -0.212563336, -0.286448, 0.28569603, -0.0270605683, -0.472918034,
            -0.000957191, 0.323423982, 0.1811801, -0.327989817, -0.0362880826,
            0.264159322, -0.3126589, 0.4080397, -0.0947296, 0.115257323
          ],
          [
            0.461947441, 0.2975638, -0.479058862, 0.3259455, 0.2722417,
            -0.269011974, 0.115856826, -0.05940157
          ],
          [0.281435, 0.2354319, -0.201451719]
        ],
        "weights": [
          [
            [
              -0.103044093, -0.030111745, -0.2162677, -0.37420547, 0.461654544,
              0.1941142, 0.0404960848
            ],
            [
              0.224560082, 0.597330868, 1.12820661, -0.2335974, -0.377303243,
              0.520303845, -0.7257004
            ],
            [
              0.230233565, -0.05061947, 0.153265119, 0.0110717071, -0.546983,
              -0.06841755, 0.854267359
            ],
            [
              0.9603323, 0.773417056, -1.22527719, 0.300960273, -0.387269616,
              0.771329045, -0.30253756
            ],
            [
              -0.1665063, 0.8300964, 0.3177914, 0.1393988, 0.402789682,
              0.37950027, -0.8854688
            ],
            [
              0.3439955, -0.2057068, -0.7485678, 0.3816516, 0.288185358,
              0.03250587, 0.282680869
            ],
            [
              -0.5181327, 0.0263476558, -1.91742718, 0.743209839, -0.0464626662,
              0.6140475, -0.7229153
            ],
            [
              0.4401067, 0.9862837, -0.06595218, -0.174788818, -0.3755628,
              -0.170209885, 0.08005255
            ],
            [
              -0.412636518, -0.489083, -0.347703457, 1.16862941, -0.01221203,
              -0.7342768, 0.670023859
            ],
            [
              0.5367202, -0.113066405, 0.440334976, -0.23178488, -0.4519579,
              -0.352424026, 0.137775034
            ],
            [
              -0.536749363, 0.005503355, 0.05008783, -0.272227079, -0.3485875,
              -0.242266014, 0.196899474
            ],
            [
              0.463596821, -0.157559276, 0.07851895, 0.269750446, 0.446911752,
              -0.312874168, 0.196008146
            ],
            [
              -0.7083831, -0.303277373, 1.17511857, -0.320749283, 0.0362085551,
              -0.303730965, -0.0767887756
            ],
            [
              -0.009594096, 0.6981827, -0.119051136, -0.0237782747, -0.263072,
              0.23178409, 0.784527242
            ],
            [
              -0.284261346, 0.329987824, -0.7076551, 0.0232996345, 0.6853144,
              0.487718821, -0.5045685
            ],
            [
              0.7171967, 0.5204277, 0.0005847581, -0.280496716, -0.2524838,
              0.409073979, 0.3770779
            ],
            [
              -0.38726607, 0.0104597593, 0.3001634, -0.1747678, 0.00113105774,
              -0.509561, 0.06917113
            ],
            [
              0.217428446, 0.151055276, -0.205313742, -0.101106286, 0.03000784,
              0.06239337, -0.6221926
            ],
            [
              -0.5411697, 0.103163645, 0.549962938, 0.0134038329, -0.370079547,
              -0.07162553, 0.375096262
            ],
            [
              -0.102715, 0.439734221, 0.231040224, -0.546802163, 1.40212548,
              0.264119327, -0.3644584
            ]
          ],
          [
            [
              -0.1545662, -0.4800382, -1.00977361, -0.6966522, -0.613277137,
              -0.12865214, -0.788818359, -0.417139232, -0.05967484,
              0.0297796726, 0.3529297, -0.261641353, -0.15479666,
              -0.00611274363, -0.389103919, -0.143813029, 0.243842661,
              0.756245255, 0.100341953, 0.168223336
            ],
            [
              -0.567443132, -0.7686368, -0.7056832, -0.478968471, -0.7468557,
              -0.129976451, -0.365992844, -0.113216318, 0.5914614, 0.6266553,
              0.143872052, 0.472530246, 0.5436508, 0.6514671, -0.6334217,
              0.332048059, -0.676617563, 0.0245211124, -0.5867588, -0.7251847
            ],
            [
              0.0426653624, -0.526171744, -0.728628755, 0.748989463, 0.6925236,
              -0.145128191, 0.05699611, 0.0518651, 0.658701837, 0.112006888,
              0.132335, -0.303828716, -0.2408126, 0.00465541333, 0.559509635,
              0.687128663, 0.595876157, 0.4474654, 0.39071247, 0.171040714
            ],
            [
              -0.379922748, 0.35164237, 0.405306667, 0.109341919, 0.173314512,
              0.35501194, -0.0250140037, 0.45630002, -0.128501669, 0.2823217,
              0.116896734, 0.07777089, 0.311456323, -0.451027155, -0.0507967472,
              0.224567041, -0.05354047, 0.136267632, 0.07823416, 0.545397162
            ],
            [
              0.1312997, 0.388019323, -0.482460737, -0.146375313, 0.201096579,
              0.158772945, 0.272215754, 0.254859418, -0.408091843, -0.244008273,
              0.164038539, 0.392448753, 0.463350654, 0.0142305624,
              -0.0436604023, 0.0763909146, 0.0397869945, -0.527748048,
              0.4477759, -0.1242607
            ],
            [
              -0.109548993, 0.667271137, -0.6230619, 0.028556237, 0.325320244,
              -0.122395389, -0.620488346, 0.0251942761, 0.051539924, 0.6615559,
              0.489159465, 0.4713657, -0.008212904, 0.5392778, -0.07886934,
              0.15426816, -0.199305087, -0.44928512, -0.195506215, -0.4107828
            ],
            [
              -0.3793825, 0.379909515, 0.427033067, -0.209580809, 0.3749162,
              0.580652356, -0.459335953, 0.178554073, 1.49185765, -0.451776147,
              0.00724703074, 0.573283732, -0.0122525943, -0.440028071,
              0.222796664, 0.552158952, 0.3037517, 0.1446196, 0.403493881,
              0.197282523
            ],
            [
              -0.397319555, -0.894428849, 0.481087923, 0.3021406, 0.738729954,
              -0.292402178, -2.63425159, -0.384382159, -0.03185409,
              -0.344984561, -0.492177129, -0.4010203, -0.06312108, -0.5380305,
              -0.7141803, 0.2117467, 0.004350543, 0.3052225, -0.256682724,
              0.07629621
            ]
          ],
          [
            [
              -0.3605888, 0.387818426, -0.209662884, 0.4724459, 0.18473804,
              1.61010849, 0.53588, -0.811587
            ],
            [
              -0.163957044, 0.644681454, -1.03248954, 0.0101322774,
              -0.009048402, -0.017904982, 0.261849, 0.09038936
            ],
            [
              0.5209732, -0.6590464, 0.486015946, 0.731600046, 0.5073474,
              -0.08956796, -0.3520576, -0.0715142339
            ]
          ]
        ],
        "fitness": 258.822235
      }
    },
    {
      "LayerStructure": [7, 22, 8, 3],
      "FitnessConvergence": [
        4.15504, 6.548488, 6.7329464, 6.83173561, 6.978214, 6.80959225,
        7.253897, 7.50745535, 7.411784, 7.70177269, 17.7352676, 21.8937759,
        45.1950531, 55.81558, 55.91557, 55.9782028, 56.08884, 59.3556061,
        203.148, 203.778366, 204.867874, 205.947433, 206.279, 206.74675,
        206.545792, 206.478958, 206.713211, 206.74675, 206.478958, 206.646179,
        206.881149, 206.579224, 206.579224, 206.579224, 206.713211, 206.948486,
        206.713211, 206.646179, 206.679688, 206.579224, 206.881149, 206.74675,
        206.713211, 206.847519, 206.679688, 207.015884, 207.1848, 207.2525,
        207.1848, 207.117172, 207.2525, 207.286392, 207.3203, 207.388184,
        207.354233, 207.2525, 207.388184, 207.3203, 207.490158, 207.592346,
        207.62645, 207.558258, 207.490158, 207.763077, 207.797287, 207.90004,
        207.865768, 207.968658, 208.071747, 208.278519, 208.486084, 208.55545,
        208.659668, 208.55545, 208.451431, 208.55545, 208.694443, 208.55545,
        208.624908, 208.624908, 208.90361, 208.694443, 208.590164, 208.694443,
        208.8338, 208.694443, 208.8338, 208.868683, 208.764069, 208.79892,
        208.764069, 208.729248, 208.764069, 208.764069, 208.659668, 208.659668,
        208.868683, 208.694443, 208.764069, 208.868683, 208.79892, 208.90361,
        208.659668, 208.764069, 208.659668, 208.79892, 208.729248, 208.729248,
        208.90361, 208.694443, 208.694443, 208.694443, 208.764069, 208.79892,
        208.79892, 208.729248, 208.624908, 208.8338, 208.8338, 208.79892,
        208.729248, 208.79892, 208.729248, 208.624908, 208.90361, 208.729248,
        208.659668, 208.764069, 208.764069, 208.868683, 208.8338, 208.8338,
        208.868683, 208.8338, 208.90361, 208.590164, 208.764069, 208.729248,
        208.79892, 208.764069, 208.659668, 208.764069, 208.694443, 208.868683,
        208.624908, 208.624908, 208.8338, 208.694443, 208.729248, 208.694443
      ],
      "fittestNetwork": {
        "layers": [7, 22, 8, 3],
        "biases": [
          [
            0.332044959, -0.2271747, -0.356914878, 0.0405589938, -0.4623847,
            -0.298462868, 0.299931765
          ],
          [
            -0.4581144, -0.405107379, 0.09328133, -0.304573178, 0.204247221,
            -0.2680372, -0.4044069, 0.166813836, 0.118906438, 0.372705579,
            0.3229537, -0.3582511, 0.164146766, 0.319749355, -0.252862453,
            -0.21059984, -0.287034631, 0.448861361, -0.484751821, 0.137212262,
            0.463445663, 0.415090919
          ],
          [
            -0.383526921, -0.3133905, 0.00126105547, -0.21885699, 0.09307605,
            0.324747682, 0.0248343349, -0.199866235
          ],
          [0.291270375, 0.383700252, 0.239625916]
        ],
        "weights": [
          [
            [
              -0.7523523, -0.208397225, 0.000369143381, -0.458272934,
              0.034185335, -0.127192572, -0.355263948
            ],
            [
              -0.2693775, -0.07174487, -0.442556173, -0.06884546, -0.234911919,
              -0.785618067, 0.385895938
            ],
            [
              -0.646065831, 0.5142671, 0.0326774567, 1.55270135, 0.102174461,
              -0.6315459, 0.0197649449
            ],
            [
              -0.2246901, 0.557590663, 0.123367488, 0.450978339, 0.274953336,
              -0.7139336, 0.254578859
            ],
            [
              0.166248024, -0.228104949, 0.320789576, 0.5430215, 0.10586828,
              0.383052945, 0.2868215
            ],
            [
              1.02582908, -0.3614323, 1.23849189, -0.594446838, 0.31445837,
              -0.421979427, -0.3262737
            ],
            [
              -0.243049279, -0.6667502, 0.5456473, -0.011479497, 0.590288639,
              0.452590942, -0.176433384
            ],
            [
              0.0436446853, 0.690729141, -0.09048027, 0.189103425, 0.7428893,
              -0.0377156138, -0.0873010457
            ],
            [
              -0.0404536277, 1.05586052, 0.471554458, 0.2889012, 0.8661053,
              0.417796433, 0.2564771
            ],
            [
              -0.130739152, -0.19836098, 0.510967135, 0.408536315, -0.424164534,
              0.9621949, -0.3419086
            ],
            [
              -0.0357486531, 0.0204913225, 0.07882956, -0.3278341, 0.417906523,
              -0.0101173939, -0.248451084
            ],
            [
              0.111302771, 0.1919766, 0.5765074, 0.256694347, 0.568552136,
              -0.653522, 0.6878097
            ],
            [
              0.261482775, 0.655159, -0.8594826, 0.240155756, 0.2608628,
              -0.449542433, -0.446219563
            ],
            [
              0.745486259, -0.09853831, -0.15761888, 0.181460008, -0.5720763,
              -0.435843825, -0.09825978
            ],
            [
              0.57059145, 0.150916472, -0.8766342, 0.371165752, -0.808318138,
              -0.118032753, -0.6056251
            ],
            [
              -0.005535006, 0.0071528554, 0.830553234, -0.110603191,
              0.146235168, 0.0568494946, -0.763594151
            ],
            [
              -0.106635988, -0.782971144, -0.0325457528, 0.428077132, 0.358527,
              -0.734522939, 0.0457077622
            ],
            [
              -0.242659718, 0.5951312, -0.565932631, 0.9741713, -0.257060558,
              0.2771294, 0.051150322
            ],
            [
              -0.114356779, 0.0481259227, 0.0318397246, 0.0308274627,
              -0.20667094, -0.1062009, -0.09743448
            ],
            [
              0.387905627, -0.339202583, -0.5801364, 0.1576115, 0.712917149,
              0.0232082009, -0.0124244159
            ],
            [
              0.078586936, -0.0634959862, 0.048377566, 0.35796386,
              -0.0202904511, 0.0285392962, -0.0542874
            ],
            [
              -0.257939041, 0.05796249, -0.06746795, -0.250356019,
              -0.000463642034, -0.743805051, 0.265648872
            ]
          ],
          [
            [
              -0.381883532, 0.6363964, -0.5857566, 0.037223015, 0.03644201,
              -0.07064589, -0.6306505, -0.627513766, -0.370892018, 0.009190288,
              0.695502, 0.0464602, -0.0233075, -0.15809, -0.285862327,
              0.160715938, -0.638006449, 0.2361374, 0.07765323, 0.145445555,
              -0.08450348, 0.06674357
            ],
            [
              0.214060575, -0.5228287, 0.373825759, -0.5425279, -0.269263536,
              -0.170321718, -0.499107718, 0.08828479, 0.5715025, -0.113491178,
              0.0866032839, -0.5373229, 0.03030769, 0.6978668, -0.17955257,
              0.355179548, 1.06368625, 0.7091063, -0.348323733, -0.5036396,
              -0.575074553, -0.3106867
            ],
            [
              0.4873334, -0.3348837, 0.119167387, 0.534359336, 0.7050016,
              -0.08299613, 0.247119248, 1.13037992, 0.487844229, -0.0211534686,
              0.136062682, 0.13854003, 0.269464552, 0.5476272, -0.744497657,
              0.340234965, -0.320953816, 0.662397563, 0.2771815, -0.4486568,
              1.15808272, -0.0271561369
            ],
            [
              -0.438249, -0.02436024, 0.268424481, 0.78627, -0.253606915,
              0.593243659, -0.0605858229, 0.493841618, 0.350493252, 0.434202433,
              -0.286449134, -0.3074825, -0.14691931, 0.2162882, 0.0263212323,
              -0.461488366, -0.2902316, -0.537713647, -0.190201342, 0.2312418,
              -0.683675, 0.7665446
            ],
            [
              -0.549684048, 0.162683, 0.0399513952, 0.3082348, -0.336218178,
              0.03461301, -0.12139979, 0.460915953, 0.576358736, -0.411922216,
              0.1408078, -0.0627122745, -0.409495056, -0.0265074652,
              0.004390624, -0.07882267, -0.381860971, 0.194130883, 0.026613608,
              -0.246954232, 0.5610115, -0.08508496
            ],
            [
              0.1400392, 1.1479038, 0.14001888, 0.3378064, -1.428426,
              0.460439771, 0.0966454148, -0.00352913141, -0.6026037,
              -0.327357262, -0.488019943, 0.110814288, 0.7547983, -0.199130133,
              -0.4772695, -0.720655262, -1.091156, 0.360825121, 0.590929151,
              -1.4327482, 0.02165324, 0.440125465
            ],
            [
              0.06087619, -0.139949933, 0.133610353, -0.253177047, 0.25741446,
              0.7696091, -0.169885814, -0.0444785841, -0.737191737, -0.749261,
              -0.379331321, 0.413419366, 0.6740663, -0.191279113, -0.5774275,
              3.21825647, 0.2882925, -0.50359726, -0.3162728, -1.92896366,
              0.3602156, 0.185744211
            ],
            [
              -0.05891061, -0.1484374, -0.7531382, -0.05755563, 0.7427366,
              -0.357444167, -0.673472941, 0.578919053, 0.279578477, 0.02217275,
              -0.5045512, -0.551491737, 0.586504638, -0.142603427, -0.5211654,
              -0.214946568, -0.115020275, -0.2776487, -0.0117726009,
              -0.447935075, 0.027831316, 0.760338068
            ]
          ],
          [
            [
              0.5349177, 0.08279282, 1.25521958, -0.202630877, -0.0111900009,
              -0.174216479, 0.0280037522, -0.144226983
            ],
            [
              -0.202915072, -1.19683111, 0.00443894649, -0.0025378943,
              0.245725915, -0.59709084, -0.0812360048, -0.169373021
            ],
            [
              -0.00162172318, 0.0375422239, -0.382626921, -0.7133517,
              -0.283705473, 0.8568435, -1.96874094, 0.0323933959
            ]
          ]
        ],
        "fitness": 208.90361
      }
    },
    {
      "LayerStructure": [7, 24, 8, 3],
      "FitnessConvergence": [
        3.07693481, 6.15388155, 7.169324, 7.209003, 7.24130249, 7.24381828,
        7.230777, 7.235283, 7.173109, 7.228434, 7.1922245, 7.31077766,
        7.32620955, 7.32819462, 7.45447254, 7.417071, 7.41303539, 7.344264,
        7.38517046, 7.45497942, 7.22003555, 7.360011, 7.334614, 7.416195,
        7.40296268, 7.388127, 7.3913517, 7.35473633, 7.39296675, 7.37251043,
        7.29740238, 7.433385, 7.173175, 7.339424, 7.270527, 7.405466,
        7.33993626, 7.341957, 7.14942837, 7.33540058, 7.34702349, 7.28211975,
        7.41274357, 7.10420036, 7.3764143, 7.388413, 7.44979954, 7.335961,
        7.35157728, 7.3102293, 7.346731, 7.369888, 7.340932, 7.28053474,
        7.32080936, 7.16173649, 7.17899227, 7.21377134, 7.386142, 7.31071234,
        7.40352249, 7.121295, 7.33447075, 7.37070465, 7.386941, 7.41654,
        7.10399151, 7.34354258, 7.1710825, 7.45011568, 7.40464926, 7.39678764,
        7.316428, 7.32128048, 7.39542866, 7.18100643, 7.44862556, 7.343054,
        7.341242, 7.346386, 7.44245625, 7.444626, 7.436901, 7.475126, 7.862335,
        7.10383034, 7.598037, 7.602966, 7.157153, 7.448745, 12.6345634,
        13.4782019, 18.5074215, 18.6159134, 20.6411476, 20.6409874, 20.67427,
        20.6996269, 20.6910915, 20.6838551, 20.5973263, 20.6593037, 22.005743,
        20.6793556, 21.9581661, 21.8090115, 21.9530048, 21.92583, 21.9447441,
        21.981739, 22.2157784, 21.9860249, 13.2360573, 21.7947311, 21.8894787,
        21.91713, 21.9202633, 21.8162842, 21.8296413, 22.1658478, 20.6974258,
        19.7394428, 21.8076344, 19.9259224, 20.61749, 20.6767025, 21.94206,
        20.7060814, 20.9725266, 25.5775146, 25.6921654, 25.6776028, 25.7689114,
        25.71792, 25.7240124, 25.6919136, 25.773304, 25.7321243, 25.71947,
        25.6996155, 25.69216, 25.6920643, 25.6521053, 25.7754021, 25.7082157,
        25.7814884, 21.894228, 25.7127533, 25.7462387, 25.622654
      ],
      "fittestNetwork": {
        "layers": [7, 24, 8, 3],
        "biases": [
          [
            0.129152164, 0.499778867, 0.272375345, -0.09533745, 0.465877175,
            -0.29708147, 0.239928827
          ],
          [
            0.455603719, 0.226306662, -0.326449871, -0.4098711, 0.4642763,
            0.484498739, 0.423148155, -0.252475858, -0.219189465, -0.2515837,
            -0.1331318, -0.176974952, -0.1972236, 0.45462954, 0.187536344,
            0.0443351865, 0.0572920442, 0.22572647, 0.184861168, -0.121089876,
            -0.239057958, -0.349738955, 0.0173762441, 0.03592652
          ],
          [
            -0.3316126, 0.0389651656, -0.345198274, 0.0169375539, -0.171791971,
            -0.38102138, 0.438814759, 0.1330745
          ],
          [-0.3988893, -0.292430043, -0.135401189]
        ],
        "weights": [
          [
            [
              -0.47579968, 0.111937106, -0.318070024, 0.14152202, -0.761207044,
              -0.325282723, -0.621531248
            ],
            [
              -1.2015543, -0.6795894, -0.463991135, -0.0278574247, -0.105946481,
              0.436435968, 0.091497384
            ],
            [
              -0.6855409, -1.80200684, -1.11230242, -0.0188332386, 0.0421721227,
              -0.31599915, -0.08595275
            ],
            [
              0.2448815, -0.0797661543, -0.03690195, -0.743343353, -0.6111493,
              0.681104541, 0.479819864
            ],
            [
              -0.28459537, 0.650381565, 0.5913383, 0.380762339, -0.20067662,
              0.389085472, -0.599586964
            ],
            [
              -0.142568946, 2.12259245, -0.123001873, -0.6458448, -0.579492569,
              0.00604200363, 0.3545667
            ],
            [
              -0.1306001, -0.690203547, -0.467941284, -0.21553123, -0.474943161,
              0.409971446, 0.405289739
            ],
            [
              -0.149018049, 0.343421876, 0.5909513, 0.5938582, -0.220981479,
              0.125613675, -0.144865215
            ],
            [
              -0.020383954, -1.33527553, 0.137749016, -0.440096647, 0.293091744,
              -0.177098855, -0.150375664
            ],
            [
              -0.3048332, -0.2961834, 0.7049098, -0.243245512, 0.7420776,
              -0.0942029357, -0.177489951
            ],
            [
              0.430298626, 0.06587094, -0.01835877, -0.5045626, 0.0362836123,
              -0.05593449, 0.130959868
            ],
            [
              0.0559897423, 0.469572484, -0.05211687, 0.225944161, -0.17758888,
              0.1194849, -0.6418282
            ],
            [
              0.06354891, 0.692184, 0.06831753, 0.5585067, 0.454219967,
              -0.733884931, -0.711847067
            ],
            [
              -0.7331978, -0.5765321, -0.041286286, 0.274736762, -0.6661167,
              -0.009370037, 0.0232346021
            ],
            [
              0.181001961, 0.5978962, 0.2987116, 0.487293839, 0.6201634,
              -0.08546603, -0.256957352
            ],
            [
              -0.7160845, -0.3974774, 0.403685331, -0.09604758, 0.9258483,
              0.7079412, -0.5054416
            ],
            [
              -0.6434696, -0.314977169, -0.6001519, -0.122154951, 0.7731863,
              -0.21897094, 0.265745252
            ],
            [
              0.0883113742, -0.1893962, -0.0105468631, -0.0646762848,
              -0.334679455, -0.5742426, 0.5649106
            ],
            [
              0.484628081, -0.8700174, 0.00210559368, -0.57844305, 0.680753946,
              -0.5485437, -0.657275736
            ],
            [
              0.183351159, 0.1192082, -0.5352342, 0.234822959, 0.384392023,
              0.0698306561, -0.906645
            ],
            [
              0.6533617, 0.202008367, 0.00266814232, 1.10797048, 0.38358888,
              0.08221676, 0.6219749
            ],
            [
              -0.2204479, -0.0243112911, 0.307843655, 0.52817, -0.329437852,
              0.6267942, -0.6384883
            ],
            [
              0.967050433, -0.0568845868, -1.22149181, 0.4841467, 0.1107174,
              0.12227533, 0.7061368
            ],
            [
              -0.483482361, -0.103075877, 1.00140655, 0.495340347, 0.322924674,
              -0.205824882, 0.0608355775
            ]
          ],
          [
            [
              0.160696059, 0.363286823, -0.416139245, -1.34633744, 0.7685478,
              0.6902573, -0.1114617, 0.335125238, 0.586924255, -0.764289856,
              0.162419274, 0.0271195173, 0.09803891, -0.437651664, 0.366220236,
              0.2133846, -0.402881622, -0.3544643, -0.6367296, -0.743819356,
              -0.180317521, -0.0306905266, 0.3671889, 0.4711864
            ],
            [
              0.9614421, 0.404467225, -1.06071782, -0.178997278, -0.8093952,
              -0.45334807, -0.5693135, 0.6604812, 0.4250553, -0.370064855,
              0.4610368, -0.0592579842, -0.6170584, -0.150000632, 0.5701573,
              -0.651607633, -0.174117029, -0.206602752, -0.6288761, 0.576459765,
              0.677469432, -0.571218669, 0.7347609, 0.2862302
            ],
            [
              0.0664138049, 0.520929456, -0.266718477, 0.115473688,
              -0.240938336, -0.102815986, -0.055955898, -0.6264905,
              -0.482277423, 0.329303831, -0.326737851, -0.206379011,
              -0.127875745, 0.915949, -0.213426948, -0.478583574, -0.146325648,
              0.251683831, 0.109809063, 0.46388644, -0.04221791, -0.113782763,
              -0.009693837, -0.531244636
            ],
            [
              -0.442517281, 1.07659423, -0.31965217, -0.03028196, -0.6902647,
              0.5326054, -0.2299506, -0.216329813, 0.464794278, -0.27422142,
              -0.787696958, -0.6088507, 0.4233634, -0.306492984, -0.02230221,
              -0.514924169, 0.323098451, -0.6857194, -0.719779551, 0.09197265,
              -0.458308458, 0.07943019, -0.195352018, 0.2993191
            ],
            [
              -1.2640655, -1.01902175, -0.0414285138, -0.580592453, -0.3974777,
              -0.7122116, -1.1509223, -0.211903214, 0.011410594, 0.7949536,
              -0.3127643, -0.536216736, 0.176603839, -0.203466177, 0.735658765,
              -0.478389382, -0.08069193, 0.6416933, -0.0443440266, -0.009916782,
              0.6601199, -0.00720812054, 0.0149994493, 0.649267554
            ],
            [
              0.4909148, -0.516119361, -0.210894525, -0.0289728045,
              -0.455561876, -0.229875624, -0.107520521, -0.5758127, 0.04694884,
              -0.0609545745, 0.09659125, -0.5304038, -0.523403645, -0.5059115,
              -0.08589874, 0.252420127, 0.486242831, -0.378379136, -0.05123938,
              -0.451286852, 0.04462364, 0.748236656, -0.3251025, -0.463518977
            ],
            [
              0.426635623, -0.5022253, 0.392051756, 0.093847096, 0.06933819,
              -0.0792246461, -0.6470841, -0.0762019157, 0.142431244,
              -0.661150753, 0.05264346, -0.0603405833, -0.6417091, 0.5639814,
              0.124183655, -0.796958447, -0.159345746, -0.194670439, 0.7965704,
              -0.206560373, -0.05524933, -0.7183707, -0.6374762, 0.064708434
            ],
            [
              -0.193897069, -0.167012572, 0.16370903, -0.2956897, -0.190628469,
              0.137182653, -0.6444502, -0.133245543, 0.2607795, -0.38036263,
              0.4619143, -0.127871335, 0.183190569, 0.07019517, -1.37254786,
              -0.596119046, 0.388577, 0.6450058, -0.322888225, -0.3201216,
              0.05120664, 0.0584787726, 0.08640244, -0.118650377
            ]
          ],
          [
            [
              -0.190356433, 0.5869758, -0.335736066, 0.009168267, -0.114610933,
              0.506422639, -0.812422454, -0.2285241
            ],
            [
              -0.216624141, 0.05970341, -0.142370939, -0.5766432, 0.398242921,
              -0.07048831, 0.343337178, -0.8249738
            ],
            [
              0.127413869, 0.941040933, 0.2857145, 0.426366031, 0.0492435023,
              -0.144650459, 0.615091562, 0.346838981
            ]
          ]
        ],
        "fitness": 25.7814884
      }
    },
    {
      "LayerStructure": [7, 26, 8, 3],
      "FitnessConvergence": [
        3.24029922, 6.92597, 17.7992764, 21.8726273, 21.921545, 43.0450859,
        43.0823822, 65.68716, 222.408646, 222.1884, 224.245, 228.18483,
        228.621826, 236.042343, 239.450409, 254.697891, 254.697891, 255.833817,
        257.131836, 257.6425, 260.701355, 264.516449, 270.206543, 276.2128,
        277.409668, 278.528961, 277.595245, 277.595245, 277.317017, 277.132019,
        278.247833, 278.1543, 278.6229, 279.8528, 284.444427, 285.1484,
        283.845245, 285.5531, 285.654541, 283.6464, 65.88643, 284.846039,
        284.846039, 285.1484, 285.24942, 285.24942, 285.1484, 284.946716,
        286.163483, 284.144348, 268.51712, 284.745453, 284.044525, 285.350525,
        284.745453, 284.444427, 284.846039, 285.24942, 284.846039, 284.64502,
        284.544647, 284.946716, 284.144348, 284.745453, 284.544647, 285.654541,
        284.344269, 285.350525, 286.2656, 285.8578, 91.0099, 63.237236,
        282.070862, 284.444427, 284.946716, 284.946716, 285.5531, 285.8578,
        286.2656, 55.910862, 286.7779, 287.0866, 286.7779, 286.572632,
        277.96756, 286.2656, 285.959564, 286.2656, 287.499817, 55.94765,
        286.470184, 286.367828, 287.189728, 286.2656, 287.189728, 285.24942,
        286.061462, 286.470184, 286.7779, 286.470184, 286.470184, 276.487579,
        286.470184, 287.293, 286.367828, 285.959564, 286.2656, 286.2656,
        286.2656, 286.367828, 286.061462, 287.0866, 286.983582, 287.293,
        286.061462, 286.572632, 287.293, 285.654541, 286.163483, 286.2656,
        286.061462, 285.7561, 286.6752, 286.061462, 286.880676, 284.946716,
        285.654541, 285.8578, 277.132019, 279.567474, 286.2656, 287.293,
        286.061462, 286.572632, 285.7561, 284.444427, 277.5024, 286.061462,
        286.367828, 277.039673, 288.018921, 271.582642, 290.4443, 290.4443,
        290.9799, 290.551178, 290.7653, 291.302673, 290.872528, 292.386536
      ],
      "fittestNetwork": {
        "layers": [7, 26, 8, 3],
        "biases": [
          [
            -0.342113733, -0.267536759, 0.398421884, -0.472981572, 0.3602252,
            -0.0308547616, 0.149269208
          ],
          [
            -0.000889837742, 0.410291672, -0.4857844, -0.0596755147,
            -0.475402832, 0.297569871, 0.248454079, 0.07172042, 0.450976729,
            -0.1104278, 0.285532475, 0.008535922, 0.365389943, 0.3928318,
            0.4985106, -0.0541846156, -0.239731848, 0.334252834, 0.379336357,
            0.206072435, 0.40808773, 0.403069258, -0.3270496, 0.329196572,
            -0.2248357, -0.212055624
          ],
          [
            -0.175556958, -0.283257961, -0.184768021, 0.42989552, -0.142429411,
            0.247796044, 0.318058, -0.234893382
          ],
          [-0.02076298, 0.00110763311, 0.372931242]
        ],
        "weights": [
          [
            [
              0.2950964, 0.384366363, -0.0118773952, 1.7481457, 0.285898566,
              0.688561559, 0.05414498
            ],
            [
              0.299387, -0.596477151, -0.680921555, -0.238287091, 0.0236763954,
              1.37557209, -0.6830137
            ],
            [
              -0.0211849213, 0.05530902, -0.06392944, -0.937262952, 0.235770553,
              0.128953442, -0.236770034
            ],
            [
              -0.6424358, -0.678815365, -0.9027889, 0.0543702841, -0.09516245,
              0.452675164, 0.0280770846
            ],
            [
              0.414726228, -0.6834829, 0.994121, -0.647750258, 0.8708042,
              -0.4579203, 0.318322867
            ],
            [
              0.7135291, 0.3062001, 0.219616771, -0.546475649, 0.5677415,
              -0.258570522, 0.5574827
            ],
            [
              0.0246869028, 0.07393974, 0.123437569, 0.137383342, 0.09331578,
              -0.6023859, -0.521702766
            ],
            [
              0.382954478, 0.060273394, 0.6150304, 0.07118124, -0.126826808,
              -0.238304645, 0.2759
            ],
            [
              0.645548344, 0.3248183, 0.513457537, -0.377028465, -0.485268772,
              -0.363464236, -0.225778818
            ],
            [
              0.6155339, -0.6765108, -0.131996453, 0.0282333, -0.384510368,
              0.01693112, -0.586705446
            ],
            [
              0.2617101, -0.08574808, 0.235772014, -0.709123969, 0.579241633,
              -0.220870674, -0.00510129565
            ],
            [
              0.7614622, 0.343900681, 0.7980452, -0.157025486, -0.9971507,
              0.610952139, 0.466468334
            ],
            [
              -0.6467415, -0.448300123, 0.422758937, 0.982314348, 0.00760593731,
              -0.258992672, 0.09089428
            ],
            [
              -0.5499661, 0.120401621, 0.458465934, 0.4876281, 0.215016037,
              -0.309696674, -0.7247114
            ],
            [
              -0.457314163, 0.6379445, -0.07414931, 0.447868228, -0.309115857,
              0.415285, -0.03685802
            ],
            [
              -0.355246544, -0.399209142, -0.2003603, 0.427994221, -0.407560468,
              -0.0921018049, 0.1891616
            ],
            [
              0.484897017, 0.0131944185, 0.5649047, 0.707491636, 0.492496818,
              0.419967055, -0.840716541
            ],
            [
              0.025071444, 0.118242204, -0.0177859068, -0.258548379, -0.3390875,
              -0.211739957, -0.322095037
            ],
            [
              -0.2101762, -0.095110476, -0.0325356126, 0.632499933,
              -0.378304452, -0.5125699, 0.6238229
            ],
            [
              -0.907514334, -0.6467992, 0.184047639, -0.2515774, -0.247384191,
              0.6761198, 0.111150637
            ],
            [
              -0.139120638, -0.435289174, 0.115957558, -0.9969458, -0.453467131,
              0.378022879, -0.161861628
            ],
            [
              0.203822881, 0.326192558, -1.16732085, 0.379280329, -0.0325678177,
              -0.6187936, 0.1709407
            ],
            [
              -0.410152316, -0.43635, -0.102965258, -0.117876671, 0.0638016462,
              -0.37815696, 0.7027033
            ],
            [
              0.119384229, 0.7074369, -0.448228717, -0.043720834, -0.69774437,
              -0.06765884, 0.5440979
            ],
            [
              0.218183488, -0.07130518, 0.306993723, 0.004622853, 0.5013396,
              -0.0865404159, -0.141389877
            ],
            [
              0.0410438664, -0.673367143, -0.5714431, -0.6920376, 0.3224419,
              -0.497703433, 0.7710017
            ]
          ],
          [
            [
              -0.1730441, -0.0590071864, -0.10702128, -0.498064876, 0.8444348,
              -0.3880489, -0.3510748, -0.251295567, 0.6797179, 0.123483993,
              -0.2308856, 0.338137358, -0.256093383, 0.163343012, 1.08170259,
              -0.759841442, 1.2792151, 0.4284191, 0.0124815684, -0.204577789,
              -0.335865378, -0.33674857, -0.9752079, 0.230384588, -0.347906232,
              -0.561308
            ],
            [
              0.130727887, 0.201227352, 0.2789728, 0.09920114, 0.592718,
              -0.299294621, -0.131595373, -1.1446296, -0.157595634,
              -0.304491639, 0.0552746654, 0.3366302, -0.260627478, 0.417402744,
              -0.32569313, 0.451870143, 0.0443566442, -0.213766277, 0.52827394,
              -0.0634498, -0.5525671, -0.0950252861, -0.02474457, 0.223192483,
              -0.3057996, -0.115205169
            ],
            [
              -0.0645794049, 0.00100231171, -0.0446026921, 0.166081116,
              -0.562365532, 0.4761934, 0.536454439, 0.454203725, -0.3320248,
              0.0856165439, 0.0259848833, 0.09825069, -0.482344925,
              -0.766387939, 0.0382083, -0.16395539, -0.575773, -0.5539428,
              0.0922431946, -0.07920897, 0.629220963, 0.6360141, 0.429103941,
              0.166833818, -0.7648791, -0.1916976
            ],
            [
              0.09083724, 0.04643339, 0.401802778, -0.62168777, -0.360848784,
              -0.4088049, 0.7522726, -0.627209544, -0.208764434, -0.218462467,
              -0.09665245, 0.665598154, 0.276437521, -0.573207259, 0.261285871,
              0.50967145, 0.428616583, -0.404093832, 0.5338503, -0.74823904,
              -0.436115861, 0.6580671, 0.7321397, -0.0460127, 0.0608098954,
              0.496196032
            ],
            [
              -0.0397434235, 0.7462995, 0.0592072941, 0.391479254, -0.132451534,
              -0.07556242, 0.222519279, -0.319725037, 0.395095229, 0.6634804,
              0.06919073, 0.6306132, 0.09501523, 0.746711969, 0.598233759,
              0.0761309639, -0.1724382, -0.0105067594, -0.562586665,
              -0.03307405, -0.211800337, -0.404063225, 0.405897856, -0.5996801,
              0.689057231, 0.304202646
            ],
            [
              0.417950481, -0.24198547, 0.146340966, 0.131746054, 0.4306423,
              0.205983266, 0.4207154, -0.100647777, -0.359972, 0.670129955,
              0.250148177, 0.0890153348, -0.0247128569, -0.22342366,
              0.599059463, -0.108527184, 0.765653849, -0.188759327,
              -0.179901153, 0.09931699, -0.424637169, -0.701836467, 0.117754877,
              -0.739649057, 0.5043452, -0.490148634
            ],
            [
              0.450550079, -0.110566467, -0.5906534, -0.325268656, -0.2701074,
              -0.2704483, -0.5620545, 0.662258744, 0.003672112, -0.05873239,
              0.242832065, 0.719034433, -0.750778854, -0.6366662, -0.07038611,
              -0.7266624, 0.39356944, -0.6851003, 0.6210483, -0.0653719,
              0.6198336, -0.00511288643, 0.08193297, -1.05234921, 0.07736305,
              -0.5763049
            ],
            [
              0.329030275, -0.02954024, -0.675206542, -0.321901083, -0.695909,
              0.2210593, 0.917108655, -0.557889, 0.110408485, -0.644242048,
              0.308922529, 0.576127052, -0.749794364, 0.688161731, -0.01749845,
              0.7126454, 0.7149931, 0.09890554, -0.0397626162, -0.573091269,
              0.0249246359, -0.01588279, 0.18381238, -0.163285792, 0.4736786,
              -0.07587261
            ]
          ],
          [
            [
              -0.391515851, -0.7137954, 0.337302446, 0.225748628, 0.4642452,
              -0.438516259, 1.13498986, 0.0444769636
            ],
            [
              -0.328858137, -0.351899862, 0.4693119, -0.5886094, 0.300206482,
              0.333307475, 0.638969541, -0.703442931
            ],
            [
              0.0863039345, 0.471633673, 0.6489754, -0.230683059, -0.004572749,
              0.18020907, 0.07263257, 0.180650666
            ]
          ]
        ],
        "fitness": 292.386536
      }
    },
    {
      "LayerStructure": [7, 28, 8, 3],
      "FitnessConvergence": [
        2.32858062, 5.27800941, 5.803961, 5.96723, 6.006801, 6.33926964,
        6.489974, 9.511721, 21.6895943, 21.694397, 17.9938011, 17.9928417,
        24.04338, 23.7729187, 23.6800785, 23.7812576, 28.5403023, 28.711813,
        28.6988144, 28.2476063, 28.3948479, 28.6179771, 28.6871681, 28.6125355,
        28.3150978, 28.5583076, 28.63307, 28.2564888, 28.3431282, 28.2884827,
        37.6670952, 37.70047, 28.6488953, 40.16926, 28.19305, 28.9867516,
        29.0174122, 43.93408, 44.03228, 44.1511269, 44.0710144, 43.98776,
        44.08239, 43.987812, 44.193737, 44.0579, 43.98951, 44.0313339, 43.98776,
        44.2645721, 44.521492, 44.26084, 44.3794975, 44.33104, 44.3769531,
        44.4584923, 44.5353737, 44.3996353, 44.29687, 44.53296, 44.2837372,
        44.94187, 44.49572, 48.5848236, 48.650753, 48.651207, 44.3021469,
        48.67379, 48.5960464, 44.5672646, 44.40347, 44.4476547, 48.6106529,
        44.2636681, 53.7462845, 53.8674431, 52.03179, 53.85288, 53.81813,
        44.7114525, 53.838, 53.8960457, 51.9163742, 53.86503, 48.6561661,
        53.85207, 53.8485756, 53.8425331, 53.8824425, 53.7646179, 51.89237,
        53.809864, 53.8204422, 53.8281136, 53.84956, 44.6303673, 53.86752,
        53.84337, 53.809845, 53.78691, 51.8284454, 52.3539658, 53.87322,
        53.8769531, 53.8557777, 53.87484, 53.9191437, 53.9031639, 53.83477,
        66.9764, 67.01525, 66.97986, 66.976944, 66.9953, 66.98185, 67.02025,
        66.9768753, 66.96428, 66.9723053, 67.0042, 67.00866, 66.97862, 67.0212,
        66.9874039, 67.00501, 66.98479, 66.98237, 67.03832, 67.02504, 67.05527,
        67.02635, 67.02157, 67.03547, 67.03785, 67.04732, 67.03815, 67.0288239,
        67.04121, 67.03696, 67.0462, 67.0385742, 67.0565948, 67.05661, 67.06144,
        67.0768356, 67.0566559, 203.683319, 204.128372, 67.05937, 67.06288
      ],
      "fittestNetwork": {
        "layers": [7, 28, 8, 3],
        "biases": [
          [
            0.439329624, -0.497997165, -0.263546467, -0.140658081, 0.206517324,
            -0.455923557, 0.12631844
          ],
          [
            -0.4235885, 0.0455049872, -0.241035879, -0.152267516, 0.153789625,
            0.07414788, 0.302520156, -0.3479705, 0.00303632021, -0.38437736,
            -0.312313437, 0.417744756, -0.263672352, 0.209774718, 0.222758636,
            0.457100749, 0.3102777, -0.446536779, -0.180885732, -0.389981031,
            -0.409836054, -0.324653983, 0.0558276772, -0.205065191, 0.116578519,
            -0.140924275, -0.388376951, -0.08002657
          ],
          [
            0.3498057, 0.306388378, 0.257702351, 0.23084949, -0.05477935,
            -0.368418574, -0.284165025, 0.026216805
          ],
          [0.340252519, -0.482539177, -0.392340183]
        ],
        "weights": [
          [
            [
              -0.592723131, 0.344992846, 0.4976364, 0.185591727, -0.135235667,
              -0.496181846, 0.08704704
            ],
            [
              0.51275903, 0.4899844, 0.4884644, -0.5563512, 0.000427874475,
              0.2237203, -0.626358151
            ],
            [
              0.667217553, 0.7374115, 0.3602788, 0.639847636, -0.634799063,
              0.715931058, 0.4288271
            ],
            [
              -0.317018718, -0.837972939, 0.7352059, -0.133941874, 0.0224058814,
              -0.5574055, 0.3616832
            ],
            [
              0.273131251, -0.0353668928, -0.6403425, 0.212766141, -0.08691302,
              0.3686579, 0.4141365
            ],
            [
              1.21629131, -0.241792679, 0.5531049, 0.0190854669, -0.324048877,
              -0.06899961, -0.0445509031
            ],
            [
              -0.4263335, -0.572300553, -0.0350896753, -0.0449755, -0.2032755,
              0.55025214, 0.06089499
            ],
            [
              0.292912364, 0.5119132, -0.0114073157, -0.5949005, 0.249184489,
              0.467688382, 0.611755967
            ],
            [
              -0.1076653, 0.318576336, -0.5863807, -0.06036234, 0.391186237,
              0.596978366, -0.7272943
            ],
            [
              -0.6270199, -0.5514537, -0.7655159, -0.1082918, -0.732325852,
              -0.5778754, 0.148408949
            ],
            [
              0.491233766, -0.320763946, 0.3358189, -0.174596488, -0.145460978,
              -0.453263044, -0.6276033
            ],
            [
              1.36129749, 0.10645622, -0.05165845, -0.0487607121, 0.267806143,
              -1.21069944, 0.343302071
            ],
            [
              -0.346957266, -0.279624879, -0.270458966, 0.6716306, -0.644479632,
              -0.118617058, 0.223713025
            ],
            [
              0.225814089, 0.500699461, 0.548302352, 0.00559192849, 0.427230924,
              0.146835566, -0.5452402
            ],
            [
              -0.158510059, 0.0178497322, -0.09541532, 0.597056568, 0.10488534,
              -0.5811378, 0.0543916225
            ],
            [
              0.322528332, 0.0471166968, 0.0311689973, 0.174820215,
              0.0118511617, -0.568997741, -0.223557711
            ],
            [
              0.809498966, 0.06394785, 0.6441592, -0.26559788, 0.200606808,
              -0.08867801, -0.6054615
            ],
            [
              -0.237550974, 0.703235745, 0.7187986, -0.0853196159, -0.62907064,
              0.493784547, -0.844265
            ],
            [
              0.609039843, -0.120891213, 0.133030713, 0.295598775, -0.640675068,
              0.6257057, -0.2973314
            ],
            [
              -0.482874, 0.395526052, 0.299979538, 0.309386075, -0.147217691,
              -0.0263304114, 0.7314124
            ],
            [
              0.38839066, 0.2668289, -0.0298954844, -0.174297318, -0.2840008,
              0.361387849, -0.07687429
            ],
            [
              0.07646538, -0.417358577, 0.4607198, -0.1998524, 0.8584325,
              -0.285802245, 1.27916265
            ],
            [
              -0.178067058, -0.160984218, 0.3569592, 0.0287650228, -0.5577741,
              0.40863657, -0.3700384
            ],
            [
              0.08532733, 1.494833, -0.7516855, 0.1531955, 0.203593165,
              0.444799781, -0.897745669
            ],
            [
              -0.6196097, -0.456436276, -0.3236755, -0.208965957, 0.0109858578,
              -0.275372863, -0.109802544
            ],
            [
              0.309145629, -0.022835955, 0.06328875, 0.10651169, -0.191046417,
              0.7482393, -0.0521348044
            ],
            [
              0.317970276, 0.0218006987, -0.271700978, 0.7128043, 0.5216484,
              0.3040121, -0.6964052
            ],
            [
              -0.0109780915, -0.8583923, 0.304969877, -0.230933368, -0.3349545,
              -0.006103933, -0.253514767
            ]
          ],
          [
            [
              0.7306948, -0.186922014, 0.678851366, -0.342820317, -0.759174943,
              0.6034092, -0.0227158815, -0.129985645, 0.6148834, -0.51509583,
              0.7147755, 0.6493175, -0.4566761, -0.7614613, -1.16612661,
              -0.128827572, -0.182189822, -0.300691724, 0.04419497,
              -0.633229136, 0.119704321, -0.0413535722, 0.397196531, -0.6806263,
              0.03697115, -0.171880081, -0.0637286156, 1.1765027
            ],
            [
              0.207137451, -0.3728477, -0.0604699142, 0.215733826, 0.2147818,
              -1.07796645, -0.8035049, -0.655321, 0.466708481, 0.01930775,
              0.5500523, -0.09729164, -0.254127175, -0.842723966, 0.07538569,
              0.0035457015, 0.376645774, -0.293528229, -0.443693876,
              -0.151566625, 0.2964732, 0.8081418, 0.359824, 0.142657563,
              -0.594035149, 0.5294875, 0.06880158, 0.107886322
            ],
            [
              0.581670463, -0.4694445, 0.0269535761, -1.45929074, 0.169424757,
              -0.320967555, -0.23345834, 0.030572474, -0.149367273, 0.619827867,
              -0.369345546, 0.7403904, 0.242713273, 0.06084095, 0.2766348,
              0.06383133, -0.6901181, 0.1925001, 1.20744729, -0.05694189,
              -0.3927835, 0.6010117, -0.307484955, -0.02960378, -1.35658169,
              0.7227106, -0.4640857, -0.0953121558
            ],
            [
              -0.5801791, 0.9695967, 0.9520392, 0.29702878, 0.07289982,
              0.9361103, -0.190015718, -0.7714075, 0.09650415, -0.10718435,
              -0.0120275179, 0.7581644, -0.556535244, 0.3341527, -0.08493696,
              0.224030182, -0.400434732, 0.297118545, 0.154331133, 0.6905997,
              0.335049629, 0.718521953, 0.7141181, -0.296113968, 0.000424096535,
              0.068077296, -0.287897229, 0.149071991
            ],
            [
              -0.214705184, 0.736481547, 0.103929043, -1.22327816, -1.08031762,
              0.23484093, 0.179309726, 0.109095991, -0.0144072175, 0.276189,
              0.17788209, 0.7354735, -0.004016524, -0.0280120317, -0.459484339,
              0.5815383, -0.52620244, 0.174081683, 0.131571248, -0.142365515,
              0.477839947, -0.4563104, 0.148472369, 0.696439, -0.358277,
              -0.1517502, -0.450988531, 1.33653963
            ],
            [
              0.0380244255, -0.512001038, 0.126199245, 0.8980929, -0.092746824,
              -0.189713061, -0.7290591, -0.849742651, 0.407855749, -0.8577709,
              -0.04486966, 0.576532066, -1.12585092, -0.2409561, -0.378161043,
              0.23939532, 0.615278244, -0.0483936034, -0.06853808, 0.3695438,
              -0.164730385, 0.194888234, 0.8501014, 0.225466713, -0.605452061,
              0.6819329, -0.3544973, -0.08893174
            ],
            [
              0.653269768, 0.029015515, 0.105302021, 0.36961028, -0.490080267,
              -0.5559006, 1.06029665, 0.00276196, -0.139236987, -0.379634082,
              0.565439939, -0.6138234, 0.7370465, -0.3775978, -0.8369146,
              0.163549811, 0.4350561, -0.148790449, 0.6266459, -0.213314474,
              0.0731703639, -0.08563581, -0.8607171, -0.31323123, -0.181677416,
              0.328944981, -0.385045171, 0.2765291
            ],
            [
              0.395487875, 0.007814168, 0.25876376, -0.6600971, 0.62980175,
              0.2668833, -0.8446999, 1.11799133, -0.6406138, -0.292577773,
              -0.2548127, -0.5432408, 0.0130496621, 0.0820352063, 0.07788444,
              0.645823836, -0.0534655452, 0.189741969, -0.462591648,
              0.0414141342, 0.0855190754, 0.7435744, -0.6285709, 0.349996984,
              -1.00363946, 1.23120964, 0.386522, -0.459526539
            ]
          ],
          [
            [
              -0.119509429, 0.7538737, 0.118394554, 0.103244483, 0.122194469,
              -1.0920589, -0.45650813, -0.0340712257
            ],
            [
              -0.3832074, 0.674102366, 0.724879563, 0.5309252, -0.767560244,
              -0.384386063, -0.009161413, -0.7489095
            ],
            [
              -0.307715416, -0.182400852, 0.22423926, 0.204012185, -0.357798338,
              -0.184391156, 0.160385713, -0.00155323744
            ]
          ]
        ],
        "fitness": 204.128372
      }
    }
  ]
}
