{"_info":"A total of 10 cycles, each trained for 150 epochs, with a total of 55 agents, for a total of 1273.332 minutes.","_additionalNotes":"Non greedy, with speed info, one hidden layer","Evaluations":[{"LayerStructure":[8,10,3],"FitnessConvergence":[5.120659,5.12070656,8.18318748,8.213597,12.5806217,28.1047649,28.2640457,40.1901474,43.1189957,199.8721,201.151154,203.5253,204.5129,204.480743,204.706223,207.831512,209.500626,211.477829,212.998825,220.113739,235.77037,231.256927,232.073776,237.697372,238.089355,239.737335,239.794876,242.433624,242.673,243.1542,243.396011,244.126389,248.021713,246.110931,246.04808,246.552353,248.280273,247.828384,246.932846,245.17392,246.552353,244.864243,245.985291,244.3715,244.5559,244.126389,243.4566,247.764069,247.443253,244.31015,247.764069,245.547272,248.280273,246.299789,247.315323,246.99646,247.315323,243.699432,247.251434,243.275009,243.3355,243.821167,246.99646,247.571411,245.049881,243.882111,245.236008,247.571411,243.760284,246.615631,247.251434,245.797256,246.8693,244.864243,244.926071,245.111877,245.17392,243.396011,247.1876,246.04808,244.679077,243.3355,246.362839,245.360352,248.8001,249.916931,251.793411,253.9265,258.896545,261.158966,268.350037,270.036072,269.950958,270.121246,269.950958,269.696167,269.781,270.719971,271.409424,269.2732,272.629425,276.395874,275.756775,275.122253,275.031982,278.7169,274.671844,278.6229,275.756775,277.5024,277.409668,276.1214,275.393646,276.395874,276.395874,277.5024,277.595245,276.2128,276.947418,278.9052,275.212616,278.811,277.688171,275.393646,276.855255,278.7169,277.132019,275.665833,275.756775,275.031982,276.030121,277.409668,277.7812,277.96756,275.9389,275.393646,274.941833,279.377777,274.851746,274.941833,276.763184,277.595245,280.139069,274.851746,274.582031,280.23468,278.999542,277.96756,274.582031,276.487579],"fittestNetwork":{"layers":[8,10,3],"biases":[[0.2877673,-0.127040446,0.02622348,0.0769876838,-0.358255625,-0.407516837,-0.4346149,-0.474311233],[0.372105718,-0.275663257,-0.1417082,0.269059181,-0.04371196,0.4017253,-0.363391042,-0.220297158,-0.390111446,-0.128481567],[0.322085857,0.1660664,0.350589871]],"weights":[[[-0.406294882,0.0792002,0.443346858,-0.197042584,0.041123122,-0.04211372,0.4342724,-0.4587182],[0.0503753424,0.184334829,0.0766555145,-0.4101409,0.00348859932,0.115451008,-0.3975981,0.9296106],[0.085708,0.725334644,-0.2532211,-0.5567781,-0.415505469,0.3744802,0.29151,0.552660763],[0.5672199,-0.51542604,0.440193057,0.233966827,0.420781553,-0.1590156,-0.5378811,0.0457278937],[0.33479178,0.6566784,0.04680596,0.668022454,-0.6292143,-0.507999957,-0.399481177,-0.08935237],[-0.183342218,-0.06186585,-0.0612962842,0.5212911,-0.170239761,0.450065553,0.46318236,-0.5707856],[0.580601752,0.364629328,0.160230741,0.801552534,0.163798645,0.325319469,0.0314828,-0.787142158],[-0.548897564,0.313146,-0.9299037,-0.02077948,-0.472428024,0.416747451,-0.3695202,-0.23960574],[0.6689474,-0.5337517,-0.199388385,-0.244253412,0.6568201,-0.183741808,-0.0249738581,0.3146518],[-0.443750322,-0.5544475,0.255708158,0.912873,-0.212094381,-0.5609568,-0.272974938,-0.529868066]],[[0.4592911,-0.6170117,0.001884391,-0.106103726,0.676622,0.135899544,0.7322094,0.0573668145,0.436502755,-0.109198779],[0.5682065,0.5525324,-0.4712053,1.17402112,0.441165239,-0.5592815,-0.7572482,0.109702766,-0.0177058578,-0.5166212],[-0.08017385,-0.0362128168,-0.713039458,0.7213464,-0.143094838,0.228980049,0.9046947,-0.8092877,-0.244655132,-1.37386918]]],"fitness":280.23468}},{"LayerStructure":[8,12,3],"FitnessConvergence":[5.647564,7.013673,19.0457344,19.4806576,21.9565563,30.0101814,47.092598,47.0634766,46.28764,46.4893341,46.6940346,46.45087,46.9337044,46.9621353,46.9527359,46.5095749,47.0903854,47.51691,46.707798,46.6329155,46.50805,46.8396072,46.6488075,46.655262,46.74257,46.9171829,46.6707573,46.9454155,63.79727,63.83668,63.8738174,63.914608,63.985817,63.9998131,45.8323975,63.9770279,63.997097,63.9685135,63.9901772,63.99504,64.051796,64.13309,64.07965,64.0596161,64.05002,64.07469,64.10126,64.09919,64.1060257,64.07758,64.07345,64.06158,64.0720139,64.1266861,64.05904,64.0887,64.06203,64.07263,64.09247,64.11447,64.07611,64.98052,65.1959152,65.39501,65.3959656,65.58726,65.5828247,65.5841751,65.58898,65.60015,65.60556,65.6208,65.63079,65.63009,65.63093,65.63169,65.73448,196.936035,197.5766,198.36792,198.79715,199.37532,200.31459,201.971146,217.5767,219.186218,222.673981,224.427109,226.513275,227.176636,227.224289,227.224289,228.573135,229.504822,229.307556,227.0339,228.18483,228.865891,231.003723,231.003723,230.650879,229.702682,231.817413,230.85228,234.853729,234.8002,236.206055,235.66188,234.267181,235.933426,235.445435,234.853729,236.424957,235.175827,236.424957,234.8002,234.693253,235.175827,235.391418,235.175827,235.175827,235.607712,235.77037,235.879028,235.22966,235.12204,235.391418,234.853729,235.607712,234.853729,234.853729,236.424957,234.373444,234.9073,237.585785,236.534668,236.424957,237.809143,22.0773811,195.950134,235.0683,236.424957,237.921082,235.77037,236.644547,237.418747,237.697372,237.418747,235.66188,237.141235],"fittestNetwork":{"layers":[8,12,3],"biases":[[-0.249075949,0.2174692,0.178580031,0.4242128,-0.412711859,0.415311575,-0.1888482,0.271637917],[-0.308036566,0.222188458,0.227192745,0.126793012,0.2203214,0.143165931,0.109513938,-0.482920527,0.32561028,-0.178296626,0.106487334,-0.318775177],[0.0573082566,0.212403521,0.366001725]],"weights":[[[0.7138065,-0.480445266,-0.172294527,0.129502252,0.6819638,0.228108078,0.8039557,-0.612354457],[0.0273517184,-0.57195437,0.10538204,0.06702994,-0.111738622,-0.0387996174,-0.20187366,0.179187283],[0.0540764928,0.250902861,-0.194643721,-0.4619903,0.8874983,-0.128996029,0.254771739,0.7396946],[0.06221234,1.80452967,-0.424345732,0.635398865,0.318317831,0.7246825,-0.108513176,-0.09273869],[0.05573237,0.0467931032,-1.261086,-0.290157676,0.257611632,-0.12346822,0.124535307,-0.3246954],[-0.367730379,1.10522783,0.5071021,-0.3065074,0.214935422,0.4329185,-0.100807019,-0.241220787],[-0.681720555,0.387567937,-0.58330214,0.23188512,-0.699524164,0.17658335,-1.44410181,-0.6184974],[0.120632365,0.4290077,-0.4170136,-0.478285372,-0.386106968,0.6094901,-0.1535699,-0.6887276],[0.6838842,0.871028,0.005807928,0.0315371,0.215646625,0.110649489,-0.7071725,-0.32870394],[-0.0802483559,1.34527659,1.2166214,0.3231905,-0.1401805,-0.179852232,0.0612114072,0.162401676],[-0.06694196,-0.6518025,0.1817094,0.0142963529,0.09129169,-0.215807125,-0.178823888,0.8023643],[0.738290846,-0.15279825,-0.214247763,-0.159480721,-0.348871768,-0.158706948,0.008689774,-0.428658366]],[[0.625960469,-0.1972909,0.443980128,-0.09689796,0.426936865,-0.143810153,0.01012526,0.05205212,-0.327130854,0.1101588,-0.0275211073,-0.190425962],[-0.300829351,0.126454428,0.3924326,-0.5793981,-0.0521931052,-0.4081917,0.0263043679,-0.483650029,-0.45020467,0.658988237,0.755260944,0.5795968],[-0.6307076,0.0175775886,0.745115638,-0.0300056841,0.1366353,0.9885644,-0.5193326,0.525898337,-0.07245572,-0.408586442,0.02168637,0.390754461]]],"fitness":237.921082}},{"LayerStructure":[8,14,3],"FitnessConvergence":[5.44815636,5.515325,5.842495,7.355416,7.535064,7.78474236,7.86730671,7.410717,7.697481,7.74730444,7.93515444,7.7839613,7.53702545,7.74474144,7.6769886,7.729703,7.593775,7.59197474,7.672578,7.89740658,7.54725933,7.786745,7.578087,7.7706337,7.22067356,7.5709877,7.71453953,7.6736393,7.68864727,7.749021,7.437605,7.67173767,7.63856173,7.22895241,7.782173,7.785201,7.783002,7.752246,7.7059927,7.690835,7.42192268,7.626021,7.7408433,7.671815,7.615638,7.79823065,7.680893,7.7043,7.7491703,7.88557529,7.45978928,7.74920559,7.946843,7.74875259,7.934308,7.75514841,7.70283937,8.2116785,21.8706245,204.416489,204.706223,205.030029,204.900269,205.323166,205.095032,204.770813,205.192673,204.900269,205.290512,205.453979,205.585114,205.947433,205.914383,205.947433,205.78244,206.279,205.914383,205.848373,205.947433,206.146118,206.312271,206.1793,205.8154,205.947433,206.146118,205.881378,206.112946,206.212524,206.279,206.01358,207.831512,205.421249,207.218643,205.9805,207.2525,207.42215,207.3203,205.947433,209.642059,213.413986,214.06163,213.985062,213.985062,214.600571,214.407516,214.1767,214.368973,214.291992,216.969177,215.066589,214.988663,220.198776,215.183685,216.848419,216.768066,220.283936,215.183685,216.2882,219.648178,215.222763,220.4546,219.85936,215.812241,220.15625,216.808228,216.6878,213.300461,220.625778,219.690353,216.0894,219.060852,220.369217,220.113739,220.028824,219.186218,220.540131,219.228073,220.540131,216.407791,220.198776,220.15625,219.901672,216.607666,216.010086,220.369217,220.071274,217.090179,219.311859,216.768066,220.283936],"fittestNetwork":{"layers":[8,14,3],"biases":[[-0.403366566,-0.3089484,0.0576451421,0.454665422,-0.226865351,0.06739396,-0.157837689,0.4909507],[-0.112194359,-0.209877789,-0.06745523,-0.499145746,0.4523735,0.3060881,0.2983135,-0.167801321,0.263828158,-0.05231327,-0.207187474,0.133107647,-0.0005953908,0.211778268],[0.437511921,0.2801745,0.312653065]],"weights":[[[0.363352239,0.235095188,0.2699938,0.153378844,-0.00628101826,0.267936081,-0.333257,0.4422448],[0.149104938,0.278696,0.681982934,1.01685214,-0.464155138,-0.4591272,0.300875336,-0.233613789],[0.7340705,-0.0415255427,0.6393736,0.6708917,0.5006307,0.7375904,0.376837373,0.348324716],[-0.632269561,0.586717546,-0.145546377,0.611772954,0.320126623,0.2998434,0.144300237,-0.18108058],[-1.01710594,0.7142425,-0.343566924,0.5190851,-0.221628308,-0.621190369,0.136695862,-0.1564759],[-1.41856194,0.11186868,0.367425,-0.0264985561,0.311300457,0.4253085,0.253675461,0.362906873],[0.0025516334,-0.243628874,0.396954536,-0.546811163,-0.2908491,0.123411775,-0.23767072,-0.4528702],[0.800392032,-0.528091967,0.4496374,-0.322313845,0.366056353,0.138079882,0.388951629,-0.475148857],[-0.5465935,-0.13698341,-0.6865743,-0.411714315,0.426343441,-0.229389191,0.6349148,0.064897716],[0.09084113,-0.5747817,0.042542994,0.548198164,0.603427,0.234026581,-0.0162804648,-0.474341571],[-0.07416932,0.463002026,-0.140515387,0.1141904,0.6379309,1.25476456,0.17588383,0.0178731084],[-0.18919754,0.257797956,0.46541217,0.0440064967,0.241717413,-0.3817668,0.167840838,-0.304377258],[-0.173995316,0.189882025,0.430461645,0.121755145,0.657513559,0.017473042,0.937169,-0.0740832537],[0.2539769,0.0233008936,-0.6068848,0.6964816,-0.298379,0.5770658,0.0583472252,0.22141]],[[-0.226069942,0.52339,0.233270332,-0.271466285,0.108014822,-0.5736,-0.7063068,0.034368813,0.06609613,-0.447520435,0.894359648,-0.679694831,0.479415536,-0.306184947],[-0.105686605,-0.0131995417,-0.06120628,-0.658592641,-1.07688892,0.566023767,0.0242362618,0.7110053,0.11748033,0.607881665,0.175212726,-0.17007041,-0.185728133,-0.559222937],[0.1100359,-0.046692878,0.142699778,0.360305369,-0.2509207,0.7324669,-0.406381816,-0.0155797284,-0.344034076,-0.08276754,0.5531244,-0.57212317,-0.5837044,-0.0499308333]]],"fitness":220.625778}},{"LayerStructure":[8,16,3],"FitnessConvergence":[3.15491557,3.60001922,3.87592316,3.95541787,3.99966836,3.95054221,3.99861932,4.12136936,3.99931073,5.43427467,5.52312136,6.68208027,6.69475174,6.70109367,6.70253658,6.77798367,6.741166,6.71193027,6.696433,6.73776865,6.71995258,6.74963,6.79177046,6.74910545,6.770122,6.734967,6.768918,6.66698837,6.750065,6.78287125,6.706852,6.75467873,6.7481637,6.80789375,6.753701,6.738287,6.784993,6.738138,6.726307,6.818688,6.776887,7.139021,7.206768,7.233042,7.211721,7.22328424,7.237768,7.23096132,7.233161,7.24897957,7.21237659,7.199663,7.24031925,7.21588135,7.17923641,7.241273,7.22549534,7.21119,7.22323656,7.20617771,7.25461245,7.206458,7.22328424,7.221997,7.295215,7.24147558,7.23398924,7.24064732,7.21645355,7.26887,7.271898,7.248175,7.24630928,7.2379055,7.23156357,7.266301,7.2488966,7.22454166,7.24212551,7.269126,7.218581,7.2733345,7.23102665,7.25861168,7.24218464,7.26888752,7.24272728,7.247072,7.227272,7.241273,7.231885,7.2339716,7.27825165,7.21768761,7.263118,7.264477,7.24053955,7.268792,7.23830462,7.24195862,7.25955963,7.27208233,7.24150562,7.20723248,7.2396636,7.27089643,7.24150562,7.241106,7.27046728,7.236582,7.28599453,7.26715326,7.29138851,7.209122,7.230788,7.22215176,7.270992,7.262957,7.210946,7.20559359,7.207167,7.25280046,7.21691847,7.2092,7.203883,7.24703074,7.242447,7.22878,7.215744,7.224804,7.26888752,7.239187,7.288951,7.24840736,7.21661472,7.2689,7.25746727,7.269299,7.241994,7.241237,7.285917,7.23856068,7.272786,7.239914,7.26943,7.25204372,7.233042,7.268989,7.254654,7.231349],"fittestNetwork":{"layers":[8,16,3],"biases":[[0.272663951,-0.32696712,0.41026628,-0.146109641,-0.211949646,-0.184977233,-0.4929217,0.4592998],[-0.378942728,0.0338631272,-0.433132052,-0.06831545,0.153326258,-0.4332894,0.238166079,-0.151669919,-0.41887486,0.144170985,0.273330927,-0.185412347,-0.208549559,-0.275045276,0.216636762,-0.3535633],[0.4477383,-0.450742,0.07013649]],"weights":[[[-0.366789877,0.07796556,0.350036561,0.3654126,0.460219443,-0.584014237,0.7125595,0.525284],[0.68552345,-0.6761436,-0.6315159,0.2519965,-0.0516901426,-0.087696135,-0.08196622,0.361283779],[-0.704621851,-0.188307509,-0.379431427,-0.364077657,0.5209476,-0.675600231,0.00377179985,0.0278109554],[-0.476160079,0.0385805666,0.544778049,-0.401353478,-0.243020073,-1.11284769,-0.90929836,-0.128375441],[0.0219579339,0.9020242,-0.6958391,0.429531425,0.2790604,0.351319045,-0.2212041,-0.324310839],[0.436453581,0.5817252,-0.407706827,0.5956928,0.465086937,-0.4821829,0.00391259,0.530872762],[0.0166237019,0.8097586,0.3907621,0.282811046,-0.0472967029,-0.124059856,0.156123042,-0.327891678],[-0.05923307,0.09113079,-0.287422866,0.1445062,-0.0111102462,0.167395324,0.204977483,-0.699409544],[-0.274557531,-0.204737484,-0.09177375,0.4058493,-0.5302948,-0.46193248,-0.7368689,-0.187506407],[-0.253652632,0.656447,-0.5274419,-0.266332448,0.07498771,0.564111531,0.609635,0.6990407],[0.9117335,0.2201834,0.319918275,0.06618753,0.150609314,-0.7084606,-0.0211533252,-1.04390562],[0.146577,-0.244734362,-0.474383563,-0.6820298,0.487912118,-0.349592924,0.2817137,0.5475972],[-0.4601596,-0.3655067,-0.2802883,-0.5740182,-0.0377649143,0.113429643,-0.171315014,0.231785789],[-0.6192562,0.2809568,-0.224425256,0.570818,-0.411876857,-0.3415064,-0.22274822,0.217518389],[-0.280330241,-0.385098845,0.6122198,0.5568174,0.0612498261,0.02129054,0.109203637,-0.228407413],[-0.0530274548,-0.408267558,0.3297352,-0.07836264,0.278902948,0.698195159,0.06745874,-0.7528884]],[[0.3434829,-0.5448585,-1.32549191,0.21028468,0.226572573,0.68001467,-0.5063197,-0.17094706,-0.232726157,0.155801758,1.17832243,-0.003148973,0.271841466,-0.54232645,-0.007908488,0.0593605638],[0.354123533,0.0004621148,-0.2609781,-0.726759255,-0.07575804,0.425639629,-0.004423678,0.09749164,-0.261375159,-0.408283174,0.0279647745,0.563346565,-0.160227716,0.04398185,-0.212781847,0.423072547],[-0.6120984,0.277871132,0.146475255,-0.595569551,-0.4600504,0.0184313431,-0.97085315,0.17386806,-0.436927944,0.6338627,-0.340774477,-0.0933734551,0.0482510924,-0.0774643645,0.423224241,0.816818833]]],"fitness":7.295215}},{"LayerStructure":[8,18,3],"FitnessConvergence":[6.69704676,6.86684847,7.21657276,19.59164,25.2459583,51.43281,51.4032822,59.7366447,66.37081,66.89277,66.88533,66.9170151,66.94496,67.00488,67.00228,67.040184,67.01811,67.14009,205.323166,205.355835,206.212524,206.378891,206.74675,207.354233,207.2525,207.3203,207.2525,207.286392,207.1848,207.286392,207.2525,207.354233,207.218643,207.286392,207.2525,207.2525,207.218643,207.354233,207.2525,207.354233,207.117172,207.3203,207.1848,207.660568,216.567627,220.49736,223.611786,224.884735,236.754608,239.335953,236.920044,238.427124,253.6479,257.496246,260.019745,257.350281,259.2692,258.822235,257.350281,259.568573,258.896545,260.019745,260.4735,259.119934,260.2463,258.970947,264.9961,286.061462,286.880676,282.5603,280.23468,287.189728,234.7467,257.6425,286.061462,284.144348,287.293,285.7561,286.163483,288.540924,290.7653,289.911743,290.658173,290.551178,290.018036,292.2776,291.734741,291.734741,290.9799,291.626556,292.0601,291.302673,291.843079,291.518463,291.087341,291.626556,291.194946,292.1688,292.1688,291.9515,292.0601,291.518463,291.843079,291.518463,291.194946,292.7141,292.4956,292.1688,292.823547,292.6048,292.1688,292.4956,292.386536,292.7141,293.0428,292.9331,292.386536,292.386536,292.823547,293.1526,294.035583,292.7141,294.1465,295.487762,292.6048,293.2625,293.703522,292.6048,293.2625,294.81485,294.1465,293.814056,294.1465,293.814056,293.593079,293.814056,296.052124,291.4105,291.518463,291.734741,43.5998726,292.6048,293.814056,66.77545,43.77484,290.9799,43.66448,66.78084,66.71829,293.3726],"fittestNetwork":{"layers":[8,18,3],"biases":[[0.471590757,0.3903978,0.0868786,-0.394188643,0.108712733,-0.134115279,-0.356721282,0.366009],[-0.3839916,-0.0397117734,0.07951766,0.428212762,0.15769504,0.101427019,0.120323,-0.263625741,-0.284659266,-0.362846255,0.0780082345,-0.1699838,0.05787033,-0.292260766,0.356900215,-0.308581352,-0.1004172,0.371978164],[0.344061136,0.431885242,-0.287017822]],"weights":[[[-0.21686241,1.0176636,-0.4641906,-0.415935427,0.101925068,0.585119545,0.5700355,-0.5083116],[-0.4483379,0.132036865,-0.253515661,-0.315512359,-0.433503419,-0.245386973,0.392606437,0.377018124],[-0.0208147019,0.252873749,-0.439716041,0.283836156,-0.0173442271,0.388342559,0.5767627,-0.405392945],[-0.486097544,-0.709703743,0.149053782,0.260464579,-0.06629507,0.32029146,-0.1311433,-0.10348364],[-0.238208175,0.0374078266,0.208192527,0.105897062,0.6596195,-0.179111868,0.650552332,0.418312],[-0.726818,0.334758252,0.1788105,-0.236118212,-0.187847868,0.1077134,0.142085955,-0.672708154],[0.7050523,-0.0994974747,0.351515949,-0.2910518,0.05395148,0.702874,0.7611086,0.449852467],[0.347191036,-0.424983174,0.3864082,0.66572684,-0.155903786,-0.419826418,0.9558767,0.3116799],[0.118694209,-0.05366818,-0.08030468,0.0876989961,-0.3497958,0.154457986,-0.447893858,-0.08405219],[0.8432841,1.14256823,-0.625635564,-0.21982649,-0.061658144,-0.1564768,-0.411967725,-0.4210587],[0.0823707,-0.8462708,-0.155880943,0.0127279758,-0.544392765,0.216408014,0.193835288,-0.375518978],[-0.0120465159,-0.325671643,0.145990968,0.233688816,-0.1849753,0.6154267,0.0389022827,-0.278181821],[0.166217387,-0.595858037,1.14180982,0.323300183,0.124898791,-0.0172709525,0.196692258,0.0009519107],[-0.615838468,0.5961026,0.190083787,-0.375678331,0.611094832,-0.125393391,-0.0428248048,0.00716338027],[0.7367756,-0.07248753,-0.3123759,-0.491612315,-0.0605003163,-0.257911921,0.3566581,-0.0494084954],[-0.31599316,0.131053552,0.6244715,-0.255967379,-0.0131349973,-0.0576649979,-0.447902143,0.085423395],[-0.37493366,-0.416435927,-0.196517348,0.103191018,-0.62560457,-0.035793364,0.6280907,0.193402469],[-0.04242691,-0.0155217173,0.147826135,-0.501785,-0.815684736,0.8132973,0.242450982,0.412225574]],[[0.122958004,-0.3777284,-0.418359935,0.139509663,1.27212381,-0.404073954,0.124506652,-0.06487103,0.5120446,0.347480416,-0.0131114768,0.3434661,0.3867755,-0.237900555,0.0342759825,-0.5312752,0.320002854,0.0375561267],[-0.7575621,-0.470716,-1.42309082,1.5187856,-0.7121471,0.5823971,0.562388,0.05036725,0.0362710357,-0.517026365,0.649342835,0.149240717,0.395053744,1.27405763,0.0007119775,0.189669028,-0.2613734,-0.458394557],[-0.6395936,-0.00192848,0.8193658,-0.145923749,-0.05161155,0.403567463,0.238843933,0.292224318,0.160321236,0.2071688,-0.0362849161,0.3938148,0.258323431,-0.225960627,0.221321613,0.6918698,-0.7014423,0.102677405]]],"fitness":296.052124}},{"LayerStructure":[8,20,3],"FitnessConvergence":[6.421685,6.74836063,7.137251,7.101363,7.08752251,7.104415,7.32422447,7.79224634,21.94181,206.847519,207.354233,207.592346,214.949722,215.144623,218.894089,222.895981,224.518372,230.9532,231.5111,231.358475,231.104889,231.8686,230.701172,231.104889,231.054291,230.9532,232.537735,230.902725,206.948486,230.299942,231.766266,231.817413,232.331131,232.331131,231.358475,230.600632,231.971115,231.003723,233.265961,232.537735,231.358475,231.2062,230.450119,230.450119,231.256927,230.7515,231.2062,231.715149,231.91983,233.580521,217.009476,231.155533,230.600632,232.228058,207.456146,231.766266,231.664078,231.562057,231.155533,231.358475,232.434341,231.2062,231.5111,230.650879,231.054291,233.42305,232.17659,233.6857,231.003723,221.66304,230.7515,231.817413,233.318283,43.1243057,227.943344,231.664078,231.971115,230.902725,231.5111,231.715149,231.155533,232.279572,232.17659,231.409317,232.74498,230.701172,233.896561,230.701172,229.061813,226.986389,231.155533,232.022415,233.004959,230.801865,231.562057,231.8686,220.4546,231.5111,230.7515,230.650879,232.331131,230.801865,232.382721,231.664078,231.664078,232.589478,230.500244,231.358475,231.307678,233.004959,231.256927,232.228058,229.851486,232.537735,232.537735,230.34996,232.331131,233.161438,232.073776,231.155533,231.562057,232.331131,231.104889,232.952881,232.434341,232.848862,231.766266,232.125168,231.46019,232.125168,232.486023,232.331131,231.46019,230.85228,233.47551,230.902725,231.664078,231.5111,231.5111,231.971115,231.715149,231.307678,230.450119,230.500244,231.613052,232.382721,231.5111,230.85228,233.42305,231.054291],"fittestNetwork":{"layers":[8,20,3],"biases":[[0.1701927,-0.03907603,0.414708257,-0.09147769,0.0849718451,0.150305375,0.286492,-0.130961359],[0.151236758,0.09710473,-0.4660039,0.09680742,-0.3129183,-0.0213214755,0.09545177,0.189985141,-0.140925944,-0.324151754,0.451568127,0.35297358,0.341935635,-0.486005664,-0.329865336,0.2774619,0.342110038,0.0375952125,-0.07476193,0.02709192],[0.4297496,0.0291115642,0.10981077]],"weights":[[[-0.183359325,0.039955914,-0.07209546,-0.110882282,0.247276887,-0.163606763,-0.398359239,0.492958367],[0.8001811,-0.1330201,0.5651668,0.196143061,0.574134052,-0.3709332,0.159950584,0.7308113],[0.537925541,-0.655596435,0.257484674,-0.236664683,0.761257946,-0.07784757,0.177831709,0.6623138],[0.588318646,-0.513997853,0.6649562,0.289891839,-0.2303825,0.731771052,-0.174847782,-0.644213855],[-0.31672,-0.19268547,-0.00256615877,0.6598602,-0.140011042,0.08281942,0.5711908,-0.197325885],[0.5099638,0.3743619,0.59104836,1.18076837,0.256919,0.383392334,0.48474735,-0.6835286],[-0.325073361,-0.327256739,-0.0301508233,-0.154638648,-0.459334075,0.454661518,-0.2726351,-0.711564958],[-0.143199861,0.310833842,-0.3268038,-0.407310277,-1.08021545,0.17788589,0.219209433,-0.331049621],[-0.235549152,-0.7011059,-2.23817015,0.5877539,0.323911,0.692773342,0.07386601,0.155218661],[-0.2244075,-0.178109825,-0.4654997,-0.6542943,-0.0256007314,0.0869439244,0.00196658727,-0.224207938],[-0.116535842,0.3121693,-0.0335412621,0.600519657,-0.646947563,-0.729659855,-0.314442039,0.14621979],[0.2709158,0.4848749,0.122638404,-0.50436753,0.6488902,-0.3040617,0.226333022,0.4218728],[-0.6801712,-0.369750559,-1.06492817,0.466520637,-0.06987907,0.2743593,-0.458161056,-0.144321024],[0.390605032,-0.648286641,-0.1953887,-0.480845749,-0.2913456,-0.115065917,0.0514586978,0.38552326],[0.0317288041,0.2372453,0.08947678,-0.2836343,-0.142917156,0.732508957,0.157684073,0.305560231],[-0.171361864,-0.0972918645,-0.299251646,0.3507064,0.5695564,0.148507059,-0.368337572,-1.14595485],[-0.30442366,0.06233836,-0.05802536,0.2524284,0.0367188454,0.0755979046,0.34875533,-0.5903047],[0.00601974828,0.09769243,-0.474276364,0.119520925,-0.06668705,-0.589533746,0.303470016,-0.358811677],[-0.584458053,0.7016289,-0.131753027,0.1404857,-0.124954224,0.75904876,-0.23326391,-0.627528965],[-0.03447269,0.09871692,-1.26452923,0.3049311,-0.0164765716,-0.331087649,0.685229361,-0.14826484]],[[0.2677615,1.136741,0.191110939,-0.0536840521,-0.724265158,-0.04310751,0.04745257,0.541313231,-0.2923357,-0.0328115225,0.030597074,0.05209239,0.652996361,0.066468,0.3077106,-0.0392566919,-0.1645189,-0.101739883,0.07771689,-0.009920674],[0.3101183,0.103173375,0.686270356,-0.154887438,-0.171665251,-0.0130806565,-0.444506228,-0.08131367,-0.398988426,-0.451033175,-0.10692817,-0.169870913,0.660718143,0.663111269,-0.625237,-0.5720659,-0.607120335,0.3147508,1.24728942,-0.7096899],[0.05863229,0.0508064032,0.22909759,-0.510543644,0.462544173,0.3908822,-0.0804894,-0.5370786,-0.119099438,0.071482,0.2755403,-0.370206237,0.491838843,0.6517611,0.308509916,-1.27373064,0.376978457,0.5399274,0.7696704,0.222491249]]],"fitness":233.896561}},{"LayerStructure":[8,22,3],"FitnessConvergence":[2.23237872,3.930354,4.552281,4.55062962,5.81274033,7.281542,7.39603043,7.399881,7.68050575,7.00063133,7.56592751,7.060671,7.342255,7.341975,7.56641626,6.89075,7.40363026,7.717693,6.74729347,6.82745552,7.34145069,6.81933165,6.90290356,7.594347,7.826132,6.82206154,7.817793,6.886286,7.04729,6.92126751,6.77729225,7.42264366,7.565832,6.792265,7.375926,7.60654831,6.8805275,7.121432,7.660401,6.81226826,6.79332,7.36743832,7.00056,7.41326237,7.1203413,7.06512356,7.705945,7.50470734,7.43869543,6.99746037,7.663316,7.724941,7.40675926,7.67927742,6.870085,7.72346258,7.704127,6.946397,6.88233948,6.823283,7.049036,7.72832632,7.271588,7.724386,7.59601,7.5743556,7.35316849,7.392764,7.539302,7.20911026,7.58957863,7.00758076,6.87280273,7.50647163,7.02598667,7.44769573,7.03125,7.45727444,7.263011,7.530159,7.54267,7.74246454,6.79029226,7.071972,7.523954,7.060605,6.77655935,6.65575266,7.59605169,7.2250185,6.93921471,7.11442232,6.797224,7.499963,6.905818,7.71996975,6.9647193,7.068467,7.59904957,7.398778,7.60502243,7.50855827,7.82648945,7.816845,7.53983259,7.7542963,7.58947134,7.82591724,7.72254467,7.262659,6.74533844,7.03482056,6.93200827,7.513541,7.69454861,7.19391727,7.66451359,7.57933855,6.714076,7.43421936,7.60103464,7.585925,6.74665546,6.830186,7.694894,6.78722858,7.40103149,7.496488,7.44922733,6.77293539,6.867486,7.380748,6.91521168,7.719988,7.7326417,7.4157896,7.150984,7.38199949,7.231921,7.120502,7.21838474,7.395804,7.66186142,7.46392,7.124853,7.22174072,7.33287334,7.25588226,7.692802,7.76792765],"fittestNetwork":{"layers":[8,22,3],"biases":[[-0.136111915,-0.405625463,0.175407872,0.317870617,-0.132198274,-0.4179505,-0.463223577,0.213727579],[0.178425416,0.480712056,0.0289853215,0.301266074,0.121566236,-0.0584017634,-0.475942016,0.00448030233,-0.148611486,0.4040035,-0.393506765,0.01990527,-0.262381554,0.152651891,0.376877666,-0.358576536,0.202375159,-0.00616794825,0.450776219,-0.100393236,-0.497844338,-0.352162123],[-0.2540946,-0.130713642,0.263303041]],"weights":[[[0.232953042,0.709647954,0.698406041,-0.2806868,-0.240959123,-0.539081752,-0.118265867,-0.7216173],[0.385029376,0.498748124,0.256807625,-0.00586140156,0.505863249,-1.31497765,0.148592949,-0.6913051],[0.17802,0.13539654,-0.2403329,-0.374248683,-0.308255851,-0.7181882,-0.0180242769,0.110328652],[0.196785778,-0.644152343,0.2380045,-0.636277854,0.299666941,0.0172733665,-0.0366738625,-0.6911959],[0.08864075,0.7357971,-0.756711,0.5335527,0.683732331,0.29523772,-0.47902137,-0.397771955],[0.666142166,-0.59636265,-0.0184968021,-0.3846913,0.702696,-0.4264869,0.5734021,-0.197630525],[0.04796436,0.696155846,0.6852357,-0.24346514,-0.2670213,-0.212663174,-0.0332165,0.144710124],[0.546735048,0.726682246,-0.211190313,-0.325439543,-0.198197186,0.380366862,-0.0138904452,0.0441638231],[0.10602504,0.364177,0.466888249,-0.5338288,-0.4863688,-0.183788359,-0.4829943,-0.2340354],[0.037797153,0.01932758,0.286809146,-0.0105239833,-0.43898508,-0.3123694,0.5258184,-0.313610047],[1.08104873,0.170411885,0.167550862,-0.5357673,-0.5248821,-0.301684946,0.138637722,0.330398679],[-0.588313162,-0.402302474,0.04861504,-0.293636858,0.673523247,-0.3332459,0.127081335,-0.5571566],[0.0254405141,-0.05458587,0.7063824,-0.08127088,0.180074975,-0.3577215,-0.52607125,0.106950045],[-0.07632753,-0.29720524,-0.2455054,0.6230942,0.590373,0.0879851,0.170112371,0.457710564],[-0.524136841,-0.25131464,-0.09549073,-0.3695851,0.057374537,-0.626204669,-0.236358345,-0.5272681],[-0.236279726,-0.183615148,-0.384754479,0.404758334,-0.480858028,0.236506909,0.09470904,-0.939300537],[0.0291113257,-0.6323475,-0.04532327,0.07363516,0.587356865,-0.20004721,0.5955662,-0.0431170464],[-0.6818792,0.7370829,0.544046938,-0.780856848,-0.4220926,-0.256177545,0.221333727,0.591505945],[0.05232799,-0.189543366,0.214166641,0.299203515,0.358251035,-0.07772985,0.247103661,0.749946058],[-0.261602819,1.200035,0.4095087,0.169813156,-0.6154563,0.170983151,0.238479391,0.108657748],[0.08327448,-0.269742,0.0879212,-0.5088503,-0.5095847,0.7378666,-0.9497881,-0.280653179],[-0.214626029,-0.07267684,-0.061196,-0.0459894538,0.450426,-0.1512566,-0.536862552,1.07670021]],[[-0.09883255,0.675273359,0.368057549,-0.3944601,-0.3640148,-0.103830159,0.05242586,-0.110839829,-0.350238144,-0.350702822,-0.470740616,-0.104886,-0.3243569,0.6560889,0.355277359,0.680329263,0.5045406,-1.02877331,0.67376,0.178143591,-0.4306747,0.6835224],[0.6871601,0.635264337,-0.443977356,0.409613848,-0.436335772,1.72448266,-0.4700811,0.22047326,-0.4241053,0.444883466,0.614404261,-0.370811284,-0.122705281,-0.309322417,-0.291623741,0.632563055,-0.393593967,0.718100846,0.002759855,0.363298178,0.442176849,-0.416937381],[-0.6682454,0.276855558,-0.6432177,0.05972421,0.5873864,0.500177562,-0.416498423,-0.279976726,0.8289367,-0.405979663,0.03079444,-0.64381355,-0.2492215,0.656017363,-1.33728778,-0.15090704,0.277403772,0.5144027,0.521871865,0.44236806,-0.0504942536,-0.395443678]]],"fitness":7.82648945}},{"LayerStructure":[8,24,3],"FitnessConvergence":[5.59860468,5.82971573,6.156188,6.533766,6.647128,6.86467266,7.10003376,7.0961833,7.67653561,7.572317,21.4985,21.4928455,21.5001221,21.4932213,21.5085087,66.9538956,67.0333252,67.045845,67.03616,67.0414,168.121216,67.06003,168.588959,67.05685,67.0528641,67.0519257,67.05157,67.0565948,67.0565948,67.0566559,162.793533,67.0566559,166.118668,168.727768,67.0566559,87.258,167.605927,67.07182,67.0566559,179.638214,67.06424,67.0626144,67.04653,67.0565948,67.0566559,168.395584,179.48909,67.07344,67.0566559,180.013458,67.0613251,67.0566559,67.0566559,179.750412,67.08192,67.09071,67.0631,189.667633,191.949615,192.199234,193.725876,193.751755,193.700027,193.519409,193.985245,193.032684,193.985245,193.933258,193.622528,195.977249,195.037247,195.652878,194.957535,195.950134,195.89595,196.194717,195.572128,67.10547,67.0814056,184.053131,195.4915,195.652878,195.706787,196.331146,174.144241,195.572128,194.904465,195.30394,195.277191,195.625946,195.950134,195.950134,195.250473,195.679825,195.89595,195.89595,196.140259,195.4915,195.706787,196.358475,195.572128,195.572128,195.760757,195.760757,196.031525,195.977249,195.787766,195.760757,195.814789,195.950134,196.140259,195.518356,195.706787,196.140259,195.625946,195.652878,195.625946,195.950134,195.625946,196.140259,67.0820847,195.411026,195.923035,195.760757,195.841827,195.733765,195.923035,195.250473,195.923035,195.950134,195.30394,195.923035,195.652878,67.09294,195.733765,196.031525,195.625946,196.058685,195.950134,195.733765,195.679825,196.16748,195.625946,195.652878,195.89595,196.113052,195.625946,195.706787,195.841827,195.733765],"fittestNetwork":{"layers":[8,24,3],"biases":[[-0.22069329,0.339272141,-0.455984473,0.362203717,0.0288382173,0.31934154,0.220341191,-0.378945947],[0.377834082,0.146146163,0.265048146,-0.3134644,0.123618424,-0.185217559,0.307794333,-0.428634644,-0.19999522,-0.472645164,-0.137757,0.249259338,-0.1334421,-0.0579097867,0.287505984,0.4539863,-0.3009752,-0.241084278,0.359549522,-0.09553224,-0.142107427,-0.325283527,0.215885624,0.27051878],[-0.185128748,-0.144237459,0.48003912]],"weights":[[[0.967543244,0.307174742,0.551930249,0.3815462,0.502823651,-0.146201074,-0.6335669,-0.632652462],[0.8437616,0.2599347,0.024358375,-0.6658756,-0.242926389,-0.6767648,-0.6543346,0.668204844],[-0.8494555,-0.116764069,-0.1796887,-0.488746226,0.4295134,-0.269843459,-0.177315772,0.0241875052],[0.4695972,0.370972574,-0.230724111,-0.131805226,0.1517341,-0.648589134,-0.247579172,0.6356222],[-0.9085923,0.0887843743,-0.4770622,0.307961881,0.272263616,-0.492551118,-0.004113316,-0.3686433],[-0.387910783,0.26992318,0.0135357976,-0.641659558,0.410069734,0.337906361,-0.0381892323,0.397122741],[-0.143906832,-0.5247684,-0.0327522159,0.7040275,0.8643919,0.188025877,0.08632124,-0.154171273],[0.3635887,0.5619138,0.184184253,0.489515,-0.170807719,0.5375083,0.07815823,-0.311147451],[0.4852478,-0.377273381,-0.0610536858,0.004532397,-0.6587928,0.2790905,-0.0437952876,0.0864809155],[-0.07816786,-0.446594,-0.4455344,0.00697416766,0.0569660068,0.318854719,-0.3804297,-0.313357055],[-0.402786583,0.516681969,0.136947691,0.4520921,-0.601477742,-0.04575945,-0.267574519,-0.112982333],[0.007796477,-0.245339751,-0.113120377,0.7358677,-0.5140235,-0.0763785243,-0.0127481986,0.433619231],[-0.1749233,0.4550505,0.06033057,0.663796246,-1.38471746,-0.00464452,0.059042573,0.21805571],[-0.40344882,0.5734001,-0.0523493364,0.233968928,0.612507045,-0.103422105,-0.08912895,-0.139893055],[-0.2730134,0.035928905,-0.225902557,-0.423329532,-0.318972677,-0.489339858,0.106141806,-0.619380057],[0.0254374966,-0.148358047,0.08650601,-0.0109034171,-0.145314634,-0.255833924,-0.5135494,-0.116728127],[-0.302687436,-0.08648804,0.506589353,-0.0585590675,0.113520443,-0.1160165,0.479649454,-0.436465442],[0.418764651,0.0468061566,0.3478776,-0.18366003,-0.161325663,0.487735748,-0.4156708,0.0638963],[-0.7542983,-0.7229643,0.09329212,0.5753161,-0.3008818,0.181966528,0.696901739,0.383024484],[0.5742604,-0.7677167,0.37586844,0.3127702,-0.278687328,0.6802036,0.148731872,0.527942],[0.3774995,-0.08436257,0.400733054,0.294041425,-0.07760259,-0.223217,-0.133523345,0.5965755],[0.0815534,0.164361849,0.3881994,0.413563251,0.222656518,-0.4558847,0.196277007,0.5341436],[0.5186881,0.08353191,-0.4523608,-0.253363729,0.170516431,0.09723059,1.11343765,-0.607348],[0.4369042,-0.6759362,0.6753821,0.07509504,-0.08360081,0.476584,-0.732444942,0.135733068]],[[0.4489476,-0.2975719,0.0694877,0.2998677,-0.1260063,0.485458434,0.812598765,-0.647546649,-0.391455919,0.4137097,-0.04343618,0.296317637,0.6954958,-0.690205157,0.0120416293,0.3446539,-0.358161539,-0.461888582,0.194773033,-0.225056827,-0.009821355,0.5077927,0.111096442,-0.083611466],[-0.007380509,0.256052047,-0.250641823,-0.465204567,0.400756478,0.265020669,0.5561488,0.0467869639,0.31738162,0.278222173,0.7231745,0.483448565,-0.481113642,-0.6726865,0.6127899,0.293497652,0.134863555,-0.341271371,-0.5049743,0.469317138,0.6709946,-0.4270826,-0.563813746,0.196022078],[-0.414780676,0.267513871,-1.11997974,-0.250226438,0.451497316,0.2970396,0.5975903,0.02225566,-0.7393986,0.9148394,0.659601748,-0.410859257,-0.23742193,0.565962851,-0.259558856,1.66030347,0.605493844,-0.115040816,0.289964378,-0.6134924,-0.2510835,-1.11120868,-0.4846285,-0.6466604]]],"fitness":196.358475}},{"LayerStructure":[8,26,3],"FitnessConvergence":[3.32680345,5.969495,6.49929047,6.813055,6.67508841,6.84785843,6.81225061,6.844634,6.985104,7.117605,7.65175247,9.032387,10.3186369,10.7416925,17.2632523,17.7730331,17.89937,20.8561,43.1153526,43.13865,43.1370964,43.1978149,43.1977272,43.148,66.97525,67.0669556,185.967987,187.092285,189.762421,192.525772,194.772049,195.923035,195.464661,195.250473,195.868881,196.880737,197.324936,198.225677,198.9699,203.116684,204.032684,208.3822,211.62442,216.64772,217.04982,222.452789,223.118774,224.930679,225.253265,226.466156,226.372025,226.419067,224.7471,226.560425,227.367447,227.224289,227.081436,227.129028,227.463074,231.766266,231.91983,231.562057,232.17659,231.971115,232.74498,231.46019,232.331131,232.848862,232.848862,232.900848,233.633087,230.500244,234.002243,234.214111,235.607712,238.145538,239.164642,241.189911,241.248642,241.48407,242.07605,241.779434,243.0336,240.838547,242.195038,241.720261,242.016632,241.42514,242.195038,242.973373,242.254608,242.553223,244.126389,244.5559,246.552353,245.73468,247.892776,250.715424,252.9558,253.093719,255.477051,255.833817,67.19323,255.833817,244.617462,254.557068,253.578415,256.120422,67.07141,214.988663,254.627457,255.263779,255.121918,257.059174,254.838974,255.051086,239.967743,254.697891,255.97699,255.334808,257.059174,255.833817,254.557068,255.905365,255.619568,256.480133,67.19788,67.23963,254.4165,255.762329,256.696777,255.051086,256.19223,257.059174,67.40067,255.548279,254.206116,256.480133,256.33606,256.841522,256.048676,255.051086,256.048676,255.762329,255.905365,255.477051,256.120422,256.33606,258.082825,208.729248],"fittestNetwork":{"layers":[8,26,3],"biases":[[0.057347,-0.433318019,0.470633149,0.282209158,0.465064645,0.06310421,0.113912046,0.448396683],[-0.3838811,-0.480857253,-0.368976,-0.12820214,-0.248004854,0.262605429,0.370111346,0.197666392,0.09136349,-0.149512,-0.367247462,-0.277253151,0.08620852,0.0494052768,-0.144015133,0.396866083,-0.462427974,-0.480320334,-0.168089449,-0.369966984,-0.4115783,-0.15594095,-0.242933571,-0.163577259,-0.136896789,0.3677181],[0.3635744,0.0383941531,0.337662578]],"weights":[[[0.292844832,0.434898436,-0.0177014656,0.5968126,0.262401223,-0.310942143,0.08375312,-0.0145148383],[-0.253255218,-0.0693839043,0.499686748,-0.0833333,0.7308592,0.3516091,-0.220714062,0.364341348],[-0.187022835,-0.07551198,0.06492927,-0.0230327938,-0.2135743,0.15315412,0.0423375964,0.05444293],[-0.41040656,-0.22836405,0.126036033,0.9726459,-0.149850845,-0.6431255,0.478720039,0.6190614],[0.71749413,0.484251529,0.03698557,0.6809433,0.121659681,0.60527426,0.00563802943,-0.8845885],[-0.07464494,0.347736746,0.819502652,-0.007149991,0.247614384,0.2815555,0.012858714,-0.4801161],[-0.6601512,-0.5942536,-0.300169945,0.412767529,0.516347,0.145448074,-0.4402619,0.008058608],[-0.6762074,0.203402266,-0.6210727,-0.06755235,0.5250357,1.21719074,0.374838084,0.0198968574],[-0.318503231,-0.131668061,0.19193016,0.344571948,0.534021437,0.06547456,-0.4913326,0.345585734],[-0.415559,-1.103166,-0.5016826,-0.453735679,-0.192123458,0.5702096,2.004839,-0.55073607],[-0.06429563,-0.2912014,-0.243302464,-0.0469799638,-0.132535055,-0.468845636,0.216782376,0.330500156],[-0.0303964242,0.465098381,-0.30840683,0.95866704,0.335478067,0.135621712,-0.3993734,-0.178215876],[0.110500939,-0.00531286,0.240885824,-0.6092383,-0.06386465,0.0182058625,-1.96871853,0.0579415038],[-0.3651651,-0.22665824,-0.308971882,0.2457853,0.3290916,-0.374561667,-0.207771719,-0.610010445],[-0.009031225,-0.02921055,0.155190721,0.105478466,-0.18411918,0.883208,-0.3441083,0.611618],[0.05047862,-0.0231846739,0.100138254,0.186574638,0.2783705,-0.388779879,-0.156453162,0.0921580642],[0.387313128,0.3097303,-0.007250094,-0.847624838,0.6305763,-0.166585922,0.045703616,0.032038033],[-0.06231898,0.439901054,-0.357503653,-0.986237466,0.6842695,0.235150009,0.4792422,-0.253967524],[-0.2813542,0.0306912176,-0.7349368,-0.230010659,0.257036984,-0.301472545,0.226536229,-0.5296405],[-0.245868191,0.156339452,-0.334417135,-0.167325467,-0.5955317,-0.214155167,-0.339494258,-0.0232771616],[0.0253662933,0.5761149,-0.523624,0.409635127,-0.852126956,0.400121,-0.0548383668,0.09317645],[-0.225897968,0.349951327,-0.208569586,0.496811062,0.239231974,0.111594461,0.0156486724,-0.146907866],[0.05381906,0.2929339,0.108543225,0.12099272,0.272622764,-0.4292137,0.116622865,-0.07856278],[0.7353314,-0.234034821,-0.6631983,-0.150882244,-0.448980451,0.449742645,-0.620105565,-0.5929579],[0.07641709,0.183195323,-0.00436850265,0.037212044,0.0574452877,-0.3780899,0.118692189,-0.0380501635],[0.409254581,0.136934027,0.07616454,0.342180252,-0.384759128,0.250093818,-0.07847354,-0.1193368]],[[0.4300979,0.361534983,-0.258194923,0.273833662,-0.481472552,-0.04823103,0.146355614,-0.2324935,0.5526812,0.0769588351,-0.157649517,0.4318041,0.190876231,-0.291136384,-0.18457818,0.6175212,-0.447837621,-0.2085689,-0.484173357,-0.172909275,-0.658367932,0.3184948,0.979342043,0.177361369,0.7066906,0.167263463],[-0.392370522,0.24247621,0.283607751,0.27954334,0.09996354,0.362472117,-0.292694151,-0.196749017,0.528270245,0.0282821655,-0.40595758,-0.400013268,-0.7839386,0.129672438,0.571369,-0.0474594943,-0.211312056,-0.8651754,0.6961477,-0.17303139,0.6382937,-0.33928135,-0.541496336,-0.0130171143,-0.338686138,-0.8036234],[0.0161125958,0.7951504,1.00353372,0.5690948,-0.33177647,0.133323491,0.390945554,-0.0838834047,-0.4334243,-0.418323725,-0.2590503,-0.335253119,0.105091028,0.188867748,0.38449645,1.12056589,0.0347937867,-1.02972507,0.450039744,-0.372098446,0.185112134,-0.382727146,0.0130804777,-0.07485181,0.129094183,-0.235940635]]],"fitness":258.082825}},{"LayerStructure":[8,28,3],"FitnessConvergence":[5.751896,6.849909,6.997454,7.097769,7.635188,18.1846447,46.0229225,46.1222153,46.03173,46.0413628,46.01453,64.25979,205.095032,67.17179,63.4615555,64.21151,205.030029,205.062515,204.73851,204.997559,64.89156,64.31297,64.20958,64.24321,64.17457,204.9651,64.40788,67.1793442,204.900269,64.2606049,64.2754745,64.2766647,46.53489,46.4955559,64.1203,64.28542,67.17673,205.192673,64.35657,46.1842957,64.775,67.2707062,204.867874,64.48602,64.17048,205.127563,64.29938,64.2760849,64.2273254,46.3276,46.0841827,64.2458344,64.722496,64.4397354,67.09223,46.39243,64.40398,64.2256,64.20935,48.3162231,46.46137,64.51081,46.2076645,205.9805,206.345581,206.212524,206.51236,207.286392,207.558258,214.253525,216.208588,220.66864,224.472717,233.213684,236.644547,237.3076,238.258026,251.117859,251.117859,250.983475,253.162766,253.9265,253.787079,253.024719,254.909622,254.838974,255.334808,255.477051,255.051086,256.841522,256.7691,257.2046,260.019745,68.0415955,258.59967,260.777435,259.493622,260.4735,259.343933,260.92984,259.6436,257.569336,260.8536,261.08252,261.312073,260.2463,265.639984,264.4368,264.3572,265.882751,266.942963,267.0251,267.35437,258.377747,261.2355,262.082062,261.388763,264.8359,261.542328,260.32196,267.5195,266.860931,260.170715,261.696167,266.126221,267.35437,269.104584,258.377747,261.2355,267.2719,261.312073,261.2355,261.7732,268.6008,261.542328,262.3145,261.158966,264.5962,261.6192,260.777435,269.442139,261.312073,261.696167,261.6192,261.7732,261.158966,269.020416,263.802216,260.8536,268.93634],"fittestNetwork":{"layers":[8,28,3],"biases":[[0.1371833,-0.243568242,0.179901585,0.497434258,-0.333657861,-0.009985268,-0.443206668,-0.158901036],[0.392509818,0.136731014,-0.023530066,0.431456566,-0.319469333,0.495767951,-0.06294137,0.3384379,-0.05817145,-0.3927058,-0.491109,0.1556053,-0.09290391,-0.2546413,-0.125348747,-0.2351802,0.103767931,0.09254736,0.071432054,-0.07303411,-0.157797277,-0.216908276,0.17243503,0.05229324,0.3618877,-0.008701026,0.281149149,-0.208123147],[0.4670683,0.278010964,-0.207793891]],"weights":[[[-0.12969096,-0.501444638,-0.620422542,-0.189512551,0.184152991,0.6886986,0.2052781,-0.450138927],[0.220880777,0.7138898,-0.195645928,0.427396357,-0.169938639,-0.579254031,0.733650267,-0.2752666],[0.403840661,-0.438472331,-0.6250425,-0.260761917,0.2196843,0.4771893,0.9547061,-0.2849845],[-0.3550037,-0.7666534,-0.534286141,-0.421682417,0.03774118,0.5372656,0.329638481,-0.2859723],[0.015573144,-0.0605422854,0.5923268,0.335363269,0.4340922,0.0448643379,-1.50700653,-0.0593345165],[-0.555735469,-0.443880439,0.339095533,0.06339818,-0.170340434,-0.0210567974,0.351749539,0.7186048],[0.3057114,-0.5474376,-0.0749991238,-0.2107833,-0.777917445,-0.165670812,0.181650385,0.7042504],[0.05980307,-0.04029183,-0.229786992,-0.280644,-0.780856848,-0.5036016,1.2201072,0.177362666],[0.5333156,0.67913,-0.118141592,-0.2942867,0.447608948,-0.123505056,0.438476622,0.07520831],[0.3998531,0.454728574,-0.122232974,0.00758079346,0.220963478,-0.6848238,0.136960968,-0.483231127],[0.00257086661,1.405912,0.06393518,0.4183159,0.4319063,-0.5689021,0.302087,-0.08797878],[-0.9526117,0.08073612,0.733574569,-0.232098281,0.6284519,0.448604822,-0.19300735,-0.192853034],[0.558766067,-0.7049744,-0.462581575,-0.1245864,0.0224464443,0.1831311,-0.380876243,0.122280255],[0.301377952,-0.6338341,-0.2193812,-0.04338556,0.570943058,-0.0169097688,-0.37666595,0.9850514],[0.211817965,0.6905536,0.566976249,-0.002042523,-0.541799247,-0.335586816,-0.634849131,0.590462267],[0.454545945,-0.306829423,-0.00704215653,-0.8248321,-1.60453475,0.19519341,-0.247229636,-0.4852574],[0.04189514,-0.288209856,-1.019153,0.000784695148,-0.6518113,0.17446506,-1.4165827,0.539172947],[0.461065918,-0.1406669,0.195343629,-0.7087478,0.04826896,0.5904729,-0.0201285072,0.7034368],[-0.3582297,0.06322366,0.4121375,0.266715378,0.0579790473,-0.639812768,-0.396496177,0.5737806],[0.582168162,0.0650484562,-0.307247818,-0.668063,-0.04719662,-0.418039858,-0.0521384738,0.193072855],[0.903540432,-0.0906266,-0.12087363,0.0943825543,-0.891922355,0.4213451,1.225579,-0.106084585],[-0.0425353162,0.487741053,-0.157543838,-0.0232966542,-0.08566749,-0.831473053,0.301298231,-0.426446021],[-0.7013516,-0.4580487,-0.647694767,-0.632288158,1.14878428,0.182184815,-0.316248417,-0.118277609],[-0.5537546,-0.462812126,0.336483061,0.382590145,-0.141627654,-0.218431175,-1.28761673,0.02616471],[-0.662235439,-0.239991546,-0.0187550336,-0.359440267,-0.407057971,-0.231510162,-0.7349896,0.6557718],[0.3959344,-0.241102174,0.7847968,0.620031655,-0.415044069,-0.6727808,-0.5922002,0.377000868],[-1.33556628,-0.510774434,-0.3993383,-0.134970069,0.4600251,0.1898632,-0.0612630844,0.4178968],[-0.154240668,0.339754015,0.4298038,0.5231067,0.363435358,0.0753442049,-0.6403639,-0.668629944]],[[0.09228248,0.494623542,-0.34115535,-0.378554642,0.40408662,-0.2675658,0.210203156,0.129574358,-0.2637692,-0.0541375242,-0.00664341776,0.5385033,0.184835523,0.5853507,-0.415163457,-0.07480654,-0.685805857,0.2979198,0.7221696,-0.6750736,0.7117701,0.124296442,-0.434044778,-0.07531816,0.984039247,0.0266216379,0.135549411,0.7014105],[0.02540934,-0.468452275,0.450451255,0.04625817,-0.102973372,0.223204985,-0.0486117,-0.0449260958,-0.07674903,-0.41058144,-0.7074062,0.6749996,-0.5178794,0.0331985876,0.5777835,0.08230817,0.06880236,0.100822687,0.125198841,-0.349537522,-0.169428408,-0.594304264,-0.168373525,0.05485511,0.429713219,0.8414239,-0.6637431,0.0531613231],[0.335808456,-0.0569103956,-0.094307065,3.27893186,-1.23100567,0.0494908765,-0.2802674,-0.29437238,0.365568429,0.5003701,0.39503482,-0.156949878,-0.09470777,0.167939037,1.17044294,-0.07161248,0.165333807,1.0636375,0.80656445,-0.449810445,-0.365719438,0.250118375,0.115597121,-0.0294913054,-0.136119574,0.398520738,-0.423417926,0.0749265552]]],"fitness":269.442139}}]}