{
  "_info": "A total of 10 cycles, each trained for 150 epochs, with a total of 55 agents, for a total of 1215.263 minutes.",
  "_additionalNotes": "Non greedy, without speed info, one hidden layer",
  "Evaluations": [
    {
      "LayerStructure": [7, 10, 3],
      "FitnessConvergence": [
        3.87348533, 6.034875, 6.70204163, 6.79171658, 6.816399, 6.88579655,
        7.111186, 7.47908354, 7.32854, 7.48749352, 7.42807961, 7.478553,
        7.497698, 7.513982, 7.4508667, 7.39252567, 7.420695, 7.613826, 7.589257,
        7.5879755, 7.60411024, 7.66276741, 7.565522, 7.7100873, 7.575268,
        7.58415461, 7.547605, 7.521182, 7.53855133, 7.57243633, 7.72422552,
        7.574892, 7.64911175, 7.624781, 7.794982, 7.59199858, 7.76942348,
        7.771796, 7.628536, 7.60405636, 7.7172575, 7.71156549, 7.566148,
        7.817525, 7.711315, 7.55308867, 7.750005, 7.84453773, 7.543981,
        7.546258, 7.78170824, 7.598448, 7.67667866, 7.602048, 7.60508776,
        7.55591965, 7.576317, 7.556677, 7.879382, 7.53666162, 7.654935,
        7.86852264, 7.547033, 7.70299435, 7.61737251, 7.645297, 7.53603554,
        7.70100975, 7.901949, 7.5201273, 7.58214, 7.628548, 7.9292655, 7.87971,
        7.87768936, 7.60750771, 7.644117, 7.71337748, 7.781577, 7.65533447,
        7.63030624, 7.90845776, 7.64163733, 7.77913332, 7.831073, 7.65124559,
        7.68892765, 7.71638775, 8.024942, 7.70414448, 7.86215067, 7.70640945,
        7.815689, 7.97978, 7.91437054, 7.93802166, 7.63890743, 7.957649,
        7.976574, 7.85279274, 7.87254572, 7.8317523, 7.895607, 7.71666765,
        7.908827, 7.832116, 7.97506571, 7.92415142, 7.727742, 7.8140974,
        7.68563175, 7.669443, 7.647443, 7.85273933, 7.66800642, 8.041906,
        7.67237568, 7.723248, 7.77710056, 7.702488, 7.835901, 7.9292655,
        7.59993172, 7.69329643, 7.932335, 7.683092, 7.653123, 7.778096,
        7.7506485, 7.85828829, 7.77683258, 7.91931152, 7.975668, 7.66356564,
        7.62887, 7.868397, 7.83336735, 7.646674, 7.80224228, 7.6838913,
        7.872653, 7.63856173, 7.67459869, 7.67822838, 7.64222145, 7.710499,
        7.9169693, 7.84045458, 7.96085, 7.730353
      ],
      "fittestNetwork": {
        "layers": [7, 10, 3],
        "biases": [
          [
            0.438797, 0.111784756, -0.499653935, 0.321252, -0.109766066,
            0.3412484, -0.27143383
          ],
          [
            -0.182985961, -0.260534763, -0.170713365, -0.385527253,
            -0.423184872, -0.0138177276, -0.124868572, -0.48202765,
            -0.152057946, 0.285817742
          ],
          [-0.02763778, -0.4566896, 0.0472118258]
        ],
        "weights": [
          [
            [
              -0.07013315, -0.008137405, -0.05621836, -1.04069507, 0.4241795,
              0.259615123, -0.603623033
            ],
            [
              0.764992356, -0.7275516, -0.3572615, -0.191310883, -0.5735011,
              0.5307969, 0.542525768
            ],
            [
              0.121245325, -0.2795672, -0.239431173, -0.0490412, 0.8032011,
              -0.06572563, 0.223003015
            ],
            [
              0.716585159, -0.100351207, -0.00841653347, -0.005716394,
              -0.493763119, 0.602275968, -0.24530375
            ],
            [
              -0.0267625842, 0.1620792, 0.2482566, -0.4361083, 0.485001236,
              -0.07466143, 0.221619725
            ],
            [
              0.06691587, 0.496924043, -0.213992581, -0.81228, 0.5261198,
              -0.751545548, -0.2940677
            ],
            [
              -0.37406978, -0.342715472, -0.803343236, -0.6267531, 0.242801,
              0.661307454, -0.3640434
            ],
            [
              -0.04820292, -0.278415442, -0.598386347, 0.091452986, 0.448206544,
              0.4394295, 0.663112164
            ],
            [
              -0.146965235, 0.175718516, -0.0436224043, -0.199870124,
              0.434959352, -0.7961528, 0.5758729
            ],
            [
              -0.06770565, -0.710184932, -0.722997069, -0.7123145, 0.659822345,
              -0.306007981, -0.1916968
            ]
          ],
          [
            [
              -0.47738272, 0.2441356, -0.09364861, -0.222830713, 0.110350557,
              0.103717029, -0.9441155, 0.6301122, -0.0441479422, -0.662881255
            ],
            [
              -0.6833502, 0.6556597, -0.0215216279, 0.708935, 0.9600898,
              0.6235895, 0.355738878, 0.356720775, 0.764649034, -0.0245891772
            ],
            [
              -0.13323234, -0.402673, -0.04069817, -0.352235675, 0.449612081,
              -0.475220561, -0.2724875, 0.533256054, 0.225615472, 0.0013076663
            ]
          ]
        ],
        "fitness": 8.041906
      }
    },
    {
      "LayerStructure": [7, 12, 3],
      "FitnessConvergence": [
        3.63983512, 6.09221458, 7.02376366, 7.21735954, 6.79879761, 7.4676156,
        6.871271, 7.44814873, 7.40147829, 7.032198, 7.26488829, 7.19037628,
        7.214922, 7.14965439, 7.473278, 7.199544, 7.29381466, 7.146573,
        7.189947, 7.606709, 7.41850758, 7.15600872, 7.20589733, 7.1944,
        7.284051, 7.24949837, 7.153344, 7.21134567, 7.18395138, 7.231432,
        7.27774525, 7.22010136, 7.29621649, 7.478565, 7.1881237, 7.049197,
        7.47314072, 7.478982, 7.53052235, 7.271135, 7.477391, 7.197732,
        7.13772774, 7.4758234, 7.21052265, 7.25098848, 7.22373724, 7.473439,
        7.265276, 7.263488, 7.264769, 7.19131851, 7.45050335, 7.07764626,
        7.246846, 7.28938, 7.27676153, 7.69972229, 7.20801926, 7.148391,
        7.53209, 7.235283, 7.25246668, 7.053876, 7.35917664, 7.247162,
        7.42770433, 7.44940042, 7.214576, 7.441163, 7.197303, 7.23061562,
        7.038307, 7.475609, 7.608205, 7.47336769, 7.0163784, 7.236147,
        7.51616955, 7.17577362, 7.181448, 7.199061, 7.57997036, 7.32395649,
        7.134742, 7.35653639, 7.47199631, 7.09433, 7.20918751, 7.267457,
        7.14578629, 7.195574, 7.49058151, 7.256639, 7.226324, 7.332164,
        7.159609, 7.162756, 7.40165138, 7.75300264, 7.120162, 6.890309,
        7.42875957, 7.542312, 7.33060265, 7.175475, 7.3140564, 7.433671,
        7.37321949, 7.28029, 7.220584, 6.90544844, 6.959277, 7.42012262,
        7.032037, 7.134354, 7.16099167, 7.681328, 7.287031, 7.27044344,
        7.536423, 7.113147, 7.60063553, 7.348877, 7.30282068, 7.25668049,
        7.60512352, 7.31357336, 7.332844, 6.954694, 6.870908, 7.268673,
        7.11711645, 7.23959827, 7.201153, 7.35860443, 7.19823837, 7.018912,
        7.379431, 7.1184454, 7.37676048, 7.18324757, 7.49589825, 7.228178,
        7.53142834, 7.413274, 6.904501, 7.27212429, 7.23969364, 7.29049444
      ],
      "fittestNetwork": {
        "layers": [7, 12, 3],
        "biases": [
          [
            0.209097609, 0.4919603, 0.335506916, -0.343667984, -0.155006945,
            -0.3741603, -0.182665408
          ],
          [
            0.496552944, 0.4848262, -0.0162048936, 0.378086448, -0.377829671,
            -0.281848073, 0.103293478, 0.27048707, -0.4451611, -0.116115272,
            0.1074757, -0.165932238
          ],
          [-0.17708832, 0.229296789, 0.135246143]
        ],
        "weights": [
          [
            [
              0.4469813, 0.6179136, 0.0437081456, -0.1331448, -0.4216162,
              -0.146346733, 0.0745889544
            ],
            [
              0.7525407, 0.0929772854, -0.09513396, -0.446883947, 0.200767234,
              -0.397596061, 0.0302585363
            ],
            [
              0.264495224, 0.4978567, -0.195443466, -0.4168147, -0.5366779,
              -0.3937955, -0.160338283
            ],
            [
              0.7354369, 0.123152278, -0.0190331936, -0.0282279849,
              -0.100610971, 0.188839316, -0.228362322
            ],
            [
              0.131625712, -0.0491097569, 0.933130562, -0.192384064, -0.7707578,
              0.361893058, -0.263962477
            ],
            [
              -0.732931256, -0.239327788, 0.407383382, 0.1498329, 0.414638132,
              0.9884069, 0.29680264
            ],
            [
              -0.6823628, 0.278583229, 0.0936377048, 0.135073781, -0.345398784,
              -0.483592838, -0.190236211
            ],
            [
              -0.366463572, 0.715815067, -0.30559805, 0.0297264457,
              -0.218743309, 0.6869032, 0.2045095
            ],
            [
              -0.5004424, 0.0935667753, -0.721015453, 0.6831001, 0.7438971,
              -0.599531651, 0.500541
            ],
            [
              0.197379649, -0.209935367, 0.311749369, -0.5215746, 0.167877436,
              -0.390162, -0.330521
            ],
            [
              -0.231529355, -0.735499, 0.03099078, -0.3094481, 0.246223375,
              0.035566926, 0.6818805
            ],
            [
              0.183641553, -0.17631942, 0.328724474, 0.569345236, 0.466252685,
              0.306216121, 0.107463419
            ]
          ],
          [
            [
              -0.375252038, 0.165413082, -0.529315352, 0.44531703, -0.567917943,
              0.929134369, -0.415262043, 0.06515533, 0.330179334, -0.04365933,
              -1.19328082, 0.2726944
            ],
            [
              0.08771882, -0.016453445, -0.32013616, 0.837360561, 0.0217930675,
              -0.446792483, -0.115133286, 0.09940971, -0.759587169, 0.125327528,
              0.570923, -0.483916849
            ],
            [
              -0.5200807, 0.107063591, 0.528467655, 0.627972543, 0.588653445,
              0.6887492, -0.0198903084, -0.113423944, 0.8373334, -0.215855181,
              0.806795061, -0.708741665
            ]
          ]
        ],
        "fitness": 7.75300264
      }
    },
    {
      "LayerStructure": [7, 14, 3],
      "FitnessConvergence": [
        5.42110825, 7.02410936, 12.2116566, 21.4572124, 21.6009674, 41.71613,
        41.75703, 41.7603722, 41.75982, 55.32769, 55.46933, 55.5704346,
        55.61557, 55.61141, 55.6549377, 61.5978241, 63.24941, 65.69513,
        65.8579559, 65.62464, 65.86889, 66.2634048, 66.23987, 66.2463455,
        66.2395248, 65.84305, 66.4485, 66.46705, 66.4855347, 66.5325851,
        66.5487747, 66.6105957, 66.60449, 66.63408, 66.6293259, 66.64056,
        66.65951, 66.60476, 66.3931961, 66.70623, 66.68868, 66.6569, 66.71804,
        66.78151, 66.79069, 66.79492, 66.79026, 66.7583847, 66.63581, 66.78287,
        66.79313, 66.7991, 66.785614, 66.6726456, 66.79454, 66.84212, 66.84409,
        66.89383, 66.98945, 67.0079, 66.99509, 67.0055, 67.0140839, 67.20699,
        66.97923, 67.21983, 67.21319, 67.2153, 67.2262039, 67.2058, 67.5933151,
        66.86152, 67.17302, 67.40225, 67.6446457, 66.80949, 67.6544952,
        67.23308, 67.2670059, 67.60545, 67.1555, 67.54055, 67.54072, 67.59538,
        67.64904, 67.61774, 67.7091446, 67.65618, 67.51808, 67.0840149,
        66.9892044, 67.02156, 67.59304, 67.5272141, 67.60037, 67.42236,
        67.70344, 67.74067, 67.6432648, 67.01626, 67.42006, 67.3627, 67.56524,
        67.5838242, 67.41371, 67.3935242, 67.12705, 67.10921, 67.5936356,
        67.75729, 67.42323, 67.0667343, 66.0813, 67.587265, 67.61691,
        67.6933441, 67.70699, 67.63501, 67.53108, 67.64425, 67.65173, 67.74261,
        67.52869, 67.52771, 67.5602646, 67.68545, 67.6453857, 67.6474, 67.60582,
        67.62581, 67.6277847, 67.52574, 67.42067, 67.5943, 67.55948, 67.74046,
        67.71484, 67.7292557, 67.55144, 67.72303, 67.5887451, 67.65669,
        67.34509, 67.4206, 67.53958, 67.74635, 67.64705, 67.6087341, 67.55142,
        67.6261
      ],
      "fittestNetwork": {
        "layers": [7, 14, 3],
        "biases": [
          [
            0.1752157, 0.436533928, -0.3691237, -0.278015137, -0.284358263,
            -0.0529482961, -0.31561625
          ],
          [
            -0.0259403586, -0.3416767, 0.08151537, 0.481953263, 0.497718573,
            -0.4967034, -0.316949129, -0.288661122, 0.442013264, -0.190042317,
            0.273948073, -0.216094553, 0.2435752, 0.0575677752
          ],
          [0.472374558, -0.107881486, -0.344045162]
        ],
        "weights": [
          [
            [
              -0.423540115, 0.7185527, -0.352463335, -0.5122283, -0.04647943,
              0.2917459, -0.492301315
            ],
            [
              0.281293958, 0.5546559, -0.496219277, 0.111307085, -0.29918474,
              -0.4444548, 0.5307778
            ],
            [
              0.6758679, -0.4813732, 1.28884387, 0.4023615, 0.0484328046,
              -0.0283769965, -0.5663506
            ],
            [
              -0.446184516, 0.736866951, 1.22224712, -0.0406042263, 0.179352954,
              0.02093357, -0.684443831
            ],
            [
              -0.120592408, 0.713741541, -0.04068248, -1.10604012, 0.3662104,
              -0.177493453, -0.8415716
            ],
            [
              0.294831276, -0.565457642, -0.0193229225, 0.1037994, -0.3120826,
              0.905845463, -0.4703914
            ],
            [
              -0.106577337, 0.671351552, -0.21948278, 0.7140403, -0.3956923,
              0.7283784, 0.122420549
            ],
            [
              0.0479303747, 0.367863536, -0.450476557, 0.284528732, -0.1353826,
              1.04750383, 0.148605913
            ],
            [
              -0.0454887748, 0.719112933, -0.244472653, 0.185022593,
              -0.527479351, -0.61424315, 0.4097333
            ],
            [
              0.05501798, 0.297215551, -0.4700002, -0.04701298, -0.07518401,
              -0.233549714, 0.575034
            ],
            [
              -0.02834934, -0.7237716, 0.558020651, 0.118820019, -0.448844016,
              0.0580496043, -0.8560246
            ],
            [
              0.6677346, 0.149333909, 0.09881657, 0.2539765, 1.28692615,
              -0.278122872, 0.522551358
            ],
            [
              -0.1467399, -0.0418493263, 0.242400274, -0.3020184, -0.416421533,
              0.217566729, 0.848197758
            ],
            [
              -0.23255533, 0.0992910862, -0.61315006, -0.228773579,
              -0.0889595449, 0.0431615971, 0.222741872
            ]
          ],
          [
            [
              -0.296893448, 0.456621766, 0.0374768376, 0.321459383, 0.07286543,
              -0.451951236, 0.694006562, 0.295458436, -0.385568857,
              -0.466579318, -0.0734943151, -0.348100066, -0.4414791,
              -0.0191534776
            ],
            [
              0.5857445, -0.144512236, 0.6213486, -0.2560011, -0.730419755,
              0.3447363, -0.4902466, 0.0348749533, -0.764500856, 0.121014245,
              -0.112233765, 0.0950910747, 0.382088363, 0.004899349
            ],
            [
              0.1693722, -0.0529996119, 0.148864627, 0.359883964, 0.424575448,
              -0.1969896, 1.21368778, -0.2888912, 0.44989264, -0.103781231,
              -0.409531, -0.313316, -1.27067149, 0.135908619
            ]
          ]
        ],
        "fitness": 67.75729
      }
    },
    {
      "LayerStructure": [7, 16, 3],
      "FitnessConvergence": [
        5.551034, 6.24523735, 6.400257, 6.52612448, 6.62214756, 6.62778,
        6.7310276, 6.70957565, 6.76130056, 6.853467, 6.823647, 6.80654049,
        6.90180063, 6.84589767, 6.809765, 6.88468838, 6.944287, 6.87481165,
        6.96438551, 6.816024, 6.901157, 6.88511753, 6.884849, 6.82702065,
        6.86658, 6.85523748, 6.96408749, 6.84588528, 6.80428743, 6.883997,
        6.811452, 6.82300329, 6.892073, 6.84633827, 6.872159, 6.857997,
        6.899202, 6.86429739, 6.91930676, 6.74368763, 7.10160732, 7.11406469,
        7.18481541, 7.23207, 7.040322, 7.04458332, 6.97072744, 7.020336,
        6.8972826, 7.09733963, 6.977373, 6.953949, 6.911087, 7.03750849,
        7.30540752, 7.369864, 6.87229633, 7.23443031, 7.257402, 7.239848,
        7.367915, 6.956029, 7.225794, 7.19624758, 6.96764565, 7.33518028,
        7.08788, 7.30149174, 7.19190836, 7.17886066, 7.155198, 7.28389025,
        6.95051575, 7.30542564, 7.236016, 7.50355148, 7.24771, 7.248628,
        7.51920938, 7.125312, 6.996256, 7.23196268, 7.234973, 7.063347,
        7.163268, 6.92634, 7.25156069, 7.11126328, 7.255536, 7.260251, 7.2936,
        7.29369545, 7.204777, 6.90737963, 7.369125, 7.543671, 7.313937,
        7.15427971, 7.305634, 7.220185, 7.01111555, 6.982982, 7.191813,
        7.327634, 7.29398727, 7.30090141, 7.15738535, 7.317132, 7.02475929,
        7.290655, 7.18039274, 7.200247, 7.304555, 7.323986, 7.539624, 7.2578907,
        7.20840073, 7.08758831, 7.49190426, 7.3018074, 7.34940767, 7.32393265,
        7.324785, 7.05779171, 7.282954, 6.96980953, 7.28483772, 7.352364,
        7.28465939, 7.123673, 7.17410469, 7.33770752, 7.477647, 7.467037,
        6.936085, 7.300931, 7.23593235, 7.003975, 6.966919, 7.202262, 7.231551,
        7.226926, 7.13167763, 7.29305744, 7.2339716, 7.264739, 7.3708353,
        7.15563869, 7.289749, 7.186514
      ],
      "fittestNetwork": {
        "layers": [7, 16, 3],
        "biases": [
          [
            0.103124678, 0.4897362, -0.3900957, 0.141393289, 0.0229800344,
            -0.0372831225, 0.3351946
          ],
          [
            0.2189704, 0.438832283, 0.0903963447, -0.273085, 0.2746781,
            -0.3545922, 0.203790411, -0.01814276, 0.183998331, -0.08466512,
            -0.4749241, -0.404434562, 0.414716721, 0.07282144, 0.135253653,
            -0.360492945
          ],
          [0.1678078, -0.11518091, 0.1708598]
        ],
        "weights": [
          [
            [
              -0.40111804, -0.286246538, 0.2550676, -0.742592335, -0.5435929,
              0.0547300577, -0.227303177
            ],
            [
              -0.4729859, -0.259634376, 0.0456661768, 0.08934468, -0.08195451,
              -0.181789756, -0.137686953
            ],
            [
              0.444143951, -0.2798308, -0.252182752, -1.15192616, -0.0757080838,
              -0.14879, 0.583068132
            ],
            [
              0.06775016, -0.758840442, -0.05175672, 0.06354722, -0.15810211,
              0.738255858, 0.5555624
            ],
            [
              0.205115825, 0.3766766, -0.132059276, -0.379129052, 0.269768327,
              0.090049386, -0.2876618
            ],
            [
              0.7087199, 0.166064113, -0.6943978, 0.117009461, 0.365332633,
              0.340985835, -0.0398560762
            ],
            [
              -0.744319558, 0.0684466362, 0.7437364, -0.133263916, -0.117555737,
              0.345724463, 0.526672
            ],
            [
              -0.124769747, -0.177336529, 0.0469166636, 0.00909847, -0.3985146,
              0.6446835, 0.495963573
            ],
            [
              0.6769418, 0.146271378, 0.07057015, -0.5989381, -0.4309472,
              0.4922075, -0.354904771
            ],
            [
              0.15932323, 0.0143880248, -0.189380378, 0.0483888835, -0.3090837,
              0.320229, 0.251644939
            ],
            [
              -0.0542890429, -0.502432346, 0.288723946, 0.08961612,
              -0.527884662, -0.02091199, -0.667395353
            ],
            [
              -0.4965832, -0.688440561, 0.193243146, -0.331747055, 0.3595541,
              -0.0845288038, -0.153211
            ],
            [
              -0.159061968, -0.020106554, -0.5238764, -0.741497755, -0.4160583,
              0.7255571, 0.3783178
            ],
            [
              -0.140446678, 0.2639953, 0.134586573, 0.46792537, 0.2975912,
              0.6063061, 0.04642367
            ],
            [
              -0.520270944, 0.402186722, -0.4128938, -0.731500149, -0.05092883,
              -0.7492089, -0.117326856
            ],
            [
              -0.59383893, 0.209240243, 0.476185262, -0.6787467, -0.8116975,
              0.4722677, -0.101769492
            ]
          ],
          [
            [
              -0.2282813, -0.6920112, 0.151343927, 0.5796771, 0.443852156,
              -0.469982356, -0.236598611, 0.06410525, 0.3242259, 0.831701159,
              0.012628193, -0.3943479, -0.660006046, -0.017401576, 0.479315519,
              0.50602895
            ],
            [
              -0.4459621, -0.475982666, -0.7442858, 1.12229717, -0.2447831,
              0.277627349, -0.134508848, 0.08747941, 0.3676595, -0.150066137,
              0.248336568, -0.7372222, 0.748687, -0.5876676, -0.6540661,
              0.26429522
            ],
            [
              -0.235436946, 0.09517601, -0.7480656, 0.284814358, 0.08931106,
              0.4518846, -0.341161221, 0.529773533, -0.441813, 0.156949714,
              0.0540125966, 0.2057223, 0.140635371, -0.5325023, 0.7724395,
              0.0116451923
            ]
          ]
        ],
        "fitness": 7.543671
      }
    },
    {
      "LayerStructure": [7, 18, 3],
      "FitnessConvergence": [
        2.99808979, 20.24792, 32.77023, 66.1347961, 66.12016, 66.10781,
        60.4548569, 39.56011, 65.8069153, 21.16989, 65.54663, 66.09993,
        66.11201, 45.9841, 66.1547, 65.66849, 56.0318451, 44.31265, 65.44692,
        65.8221359, 65.76169, 65.27812, 65.6066742, 66.06379, 65.56009,
        65.55698, 65.75926, 65.2504, 65.61962, 65.25594, 65.44773, 65.31545,
        65.72699, 65.32037, 65.48413, 65.2534, 66.08859, 66.13466, 65.33504,
        66.1257248, 65.57499, 65.56075, 66.11245, 65.38164, 65.30918, 65.33411,
        65.55626, 65.66849, 65.97928, 66.117424, 65.64109, 65.76572, 65.36789,
        65.54733, 65.57447, 65.37543, 65.7235947, 65.5212, 66.06542, 65.6450653,
        66.1136856, 65.32503, 66.10557, 66.13733, 65.31965, 65.32175, 65.27872,
        65.6313, 65.3132553, 65.3997955, 65.4528046, 65.38063, 66.0880661,
        65.7797241, 66.11786, 65.89644, 66.10202, 65.71719, 66.0952, 66.09195,
        66.1346741, 65.7131042, 65.29403, 65.75563, 65.43843, 65.27781,
        65.66683, 66.1161957, 65.51847, 65.43634, 65.25084, 65.45266,
        65.2410355, 65.31386, 65.97427, 65.7433853, 65.5609, 65.560936,
        65.28689, 65.2939, 65.45039, 65.69, 65.5810242, 65.9012756, 65.74255,
        66.10174, 65.6535, 65.51691, 65.28193, 65.3947, 65.7209244, 65.3544159,
        65.5487061, 66.10648, 65.52155, 66.13146, 65.34648, 65.35978, 65.74092,
        65.33775, 65.61784, 65.53646, 65.7429352, 65.34117, 65.34331, 65.51776,
        66.11624, 65.6297455, 66.12729, 65.56875, 65.78735, 65.51871, 65.43737,
        66.12589, 65.66406, 66.08896, 65.986824, 65.40044, 65.33281, 65.33453,
        65.2999, 65.85473, 66.1578751, 66.1192245, 66.13332, 66.12918, 66.11786,
        66.16381, 66.1996155, 66.21306
      ],
      "fittestNetwork": {
        "layers": [7, 18, 3],
        "biases": [
          [
            0.274258733, -0.31459868, 0.2031586, -0.162128389, 0.4634763,
            0.3471681, 0.4955629
          ],
          [
            -0.237892449, -0.166933358, 0.118534029, -0.3429693, 0.450804949,
            0.0415141, 0.176977381, -0.0364636779, -0.149742782, 0.2888553,
            -0.193500459, 0.02476865, 0.481529117, -0.208474815, -0.26150012,
            -0.3683058, -0.195934, 0.3323369
          ],
          [-0.05497116, 0.2865311, 0.302657962]
        ],
        "weights": [
          [
            [
              0.0357628465, 0.169756711, -0.70204103, 0.500218749, -0.395045251,
              -0.379443526, -0.6312884
            ],
            [
              0.40345785, -0.479968578, -0.123262823, -0.0600096, -0.0426165164,
              -0.419058, 0.6990557
            ],
            [
              -0.64573, 0.334651, -0.313937426, 0.354977429, 0.5713821,
              0.583335757, 0.197895646
            ],
            [
              -0.4155624, 0.528547466, -0.13966006, 0.49912858, -0.0599318743,
              -0.493328422, 0.240742087
            ],
            [
              -0.297284, -0.683433056, 0.684438944, 0.5828122, -0.76163435,
              -0.535157442, -0.2083742
            ],
            [
              0.6613431, 0.123432852, -0.31683147, -0.22432375, -0.394738823,
              0.671555758, 0.7218689
            ],
            [
              -0.378364652, -0.5423956, 0.190542817, 0.2896462, 0.015121758,
              -0.350633383, 0.0989536643
            ],
            [
              0.0195061564, -0.141695559, 0.706643939, -0.7184837, -0.3904307,
              -0.3057418, -0.14737165
            ],
            [
              0.6100074, -0.1354869, 0.348157048, -0.5991527, 0.399625957,
              -0.613034248, -0.0165156722
            ],
            [
              0.518888831, 0.198596328, -0.3582567, 0.5352708, -0.494100928,
              0.028657198, -0.107455492
            ],
            [
              0.483722538, 0.269209862, 0.186777174, 0.44361186, -0.203510165,
              0.282936662, 0.22436741
            ],
            [
              -0.369217515, 0.507512569, -0.573310137, 0.13153863, -0.7313074,
              -0.167182684, 0.426919341
            ],
            [
              -0.766013741, -0.6532389, 0.6112772, 0.241247177, 0.11098969,
              -0.7286979, 0.7028289
            ],
            [
              -0.369611025, -0.263838649, 0.0134354234, 0.04269564, 0.435271382,
              -0.302547723, 0.6579888
            ],
            [
              -0.403164029, 0.167598367, -0.429393172, -0.5842383, 0.6711774,
              0.4234659, -0.135701835
            ],
            [
              -0.392063022, -0.233818442, 0.6516346, -0.6654868, 0.479344726,
              0.492987871, 0.5263165
            ],
            [
              0.204120427, -0.501503, 0.7276275, -0.109534979, 0.627496958,
              0.3422612, 0.44122088
            ],
            [
              -0.555454, 0.2524244, -0.7195064, 0.7474357, 0.451129049,
              0.7327292, -0.151342452
            ]
          ],
          [
            [
              -0.488529325, -0.6860738, -0.107965231, -0.145737827, -0.6877905,
              0.6379008, -0.6301619, -0.3968593, 0.4796208, 0.0295436382,
              0.262096256, -0.259270221, 0.368933737, 0.2535174, -0.259290934,
              -0.7430984, -0.5737237, 0.119574122
            ],
            [
              -1.35852563, 0.318656027, -0.7323096, 0.380515456, 0.006886542,
              -0.6480782, -0.6176523, -0.248888016, -0.0484341979, -0.252337217,
              0.423247427, -0.616508, -0.141098619, 0.495253325, -0.360162526,
              0.7502011, 0.281202316, 0.333768
            ],
            [
              -0.522110462, 0.4717561, -0.545935631, 0.6091176, 0.343889117,
              0.665079534, -0.734884, -0.5836501, 0.05763692, -0.05741035,
              0.5153928, -0.0269980431, -0.449818969, -0.149932623, -0.49597764,
              -0.03885877, 0.109598696, -0.269871354
            ]
          ]
        ],
        "fitness": 66.21306
      }
    },
    {
      "LayerStructure": [7, 20, 3],
      "FitnessConvergence": [
        2.19878554, 6.3071847, 7.04010725, 7.07199574, 7.10203075, 6.903386,
        7.133609, 7.13999271, 7.030386, 7.10140467, 7.038885, 7.10814571,
        7.12657547, 7.206994, 7.23485374, 7.22419, 7.235056, 7.226592, 7.235402,
        7.227498, 7.22596645, 7.22739124, 7.22658062, 7.22732544, 7.20700645,
        7.221752, 7.211578, 6.93259239, 7.274306, 6.700593, 6.9316206, 6.799686,
        7.15528727, 6.987715, 6.869602, 7.128024, 7.115209, 7.12176561,
        6.63105869, 7.19883442, 6.97491169, 7.18975067, 6.92718029, 7.23953247,
        7.04777241, 7.220477, 7.240719, 6.808126, 7.09946156, 6.65832138,
        6.97131157, 7.28398561, 7.172811, 7.03327656, 7.217103, 7.22688437,
        7.080126, 7.11950064, 7.097018, 7.09402, 7.31980228, 7.21558332,
        7.09824562, 7.30327368, 7.152319, 7.229847, 7.22519159, 7.255417,
        7.11334324, 7.06181526, 7.145846, 7.21088028, 7.126403, 7.110703,
        7.131839, 7.20542049, 7.093233, 7.10990429, 7.18699074, 7.19949,
        7.15392828, 7.019806, 7.171959, 7.265836, 7.456702, 7.57131, 7.11919069,
        7.369179, 7.680029, 7.38701248, 7.429367, 7.1588335, 7.469988,
        7.35290051, 7.50501728, 7.43960142, 7.116503, 7.404023, 7.11135864,
        7.513171, 7.258117, 7.411236, 7.56083727, 7.2152257, 7.41884136,
        7.26732635, 7.191384, 7.2678566, 7.165283, 7.56112957, 7.086611,
        7.5663805, 7.628441, 7.42651844, 7.67160034, 7.597703, 7.56962872,
        7.51927471, 7.397193, 7.425332, 7.096177, 7.57317543, 7.18012428,
        7.433498, 7.10178, 7.07103634, 7.455474, 7.599342, 7.3720336, 7.210219,
        7.518077, 7.570285, 7.318777, 7.31917, 7.17342472, 7.36175776,
        7.39808655, 7.35214949, 7.315522, 7.51857758, 6.97777271, 7.214117,
        7.56070042, 7.523775, 7.607341, 7.5890007, 7.42513561, 7.37947845,
        7.43836164, 7.345915
      ],
      "fittestNetwork": {
        "layers": [7, 20, 3],
        "biases": [
          [
            0.0581617951, 0.0769634843, -0.486660957, -0.173263371,
            -0.229458511, 0.179597959, -0.177841127
          ],
          [
            0.04531783, -0.190595925, -0.485904336, 0.470559239, 0.192283377,
            0.433961749, 0.372478724, 0.253564, 0.185445175, 0.3654697,
            0.405375957, 0.461171985, -0.098934114, 0.495925426, 0.446636677,
            0.195440635, -0.455016136, -0.427571535, 0.174606428, -0.0886502862
          ],
          [-0.475038528, 0.0542722344, -0.00218743086]
        ],
        "weights": [
          [
            [
              -0.566344142, 0.48199746, -0.0483913422, 0.622124, 0.41815567,
              0.664250135, 0.107608877
            ],
            [
              0.202582359, 0.606905341, -0.468428254, -0.0281735063,
              0.317382663, 0.401549578, -0.587417364
            ],
            [
              0.6745603, -0.2261388, 0.281404853, 0.138832152, -0.517062664,
              0.5742207, 0.165809035
            ],
            [
              0.755212069, 0.07177646, -0.7629105, -0.18114841, -0.364511877,
              -0.127036572, -0.60848856
            ],
            [
              -0.525521755, -0.141881809, -0.6093025, -0.405974865, 0.3816235,
              0.666726, -0.6347265
            ],
            [
              -0.1203261, -0.257760882, -0.1249488, 0.0384462476, 0.440005124,
              -0.061401438, -0.2018466
            ],
            [
              0.77528286, 0.186982557, 0.08658906, -0.5550176, -0.274961948,
              0.7508986, 0.5820024
            ],
            [
              0.450320333, -0.156882346, -0.09433222, -0.4695406, -0.2366828,
              0.0824873447, -0.402750731
            ],
            [
              0.008897364, 0.251941741, 0.2327435, -0.1994546, -0.175290048,
              0.100423872, -0.41583392
            ],
            [
              -0.9537282, -0.328701258, 0.320151329, -0.280876666, 0.509606838,
              -0.3025489, 0.57978
            ],
            [
              -0.152524531, 0.337471962, 0.41462636, 0.450798839, -0.22076422,
              -0.186683238, -0.202978075
            ],
            [
              -0.005210221, -0.5764047, -0.003457427, -0.7660777, 0.748947859,
              -0.6669787, 0.0236020237
            ],
            [
              0.06967938, 0.3874448, -0.4087515, 0.148371339, -0.708059669,
              0.2753868, -0.485317469
            ],
            [
              -0.5014459, 0.7429155, 0.6165924, 1.21728468, -0.406855375,
              0.277409047, -0.0498264432
            ],
            [
              -0.197014272, 0.13611947, 0.2754544, 0.335217953, -0.131904155,
              -0.582775831, -0.6570734
            ],
            [
              -0.04100428, -0.6200496, -0.4748552, -0.3880297, -0.03224044,
              -0.123198211, -0.315159678
            ],
            [
              -0.396656156, -0.7450979, -0.2196747, 0.056936346, -0.5939422,
              -0.278998256, 0.08344936
            ],
            [
              -0.419618368, -0.6268977, -1.34007311, 0.470605373, -0.537742,
              0.423386455, 0.0207121372
            ],
            [
              -0.193161368, 0.1334319, -0.501433134, 0.5148785, -1.07019544,
              0.0256336331, 0.246638179
            ],
            [
              -0.6546489, 0.4875461, 0.606502, -0.747403145, 0.6515757,
              0.09743363, -0.00624889135
            ]
          ],
          [
            [
              -0.7482933, -0.4950633, 0.2263298, -0.499200583, 0.762964964,
              0.0606009364, 0.5400946, -0.08839214, -0.7558378, 0.196020782,
              0.6664964, 0.3628353, -0.5221977, 0.880306, -0.327382326,
              0.334346652, -0.5498381, 0.477352351, 0.207208037, 0.459198
            ],
            [
              0.04478532, 0.6897173, 0.7094786, 0.637163758, 1.11546588,
              -0.2152071, 0.2105873, 0.7326033, 0.09642041, -0.529441833,
              0.07754886, 0.247015715, -0.724867463, -0.5126877, -0.004879629,
              0.177625835, 0.298508525, 0.56419456, 0.5483468, -0.5573672
            ],
            [
              -0.3781742, -0.4539218, 0.648752, -0.0648683459, -0.4323752,
              -0.407434344, -0.127802908, 0.4487476, -0.199182034, 0.4419764,
              -0.6865561, 0.486484051, -0.161933184, -0.07390692, -1.15881693,
              -0.714934, 0.325755954, -0.236910492, 0.176829159, -0.4238955
            ]
          ]
        ],
        "fitness": 7.680029
      }
    },
    {
      "LayerStructure": [7, 22, 3],
      "FitnessConvergence": [
        5.801213, 8.052325, 19.4279442, 25.2878723, 41.16224, 37.7889175,
        41.1506348, 40.957077, 37.69205, 39.8383369, 40.9252625, 41.0719261,
        40.9963837, 43.67134, 44.2754326, 58.67312, 58.8552551, 58.8571434,
        59.1075172, 58.94612, 58.85551, 58.88249, 59.17737, 59.4871063,
        59.4778938, 59.5052261, 59.3893929, 59.4070358, 60.42417, 55.3696327,
        55.3695221, 59.46831, 60.4267464, 60.4234924, 60.4972, 60.52636,
        60.4729424, 55.3864136, 60.4689, 60.4871674, 60.4232178, 60.41478,
        60.481, 60.54501, 60.5237961, 55.36875, 60.4959145, 60.45388,
        60.5512848, 60.59793, 60.542, 60.49525, 60.2277527, 60.4989548,
        60.5241547, 60.9330177, 60.6717339, 55.4204521, 55.39319, 60.1241837,
        60.5273972, 59.8666954, 59.93737, 60.37314, 59.9339561, 55.39555,
        60.19404, 59.979332, 60.468132, 55.3991661, 59.2864265, 60.52575,
        60.9037933, 60.50092, 60.00649, 60.5353661, 59.82082, 59.6173058,
        60.5376, 60.53483, 60.0516129, 60.9405632, 55.3832932, 65.87359,
        65.84419, 65.8637848, 65.94293, 65.87955, 66.04852, 66.1416855,
        66.01866, 66.03557, 66.1403961, 66.13951, 66.14447, 66.14223, 65.93635,
        66.14172, 66.14071, 66.14117, 66.14253, 66.146965, 66.08186, 66.141716,
        66.14008, 66.16927, 66.1860352, 66.19723, 66.59273, 66.61997,
        66.6356049, 66.63609, 66.63773, 66.65098, 66.63756, 66.64503, 66.6755,
        66.67202, 66.61841, 66.7356, 66.77861, 66.85641, 66.87368, 66.9355545,
        66.9771347, 206.679688, 206.982178, 206.982178, 207.15097, 207.083389,
        207.117172, 207.3203, 207.354233, 207.5242, 207.934341, 207.934341,
        207.865768, 207.763077, 207.831512, 207.763077, 207.797287, 207.694717,
        207.865768, 207.90004, 207.934341, 207.831512, 207.90004, 207.763077,
        207.865768, 207.831512
      ],
      "fittestNetwork": {
        "layers": [7, 22, 3],
        "biases": [
          [
            -0.284989357, 0.2587117, 0.413217783, 0.0204421878, -0.262348771,
            -0.220132291, 0.1596788
          ],
          [
            -0.117029727, -0.06716889, -0.303275466, 0.0924753547, -0.08113819,
            -0.140872061, -0.0348331332, -0.129846156, -0.41620934, -0.07441598,
            -0.0491670966, -0.07080287, -0.400629878, 0.0267876983, 0.425271153,
            0.0602017045, 0.2274159, 0.3514129, 0.498642683, 0.410556078,
            -0.272415519, 0.134463653
          ],
          [0.0989143252, -0.269745469, 0.2550788]
        ],
        "weights": [
          [
            [
              0.04096267, -0.234885544, -0.09383861, -1.59928954, 0.3256799,
              0.008061896, 0.4192251
            ],
            [
              0.430376142, 0.567408144, -0.189868584, -0.465286225, 0.2872901,
              0.3328601, -0.724866033
            ],
            [
              -0.443599969, 0.0354725, -0.4823991, 0.101216733, -0.462703824,
              -0.199700832, -0.313009024
            ],
            [
              -0.3936519, 0.101258919, 0.013333369, -0.742618263, -0.350502,
              0.44842422, -0.5890876
            ],
            [
              0.20993115, -0.188595489, -0.399307221, -0.289160937, 0.443143,
              0.234094545, 0.259539485
            ],
            [
              0.396245956, 0.6599492, -0.02408571, 1.0380007, -0.281277657,
              -0.166585147, 0.09143454
            ],
            [
              0.413959026, -0.1711819, 0.48920083, 0.50816524, -0.228184611,
              -0.978371, 0.473226428
            ],
            [
              0.09716654, -0.4958583, 0.4250499, -0.23970741, -0.0247946139,
              -0.07926892, 0.4580482
            ],
            [
              -0.928144455, 0.0709588155, -0.581339955, 0.206935868, 0.3521892,
              0.031749893, -0.014148633
            ],
            [
              -0.0140415384, -0.673924863, 0.569162965, -0.770596743,
              -0.3449432, 0.290711164, -0.672425151
            ],
            [
              -0.569554031, 0.26558575, 0.04692567, -0.7671833, 0.223679379,
              0.258803457, 0.2241157
            ],
            [
              -0.148976386, 0.227888957, -0.5455211, 0.0160723776, -0.04932064,
              -0.0578369126, 0.2404972
            ],
            [
              0.0192609429, -0.799467862, 0.5738553, -0.03269083, -0.2711563,
              -0.765418947, 0.0114935655
            ],
            [
              0.951654, 0.7462637, -1.26364553, -0.247706592, 0.5093502,
              0.125555977, 0.291678131
            ],
            [
              0.3522311, 0.133167326, -0.389468759, -0.516643167, 0.6944146,
              -0.017554462, 0.382865727
            ],
            [
              0.687071443, 0.246233672, 1.277818, 0.166445121, 0.7139423,
              -0.383156866, -0.1743024
            ],
            [
              -0.06197285, 0.0175353847, -0.236640692, 0.04222854, -0.48931396,
              0.349014282, 0.0104935169
            ],
            [
              -0.14361158, -0.6906313, -0.0989725962, -0.758672953, 0.269609123,
              0.0265888367, -0.6049437
            ],
            [
              0.442039371, 0.106261075, 0.662689447, 0.169244424, -0.277537227,
              0.197245479, -0.7469162
            ],
            [
              0.0183679275, 0.809323549, 0.633541346, -0.524459, -0.0823017,
              -0.468446732, 0.359499544
            ],
            [
              -0.275078237, 0.514086, 0.289083451, -0.07219461, -1.04803026,
              -0.354083657, -0.302842915
            ],
            [
              0.497012377, 0.09347111, 0.0105459392, -0.7588527, -0.492186546,
              -0.254135519, 0.5972679
            ]
          ],
          [
            [
              0.2078175, -0.142798483, -0.005576849, 0.09532395, 0.701067448,
              0.7224765, -0.2805203, -0.447550178, 0.0486622341, 0.0333265662,
              0.214093551, 0.843016565, 0.0691316351, 0.395142168, 0.278701425,
              0.265994042, 0.07918715, -0.129056573, 0.0219790339,
              -0.0456697345, -0.8960424, -0.17455247
            ],
            [
              0.8728978, -0.154913187, 0.09339684, -0.0650510639, 0.7665466,
              -0.886638463, 0.5780776, -0.06921476, -0.07432283, -0.7122148,
              -2.10128427, -0.400825381, -0.3994199, 0.03225049, -0.228414178,
              0.7638128, -0.286933243, 0.0211257879, -0.260849416, 0.201543167,
              -0.0266782865, -0.0243089236
            ],
            [
              -0.4581288, 0.290971547, 0.482749879, 0.467172325, -0.204360455,
              -0.172916532, -0.387522042, -0.710035563, 0.0183532238,
              -0.132358149, -0.0291150156, -0.220430732, -0.03073866,
              -0.230276346, 0.00540322065, 0.0536825247, -0.08783326,
              0.15979813, -0.371316761, -0.06467411, 0.223484159, 0.1379025
            ]
          ]
        ],
        "fitness": 207.934341
      }
    },
    {
      "LayerStructure": [7, 24, 3],
      "FitnessConvergence": [
        5.17461872, 6.516391, 6.766069, 6.85423, 6.97930431, 7.418072,
        18.5778084, 21.6405926, 21.838028, 41.0493546, 205.9805, 206.212524,
        206.780319, 207.388184, 207.660568, 218.396637, 227.510941, 231.256927,
        241.838669, 243.0336, 244.31015, 249.389282, 249.389282, 250.381683,
        250.64856, 250.315109, 261.006134, 260.701355, 261.388763, 261.158966,
        264.0396, 262.082062, 260.92984, 261.08252, 260.3977, 261.158966,
        265.882751, 266.20752, 271.582642, 271.236542, 270.5485, 276.030121,
        285.24942, 285.959564, 286.470184, 285.654541, 285.7561, 286.367828,
        284.444427, 285.7561, 284.344269, 286.163483, 285.350525, 284.044525,
        284.544647, 285.5531, 283.845245, 285.654541, 286.7779, 285.047516,
        285.350525, 283.845245, 284.745453, 285.24942, 284.044525, 284.846039,
        284.044525, 285.7561, 284.044525, 284.745453, 284.544647, 286.367828,
        286.163483, 285.350525, 285.8578, 287.396362, 285.24942, 285.654541,
        283.745758, 285.24942, 286.2656, 285.959564, 285.654541, 286.572632,
        287.396362, 286.470184, 285.8578, 285.654541, 285.7561, 287.189728,
        285.1484, 285.451752, 285.654541, 285.7561, 285.1484, 286.2656,
        287.396362, 283.845245, 286.2656, 285.047516, 284.64502, 285.047516,
        284.745453, 285.959564, 285.047516, 285.8578, 285.451752, 284.946716,
        284.745453, 284.946716, 286.061462, 285.959564, 287.189728, 285.654541,
        286.061462, 284.946716, 286.367828, 284.745453, 286.880676, 286.367828,
        289.065826, 287.9149, 287.9149, 287.810944, 287.707123, 287.499817,
        286.7779, 287.396362, 287.810944, 287.293, 287.603424, 287.707123,
        288.436279, 287.189728, 287.189728, 288.2274, 287.707123, 287.810944,
        288.750519, 286.061462, 286.6752, 287.396362, 286.983582, 287.396362,
        288.64566, 288.2274, 288.018921, 287.9149, 288.3318, 287.499817
      ],
      "fittestNetwork": {
        "layers": [7, 24, 3],
        "biases": [
          [
            0.217735633, 0.345225573, 0.134070978, 0.308659077, 0.354559541,
            -0.145401061, 0.3842975
          ],
          [
            0.276082158, -0.406299, -0.4431392, 0.3691417, 0.14065133,
            -0.370013952, 0.08913988, -0.272915721, 0.387844324, 0.352385759,
            0.10553509, 0.490702033, 0.149916634, 0.252512217, -0.269784451,
            -0.467659354, 0.2302215, -0.09121865, 0.0560131669, 0.210864291,
            0.498662949, 0.075499475, -0.43358016, -0.429499626
          ],
          [-0.387459159, 0.437268972, 0.182762966]
        ],
        "weights": [
          [
            [
              -0.273952156, 0.6630232, -0.2581559, -0.475349545, -0.343075275,
              0.16648972, -0.108798221
            ],
            [
              1.7713145, 0.351034641, 0.887782335, -0.3206372, -0.697041035,
              -0.0429283343, 0.6177238
            ],
            [
              0.0530697778, 0.675506532, -0.1416356, 0.4235018, -0.238019511,
              -1.211436, -0.345543265
            ],
            [
              -0.00389114278, 0.04911384, -0.201150253, 0.312126338,
              0.0532439873, 0.2852055, -0.0303651746
            ],
            [
              -0.4425922, -0.377192616, 0.169724226, -0.115810871, -0.664588,
              -0.347098023, -0.164362729
            ],
            [
              0.892740548, -0.0794320852, -0.253205329, 0.014600575,
              0.447336853, 0.2640402, 0.274857938
            ],
            [
              -0.293586254, -0.401262254, 0.293810338, -0.231951356,
              -0.08369845, -0.09121962, -0.0966606438
            ],
            [
              0.0839481, 0.7716664, 0.7755218, -0.7442801, -0.256220669,
              0.09477109, -0.2662437
            ],
            [
              -0.1608883, 0.0238672, 0.8917645, -0.70922637, -1.37016916,
              -0.418588579, 0.002192378
            ],
            [
              -0.79327774, 0.0518420339, -0.3161045, 0.06875208, 0.2810502,
              -0.7456877, -0.7064419
            ],
            [
              0.49082005, -0.154240042, 0.7705517, -0.1938897, 1.21107113,
              1.05961192, 0.431714
            ],
            [
              0.09946704, 0.8388162, 0.0101073561, -0.03224151, 0.6883868,
              0.22180593, -0.703467
            ],
            [
              -0.07202928, 0.476976246, 0.281965256, 0.2830233, -0.115414657,
              -0.2995432, 0.2444252
            ],
            [
              0.418368578, 0.48377347, 1.37776494, 1.06093013, -0.07890481,
              0.136204362, -0.186816111
            ],
            [
              0.6643864, 0.241994783, -0.7053734, 0.319150031, 0.000161735239,
              1.89830935, 0.0508499742
            ],
            [
              0.46754083, 0.7552799, 0.8454194, 0.161141276, 0.301498622,
              -0.110317647, 0.293751
            ],
            [
              0.416064918, -0.161868021, -0.724087, 0.628819942, -0.7529317,
              0.1308436, 0.341052651
            ],
            [
              0.5770825, 0.322770238, 0.536880136, 0.7603209, -0.08997309,
              -0.239028424, 0.115542173
            ],
            [
              0.0406344868, 0.6125325, 0.304202884, -0.180627763, 0.0192601215,
              0.3243152, 0.08540758
            ],
            [
              0.295693, -0.3835959, -0.6220809, 0.262146473, -0.5077446,
              -0.111040965, -0.1382928
            ],
            [
              -0.475374162, 0.1333074, 0.4554854, 0.008188188, -0.015378437,
              0.184786618, 0.185793862
            ],
            [
              0.6231224, 1.21136773, -0.157392323, -0.382738233, 0.7643313,
              0.5000756, 0.22708866
            ],
            [
              0.729279041, 0.3687116, 0.243057013, 0.176207542, -0.468453139,
              -0.378303647, 0.7527144
            ],
            [
              -0.0922294259, -0.984156966, 0.4235462, 0.458903253, 0.3069069,
              -0.5925926, 0.12659727
            ]
          ],
          [
            [
              -0.3902272, -0.174308836, 0.0541561246, -0.108043492,
              -0.0195425153, 0.197284281, -0.01725731, -0.6389144, -0.4935882,
              -0.131557778, -0.284674525, 0.138739973, -0.735548139, 0.45065105,
              0.182408541, 0.638802648, -0.0607073829, 0.363810033, 0.137185231,
              0.116592824, 0.172876835, 1.09471166, 0.508191049, 0.0511558354
            ],
            [
              -0.495923281, -0.07360822, 0.386468381, -0.474986643,
              -0.379901677, 0.630369663, 0.07739136, -0.2056049, 0.40533936,
              -0.0872662738, 0.4332171, -0.44212842, -0.01841122, -0.007995388,
              -0.6888777, 0.20771721, -0.427500248, 0.423947334, -0.108303882,
              0.258226, -0.004780868, -0.270872831, 0.0267197825, -0.6084877
            ],
            [
              0.0117159951, 2.36181378, -0.621591866, -0.124370635, 0.400043726,
              -0.220440328, 0.133876085, -0.214183033, 0.0513075069, 0.6933938,
              -0.07733509, -0.282589018, 0.723997056, -0.261081368,
              0.0348502137, 0.282051235, 0.592806458, 0.9236657, -0.03837681,
              0.148393869, -0.242170945, -0.220306069, -0.2166276, -0.402877182
            ]
          ]
        ],
        "fitness": 289.065826
      }
    },
    {
      "LayerStructure": [7, 26, 3],
      "FitnessConvergence": [
        8.996582, 17.9850349, 21.8896275, 43.7710342, 44.11334, 44.1418839,
        43.98776, 44.1110535, 44.1449928, 44.144165, 44.0858078, 44.1452751,
        44.1504059, 44.3067856, 44.16594, 44.2425423, 258.525635, 44.27703,
        44.1560936, 44.28714, 44.156105, 64.02117, 44.2380676, 44.3314056,
        44.24873, 44.319313, 44.3249474, 44.47568, 44.29971, 44.481266,
        44.2600975, 44.30188, 44.3559647, 44.465126, 44.60536, 44.32829,
        44.4318848, 44.2034378, 44.33722, 44.2380676, 44.71138, 44.2625237,
        44.54245, 257.862335, 257.789, 44.32829, 44.1850243, 279.94812,
        280.4262, 281.003265, 287.810944, 289.487854, 44.9257774, 67.0166,
        67.04841, 287.499817, 289.065826, 288.2274, 289.171143, 286.880676,
        289.699554, 289.171143, 288.3318, 284.244263, 289.487854, 290.4443,
        290.658173, 291.9515, 293.593079, 294.2576, 294.926666, 294.1465,
        294.2576, 294.4801, 294.926666, 295.826, 296.278778, 296.278778,
        295.600372, 295.487762, 296.8477, 296.3923, 297.0762, 295.939, 295.826,
        297.9955, 297.880127, 297.3052, 298.458374, 297.764862, 297.764862,
        298.226685, 297.419922, 297.190643, 298.111023, 297.419922, 294.591553,
        298.342468, 297.764862, 298.923431, 298.458374, 297.9955, 298.111023,
        297.64975, 297.3052, 298.111023, 298.574432, 299.5078, 299.742523,
        300.331757, 299.9778, 301.0434, 299.8601, 300.095642, 300.213623,
        299.742523, 299.742523, 300.45, 299.9778, 299.625122, 300.686951,
        300.331757, 300.213623, 299.8601, 300.45, 299.156769, 300.924438,
        300.56842, 300.56842, 300.924438, 300.924438, 300.45, 301.281769,
        300.56842, 300.56842, 299.8601, 300.213623, 301.401154, 300.331757,
        299.625122, 301.281769, 300.805634, 300.56842, 302.120422, 301.52066,
        297.3052, 300.095642, 300.686951, 299.625122, 300.45
      ],
      "fittestNetwork": {
        "layers": [7, 26, 3],
        "biases": [
          [
            0.202377781, 0.245558724, 0.365310073, 0.436821818, 0.116791189,
            0.4180466, -0.226923287
          ],
          [
            0.2619841, 0.200394019, -0.295534134, -0.170470536, 0.223343715,
            0.100459874, 0.07947868, 0.257384181, -0.2524284, 0.293603539,
            0.135504827, -0.465171576, 0.122234404, 0.266486049, -0.202415764,
            0.119786441, 0.2936157, -0.159099162, -0.396369576, 0.243602976,
            -0.000752151, -0.364049554, -0.2755797, -0.424564719, -0.2576058,
            0.123502672
          ],
          [-0.2941258, -0.03327936, -0.228527009]
        ],
        "weights": [
          [
            [
              0.6286564, 1.22473013, 0.7000462, 0.390181243, -0.5151024,
              0.2470192, -0.153434962
            ],
            [
              -0.00198821584, -0.0682131648, 0.524768353, 0.483817279,
              -0.170708, 0.19437477, -0.208080411
            ],
            [
              0.486221343, -0.346535921, 0.5764868, 0.5114073, -0.6976998,
              -0.0914827, 0.206091762
            ],
            [
              0.327278078, -0.3958224, -0.7124889, -0.281211019, -0.0403673239,
              0.384291768, -0.04003198
            ],
            [
              -0.442408323, -0.37279585, 0.199148148, -0.238307133, 0.6839973,
              0.184410617, -0.431449026
            ],
            [
              0.251677424, -0.5218128, -0.36103034, -0.484271, 0.8465607,
              0.4479402, -0.203410625
            ],
            [
              -0.217672765, 0.455856264, 0.7286519, 0.333798677, 0.136739552,
              -0.6876923, -0.1169768
            ],
            [
              0.248328686, -0.7041591, -0.557131767, -0.7218332, 0.9083752,
              -0.318024158, -0.252927661
            ],
            [
              0.189359143, -0.08818191, -0.253703982, 0.202061281, -0.235246181,
              -0.154215634, 0.701278448
            ],
            [
              0.721111059, -0.669399261, -0.450006962, -0.698412657, 0.94411695,
              -0.610624433, 0.195328057
            ],
            [
              0.18064332, 0.544409156, 0.535782933, 0.1146136, -0.03862518,
              -0.6021904, -0.257735968
            ],
            [
              0.37795803, 0.09279853, 0.862610161, 0.7271228, 0.227511376,
              0.700200558, 0.8568514
            ],
            [
              -0.329737484, 0.695287347, 0.135959864, 0.0186058879,
              -0.422891378, 0.645440459, 0.487971276
            ],
            [
              0.0361659043, 0.425343156, -0.1538378, -0.6925999, 0.273611158,
              0.0493118875, 0.101920731
            ],
            [
              0.6671848, 0.0627888441, 0.70429647, 0.60432744, -0.7709472,
              0.551646233, 0.315255
            ],
            [
              0.457489133, -0.7367153, -0.08856714, -0.6070143, 0.08681828,
              -0.4356147, -0.28802228
            ],
            [
              -0.6407484, 0.29460296, 0.531417131, 0.6802591, 0.341777533,
              -0.711852431, 1.12715018
            ],
            [
              0.139382839, 0.421138585, 0.594791, 0.122328579, -0.7620157,
              0.130800664, -0.45044446
            ],
            [
              -0.304506421, -0.346218079, 0.202625737, 0.08075676, 0.5234873,
              -0.370424181, 0.352485746
            ],
            [
              0.0210741162, -0.563431, 0.249622449, 0.254032344, -0.5772157,
              0.419423819, -0.609614253
            ],
            [
              0.220943481, 0.0432186723, -0.6293886, -1.43202221, -0.256810725,
              0.594237149, 0.160759524
            ],
            [
              -0.606331944, -0.0221939683, 0.124094665, 0.484057367,
              -0.187543631, -0.00414705276, 0.6812542
            ],
            [
              0.7254796, -0.01896888, -0.34057188, 0.6663065, -0.344286323,
              0.6986575, -0.6594237
            ],
            [
              0.42755264, -0.561135054, 0.540601969, -0.002960682, -0.418919325,
              0.129019409, -0.60262394
            ],
            [
              -0.175962433, 0.927298665, -0.39741385, 0.208133325, 0.371511459,
              0.3861556, -0.3307055
            ],
            [
              -1.07387078, -0.6039902, -0.06166541, -0.576849461, 0.002423328,
              -0.6127621, 0.576682
            ]
          ],
          [
            [
              -0.155149579, -0.04475245, -0.5781877, -0.237441808, -0.608259559,
              0.4876535, 0.340898842, 0.7197041, 0.245230272, -1.07162106,
              0.0327796862, 0.2694566, 0.8187384, -0.771870852, 0.320868462,
              0.3582909, 0.9772826, -0.5868195, -0.112757429, -0.0108285425,
              0.314350247, -0.688798666, -0.403894782, -0.22098282, 0.0444267,
              -0.374904037
            ],
            [
              0.077045016, -0.199706137, 0.523831844, -0.166201115, -0.5495852,
              0.3309342, 0.0231052041, -0.112677455, 0.186932147, 0.713338137,
              0.425398558, -0.5043347, -0.364929318, -0.2633282, 0.493827224,
              -0.0208063126, 0.736299634, 0.347887754, -0.159704626,
              0.102643587, -0.653255, 0.6254895, -1.30761659, 0.105592847,
              -0.54199183, 0.5749617
            ],
            [
              0.4226749, 0.293867558, 0.6374506, -0.7469803, -0.5113021,
              -0.06783961, -0.05743575, 0.185409844, -0.133558631, -0.184483364,
              0.23626034, 0.144803062, -0.248425364, -0.08045459, 0.3668068,
              0.0821964741, 0.422145963, 0.0495476276, 0.7165953, -0.644255042,
              0.471779764, -0.0288307667, 0.7691996, 0.150354967, -0.7208581,
              0.00340664387
            ]
          ]
        ],
        "fitness": 302.120422
      }
    },
    {
      "LayerStructure": [7, 28, 3],
      "FitnessConvergence": [
        6.59757233, 6.758851, 7.03821754, 18.2037773, 18.6111927, 18.6688251,
        18.62542, 18.645359, 18.7579269, 18.7909775, 23.8272972, 25.673151,
        23.9500351, 25.6477528, 40.6888962, 44.0770264, 44.2531128, 44.0497627,
        44.3995667, 32.30688, 55.35692, 55.3668976, 55.3679657, 60.8240128,
        60.89195, 60.9041824, 60.8909073, 60.9986649, 60.8602753, 60.8431625,
        61.79486, 62.01265, 62.0164032, 62.0126, 62.3191376, 62.47029,
        62.5287552, 62.65901, 62.6836128, 62.7006531, 62.6981125, 62.7606277,
        62.6987343, 62.6954269, 62.7209244, 66.42752, 66.4855957, 66.63161,
        66.66093, 66.68943, 66.77288, 66.7569046, 66.7608261, 66.772934,
        66.7798, 66.7590942, 66.78782, 66.7562256, 66.76539, 66.72337, 66.77068,
        66.7706146, 66.79073, 66.7642441, 66.79137, 66.77378, 66.7927246,
        66.78498, 66.76405, 66.77125, 66.75637, 66.77979, 66.76645, 66.78604,
        66.77727, 66.7853, 66.77231, 66.76802, 66.78333, 66.77702, 66.76812,
        66.7893, 66.76705, 66.7832947, 66.780365, 66.79738, 66.73719, 66.76888,
        66.773735, 66.76242, 66.80579, 66.68533, 66.75342, 66.80395, 66.76155,
        66.78982, 66.76111, 66.7911148, 66.76916, 66.79722, 66.79728, 66.77283,
        66.7603, 66.74893, 66.7491455, 66.78586, 66.75385, 66.77405, 66.75858,
        66.71463, 66.8021545, 66.7626648, 66.8119049, 66.80775, 66.80275,
        66.77081, 66.77321, 66.78956, 66.80182, 66.79743, 66.77345, 66.76673,
        66.82019, 66.77276, 66.77662, 66.77328, 66.7704849, 66.7756653,
        66.77798, 66.79713, 66.8111649, 66.82048, 66.82821, 66.81692,
        66.8294144, 66.82597, 66.82961, 66.81833, 66.83727, 66.81307, 66.81706,
        66.83387, 66.8443, 66.82901, 66.65073, 66.83078, 66.85147, 66.87213,
        66.72656, 66.81782
      ],
      "fittestNetwork": {
        "layers": [7, 28, 3],
        "biases": [
          [
            -0.469192863, 0.178236, -0.0586233735, -0.334728718, -0.182472527,
            -0.4698, 0.365781784
          ],
          [
            -0.0297490954, -0.348594785, 0.4616108, 0.193695292, 0.0249770284,
            -0.131559908, 0.176587209, -0.05585009, 0.4308672, -0.30277586,
            0.331489921, 0.437311053, -0.00653857, -0.247357786, -0.1937452,
            -0.444728971, -0.248678267, 0.326681018, -0.144404829, 0.152277336,
            -0.216128886, 0.1843699, -0.256757379, 0.378701329, -0.267627835,
            0.299520135, -0.4070418, 0.4992745
          ],
          [0.1779071, 0.4627819, -0.08146864]
        ],
        "weights": [
          [
            [
              1.45782411, 0.6949072, -0.448654532, 0.464966416, 0.5190271,
              -0.212768763, 0.09815948
            ],
            [
              -0.170510992, -0.428106129, -0.424145281, -0.135465667,
              -0.116570033, 0.221670687, -0.584529042
            ],
            [
              -0.524582863, -0.0293343663, 0.326310068, 0.443663239,
              -0.0222355947, -1.00648642, -0.20892702
            ],
            [
              -0.132304132, 0.726201355, 0.113976106, 0.09169268, -0.401239157,
              -0.135389924, 0.290805966
            ],
            [
              0.352437139, 0.8379803, -1.57721, 0.229634255, -0.405354,
              -0.0641923, 0.7657429
            ],
            [
              0.180749744, 0.685431838, -0.224801049, -0.7619946, 0.387877464,
              0.13149637, 0.113734782
            ],
            [
              0.07825583, -0.265980154, 0.0143729625, 0.345616341, -0.171253383,
              0.4621694, -0.5079608
            ],
            [
              0.7794018, -0.3955871, 0.0568339154, 0.112267874, 0.3509847,
              0.285523623, -0.008404817
            ],
            [
              -0.01305612, -0.496294022, 0.350255, -0.314950675, 0.240165919,
              -0.000239356639, 0.292142868
            ],
            [
              0.06587815, -1.01364434, -0.340104461, 0.550060451, 1.00433242,
              -0.5018091, -0.114811063
            ],
            [
              -0.7030343, 0.362993, -0.7287052, -0.7706705, -0.02978462,
              -0.7264426, -0.05919057
            ],
            [
              -0.60919, -0.07875766, 0.350051582, 0.968225241, 0.761906,
              -0.435912848, 0.161743343
            ],
            [
              0.415240347, -0.0319941044, 0.08646184, -0.585367441,
              -0.240437821, -0.402495354, 0.409523457
            ],
            [
              0.09207478, 0.545816362, 0.516056538, 0.5277426, 0.565137744,
              0.0262077134, -0.5563512
            ],
            [
              0.6371429, 0.1116073, 0.544064641, -0.3818126, -0.946308851,
              -0.447321862, 0.11531949
            ],
            [
              -0.795659, -0.0898847952, 0.223532155, -0.5948422, -0.423804045,
              -0.296629429, 0.2291843
            ],
            [
              0.0117365206, 0.827088654, 0.00588831, 0.8266697, -0.6846409,
              -0.183142468, -0.6031318
            ],
            [
              -0.6969873, 0.342622459, 0.1727521, -0.115796685, 0.4804421,
              0.374713629, 0.128904626
            ],
            [
              0.316581, 0.6709531, -0.5793334, 0.5812848, 0.3809515,
              -0.08092518, 0.19553861
            ],
            [
              -0.113213, -0.204259336, 0.507437468, -0.367030859, -0.04202789,
              -0.161286592, -0.5717482
            ],
            [
              -0.418565273, -0.0274715647, 0.386879861, -0.440142184,
              -0.1643678, 0.019133687, 0.264163464
            ],
            [
              -0.332607061, 0.24561201, 0.235696465, 0.5487797, 1.23805356,
              0.428678, 0.32272014
            ],
            [
              -0.504488349, 1.33390272, -0.3243085, -0.388254046, 0.5937241,
              0.6144678, -0.84485507
            ],
            [
              -0.166390181, -0.2684827, -0.383944422, -0.328752279,
              0.0121190567, -0.06439219, 0.634314537
            ],
            [
              -0.344676346, 0.595330954, -0.00257101888, 0.748569965,
              -0.00128943427, -0.331279427, -0.720470667
            ],
            [
              0.312750459, -0.5310837, 0.03506159, -0.695350349, 0.3278091,
              -0.823480964, -0.196148336
            ],
            [
              0.7678908, 0.139602065, 0.593922853, 0.383949757, -0.05182678,
              0.694476962, -0.314077616
            ],
            [
              -0.1023075, -0.444317728, -0.495515168, 0.5548632, 0.0200597011,
              0.116997063, -0.365529656
            ]
          ],
          [
            [
              -0.1957364, 0.5728805, 0.3846938, -0.148046672, 0.42525655,
              0.09151852, -0.1561175, -0.6924298, 0.559638143, -0.2044186,
              0.161399275, 0.495078444, -0.5231061, 2.5718646, 0.0760112554,
              1.0139724, 1.01352155, 0.178127319, 0.293174475, -0.265423536,
              -0.398396969, 0.19214195, 0.8487807, -0.010050402, -0.408630967,
              -0.43432647, 0.203179762, -0.0217642188
            ],
            [
              -0.151276886, -0.0516462922, 0.191592515, -0.7666147,
              -0.009694397, -0.391804338, -0.0514984876, -0.6951918, 0.3238812,
              0.8687084, 0.314994752, 0.7424519, -0.170389012, -0.405211776,
              0.1612438, -0.5374637, -0.696179569, -0.329859048, 0.128899038,
              0.6722279, 0.474672019, -0.3977803, -0.5115763, 0.237859666,
              -1.70355856, -0.5495753, 1.2771703, -0.449690223
            ],
            [
              0.3180442, -0.702712536, 0.4531111, -0.6752442, 0.115421422,
              0.08263039, 0.08410317, -0.233477578, 0.04989294, -0.629944,
              0.0758345, -0.04549557, -0.302687317, -0.572574854, 0.20675236,
              -0.0541570969, 0.5600076, -0.6115204, -0.583755, 0.0125147114,
              -0.797888041, 0.192750975, -0.154869854, -0.120746195, 0.17543304,
              0.526839256, -0.09086698, 0.1760605
            ]
          ]
        ],
        "fitness": 66.87213
      }
    }
  ]
}
