{
  "_info": "A total of 10 cycles, each trained for 150 epochs, with a total of 55 agents, for a total of 1886.993 minutes.",
  "_additionalNotes": "Non greedy, with speed info, one hidden layer",
  "Evaluations": [
    {
      "LayerStructure": [8, 10, 8, 3],
      "FitnessConvergence": [
        6.48030663, 6.870508, 7.178646, 7.713681, 7.89958239, 8.039892,
        40.90871, 43.0674362, 151.625214, 152.260986, 155.899857, 156.9688,
        159.379181, 160.446579, 162.654526, 164.218338, 164.44989, 164.769455,
        164.868423, 164.621567, 164.5111, 164.856033, 164.49884, 165.317551,
        165.092209, 164.609283, 164.646164, 164.9677, 165.167145, 165.104691,
        165.042343, 167.1913, 166.637589, 167.7678, 169.988281, 171.672043,
        171.101852, 176.15596, 176.327118, 176.0366, 176.967117, 176.224319,
        176.344269, 176.344269, 176.344269, 176.361435, 176.395782, 177.3704,
        176.395782, 176.224319, 176.533508, 177.019485, 176.550766, 176.671738,
        176.827835, 178.1358, 180.755447, 181.2967, 181.0832, 181.433151,
        181.746765, 183.046051, 183.43367, 187.654236, 187.881042, 188.476288,
        188.361191, 188.063339, 188.453247, 188.6148, 191.70134, 193.160278,
        194.167664, 193.881332, 193.700027, 194.0894, 193.907288, 193.907288,
        194.0373, 193.881332, 194.115479, 194.115479, 193.933258, 193.933258,
        194.063339, 193.674179, 193.777634, 194.0894, 193.803543, 194.324585,
        193.751755, 193.570938, 193.751755, 194.0894, 193.829453, 194.0894,
        193.933258, 193.933258, 194.429489, 193.751755, 194.482025, 194.534622,
        194.64, 194.403244, 194.666382, 194.64, 194.719177, 194.719177,
        194.957535, 197.998932, 198.282532, 198.112167, 198.36792, 198.625015,
        198.883453, 198.682327, 198.539169, 198.7397, 199.085388, 198.768417,
        198.8259, 198.768417, 198.8259, 198.912247, 198.79715, 198.85466,
        198.883453, 198.768417, 198.79715, 198.941055, 198.711014, 198.883453,
        198.79715, 198.912247, 198.8259, 198.79715, 198.7397, 199.1143,
        198.768417, 199.085388, 198.7397, 198.682327, 198.8259, 199.14325,
        199.288162, 199.989716, 199.930878, 199.930878, 200.04863, 200.10762
      ],
      "fittestNetwork": {
        "layers": [8, 10, 8, 3],
        "biases": [
          [
            -0.00572544336, -0.207419574, 0.366376877, 0.4294579, 0.290843964,
            -0.247386754, 0.313045621, -0.0460906625
          ],
          [
            0.46819675, 0.138247833, 0.24069868, -0.07666677, 0.0444996953,
            -0.3161415, -0.1187914, -0.242940009, 0.173860177, -0.215588033
          ],
          [
            0.1664884, -0.402041435, -0.44930613, 0.464458466, -0.222921669,
            -0.2812959, -0.4030651, -0.3119508
          ],
          [0.0159427524, 0.178762421, -0.244466841]
        ],
        "weights": [
          [
            [
              0.4308041, 0.71221596, -0.2432727, -0.621737242, -0.00386172649,
              0.365587, 0.38861075, 0.312274724
            ],
            [
              -0.0313926265, 0.09130748, -0.0303041674, -0.06908194,
              -0.0914154053, 0.0122588873, 0.6410461, 0.6065567
            ],
            [
              0.8919043, 0.8773948, -0.7061886, 0.19204399, -0.3268245,
              0.541676342, -0.5615495, -0.10752064
            ],
            [
              0.534229457, -0.401032448, 0.624542058, -1.22819316, 0.392508149,
              0.5877509, 0.305579662, 0.257525682
            ],
            [
              0.6147844, -0.185520992, 0.31641072, -0.2910124, -0.7263717,
              -0.471892059, -0.218053162, 0.195743546
            ],
            [
              0.10553807, -0.665195167, -0.00813575648, -0.3690301, 0.247564614,
              -0.219517767, -0.146478176, 0.5863789
            ],
            [
              -0.324126124, 0.33853054, -0.134841681, 0.008100868, 0.2680145,
              0.5309778, -0.347168624, 0.474586457
            ],
            [
              -0.005004649, 0.345570922, -0.522762537, 0.0144995451,
              0.107413322, -0.867428, 0.493505776, -0.5071185
            ],
            [
              0.4452809, -0.4956849, -0.746836841, 0.150629982, -0.309280574,
              0.246680528, -0.7052192, -0.13327837
            ],
            [
              -0.401062548, -0.3693882, 0.6462851, -0.6235735, 0.418227345,
              0.5102423, -0.179415643, 0.6194982
            ]
          ],
          [
            [
              -0.0138960043, -1.1508677, -0.02808721, -0.453963518,
              -0.0917183161, 0.06813115, 0.420541584, -0.6662213, -0.489961147,
              -0.59085387
            ],
            [
              0.5730925, -0.375475764, -0.152873889, 0.442740828, 0.009429514,
              -0.2585806, 0.297289282, 0.306013584, -0.007831981, 1.3371954
            ],
            [
              -0.477874935, -0.534999549, 0.330772042, -0.109335132, -0.7341071,
              0.137501925, 0.9221368, 0.184211731, 0.06363545, 0.0859426856
            ],
            [
              0.7154812, -0.276986182, 0.355739176, -0.7013878, 0.31479013,
              -0.154556572, -0.11833407, -1.04911, -1.9826144, -0.4596051
            ],
            [
              -0.0324040055, 0.339324921, -0.24918431, 0.167954445,
              -0.314612329, -0.9937866, 0.308334976, -0.06661242, -0.3072132,
              -0.128379643
            ],
            [
              0.0187389329, -0.0545206219, -0.6763454, -0.706245, 0.307811171,
              0.618901551, -0.176191479, 0.161766961, 0.07936263, -0.06030339
            ],
            [
              0.106006585, -0.343140066, -0.029590385, -0.0493997931,
              -0.5265108, 0.179121688, -0.280219018, 1.16617119, -1.0008806,
              0.327080756
            ],
            [
              -1.11900949, 0.3376674, 0.354911536, 0.301784873, -0.324821562,
              0.5679392, 0.163690627, 0.0880436748, 0.327451169, 0.4437306
            ]
          ],
          [
            [
              -0.64898324, 0.539788067, -0.02749777, 0.4802642, 0.147141322,
              0.4181134, 0.109141864, -0.302158952
            ],
            [
              0.4251069, 0.3538909, -0.080746606, -0.460162133, 0.2351877,
              -0.183836028, -1.00189018, 0.0925005749
            ],
            [
              0.0122495294, -0.05660836, -0.234155059, -0.6550811, -0.53222543,
              -0.0266651511, 0.0256520174, 0.565829933
            ]
          ]
        ],
        "fitness": 200.10762
      }
    },
    {
      "LayerStructure": [8, 12, 8, 3],
      "FitnessConvergence": [
        2.99319029, 3.53418, 3.734094, 3.6567986, 3.798759, 3.85360718,
        4.136175, 5.135995, 6.966901, 7.33297443, 7.79601955, 20.9054,
        20.9446259, 20.9491081, 20.9845657, 20.99272, 21.0140285, 21.55822,
        39.9034576, 66.27252, 66.28527, 66.28692, 66.28453, 66.28692, 66.40479,
        66.48357, 66.43528, 66.59339, 66.5694351, 194.45575, 195.868881,
        195.090469, 195.464661, 197.5766, 196.963715, 196.687668, 197.801392,
        197.046829, 197.660767, 197.046829, 197.408676, 196.825485, 197.998932,
        196.908371, 197.297058, 197.716965, 197.492569, 198.083832, 199.37532,
        200.31459, 198.768417, 199.056488, 200.166656, 200.07811, 200.9407,
        198.79715, 199.52092, 199.25914, 200.850784, 199.085388, 199.6962,
        200.58197, 200.344238, 200.04863, 199.901489, 200.9407, 199.784073,
        200.284973, 199.1143, 200.344238, 201.090927, 201.453308, 201.151154,
        201.392731, 201.181274, 201.453308, 201.544312, 202.80455, 203.5253,
        203.968979, 206.646179, 206.91481, 207.5242, 207.456146, 207.456146,
        207.3203, 207.117172, 207.015884, 207.456146, 207.694717, 207.456146,
        207.5242, 207.286392, 208.175034, 208.729248, 209.783844, 216.969177,
        217.009476, 217.2519, 217.009476, 217.04982, 219.102615, 228.768158,
        234.002243, 234.214111, 241.0726, 243.214584, 246.236771, 248.604736,
        249.25795, 249.455032, 251.522461, 253.439621, 252.886932, 254.346313,
        255.19281, 255.334808, 263.0158, 269.526733, 272.454071, 270.2919,
        271.669373, 270.5485, 270.719971, 270.719971, 272.017242, 271.756226,
        271.84314, 272.454071, 272.279083, 270.121246, 270.2919, 269.696167,
        272.5417, 269.2732, 270.37735, 271.582642, 271.84314, 270.6342,
        274.671844, 275.9389, 276.579346, 281.0998, 276.855255, 275.665833,
        276.487579, 282.266327, 275.665833, 283.447937, 285.047516
      ],
      "fittestNetwork": {
        "layers": [8, 12, 8, 3],
        "biases": [
          [
            -0.354109049, -0.146540225, 0.409237981, 0.443928123, 0.136469945,
            0.116005957, -0.347190976, -0.486565351
          ],
          [
            -0.472907782, 0.163092241, -0.23495084, -0.368932724, -0.194765031,
            -0.315665364, -0.39679265, -0.489768267, -0.06709856, -0.273434877,
            0.0562936664, -0.393164754
          ],
          [
            0.360415578, 0.007996142, -0.060321033, -0.143412888, -0.127592385,
            0.323760748, -0.4018929, -0.0968006253
          ],
          [-0.252171755, -0.158026755, 0.0161606669]
        ],
        "weights": [
          [
            [
              0.0810898542, -0.519878566, 1.01970267, 0.436030865,
              -0.0477965735, -0.1646895, 0.102770269, -0.9549286
            ],
            [
              0.03976129, -0.103004508, 0.272081763, -0.63552016, -0.323832244,
              -0.1737416, 0.188555911, -0.323858559
            ],
            [
              -1.28589129, 0.7008817, 0.486164868, -0.1948695, 0.3557105,
              0.140980765, 0.02884525, 0.207066923
            ],
            [
              -0.06672544, -0.19890061, 0.123897739, 0.6268811, 0.319214433,
              -0.7475745, -0.1291751, 0.688775063
            ],
            [
              0.4760947, 0.124035604, 0.216668829, 0.358262539, -0.6028889,
              0.15628992, -0.5140844, 0.918635368
            ],
            [
              -0.113102742, -0.07835129, 0.381480038, 0.868973434, 0.9082528,
              -0.5021086, 0.346812665, 0.183227047
            ],
            [
              0.309830874, 0.121351957, -0.187494814, -0.258034229, -0.0757506,
              0.724849, 0.20898059, 0.111985095
            ],
            [
              0.350060016, 0.496394038, -0.5557331, -0.08756395, -0.129362851,
              0.138342485, -0.239635676, -0.58930707
            ],
            [
              -0.489078552, 1.52289009, -0.3735512, 0.6650007, 0.208942711,
              -0.955391645, 0.676273763, -0.189529836
            ],
            [
              -0.240695268, 0.157485276, -0.5323825, -0.0215211827,
              -0.262250572, 0.320457637, 0.0138331894, -0.7365747
            ],
            [
              0.134674892, 0.606732, -0.0141961267, 0.222011551, 0.238880873,
              0.121110409, -0.08921471, 0.175913274
            ],
            [
              -0.03403764, -0.1464442, -0.7910014, 0.67624867, -1.0186857,
              0.000752747059, 0.390974849, -0.05510495
            ]
          ],
          [
            [
              -0.1377735, 0.248497233, 0.80977124, -0.00287431479, 0.694302738,
              0.284513772, -0.0208664127, -0.103569552, -0.145606548,
              -0.70449096, 0.0617133975, 0.2687826
            ],
            [
              -0.6186227, -0.348768026, -0.2545599, -0.2130069, -0.4140191,
              0.6160038, 0.04758796, -0.476277471, 0.0986703038, 0.0186647829,
              -0.0402185321, -0.3155856
            ],
            [
              -0.1005432, -0.0841497853, 0.0362875126, 0.428516984, 0.402535677,
              -0.02229147, 0.192513, -0.548678041, -0.5689755, -0.482022166,
              0.6425964, 0.113442041
            ],
            [
              0.04368508, -0.013601914, -0.09744197, 0.0421690457,
              -0.0277798939, 0.428780735, 0.6992224, -0.5314923, -0.328224361,
              -0.07585264, -0.5035027, 0.1821943
            ],
            [
              0.452367067, -0.5730701, -0.185841531, 0.793045163, -0.249246866,
              -0.5973702, 0.5721747, 0.362158477, 1.1233952, -0.0146577954,
              0.150286347, -0.4476934
            ],
            [
              -0.4510473, 0.4801191, -0.275284439, -0.024367081, -0.315463662,
              -0.6567742, -0.0877906755, 0.5754317, -0.02704368, 0.202414453,
              0.7048623, -0.128317133
            ],
            [
              0.43036747, -0.1618018, -0.1926538, 0.318880618, 0.018658638,
              0.009029359, 0.160710245, 0.7437208, 0.399811149, -0.9210795,
              0.293922, 0.6369833
            ],
            [
              -0.126911014, 0.253438979, -0.6055733, 0.459525943, -0.10695526,
              -0.217449591, 0.670006931, -0.332622975, 0.3369893, 0.154704392,
              0.31144464, -0.443805277
            ]
          ],
          [
            [
              0.209904626, 2.75960732, 0.0702954158, -0.825181246, 0.364921838,
              0.473802328, 1.616325, -0.2726927
            ],
            [
              0.577854753, -0.3598673, 0.181896091, 0.4609325, -1.12279022,
              0.5249929, -0.0431517623, -0.7645018
            ],
            [
              0.7171996, -0.222051159, 0.160222828, -0.222580746, -0.374446929,
              -0.0607312322, 0.466815531, 0.6116539
            ]
          ]
        ],
        "fitness": 285.047516
      }
    },
    {
      "LayerStructure": [8, 14, 8, 3],
      "FitnessConvergence": [
        5.03525734, 5.59803247, 6.736141, 6.766325, 7.180369, 7.13708973,
        7.15327835, 7.192177, 6.97695, 6.924784, 7.016283, 6.776065, 7.272804,
        7.20418072, 7.24891424, 7.27674961, 7.275641, 7.223672, 7.296151,
        7.29377842, 7.198274, 7.291335, 7.296067, 7.12447166, 7.271135,
        7.49607658, 7.567507, 7.498831, 7.20458031, 7.00047, 7.54662752,
        7.49871159, 6.988555, 7.33714676, 7.2726965, 7.41816759, 7.232654,
        7.09695244, 7.0576725, 7.50534534, 7.49912262, 7.05960369, 7.241541,
        7.042962, 7.480139, 7.27512264, 7.168335, 7.003784, 7.09839439,
        7.21099949, 7.548958, 7.49573135, 7.439643, 7.460207, 7.106084,
        7.33554935, 7.16379261, 7.158619, 7.1579814, 7.26816654, 7.20428848,
        7.162285, 7.09213, 6.99542761, 7.456356, 7.179618, 7.207018, 7.3461,
        7.14995861, 7.210827, 7.565081, 7.20428228, 7.55073452, 6.97240257,
        7.483965, 7.55129433, 7.16340542, 7.238144, 7.284796, 7.11207962,
        7.16655254, 7.17662573, 7.085842, 7.00103045, 7.059926, 7.49527836,
        7.638824, 7.684648, 7.70283937, 7.67349625, 7.68533945, 7.67434835,
        7.68910027, 7.74883652, 7.57854, 6.93413639, 7.702172, 6.97868443,
        7.67754936, 6.757462, 7.01468563, 7.70027637, 6.863099, 7.757306,
        7.57437325, 7.62677765, 7.690406, 7.687354, 7.695973, 7.69905472,
        7.729703, 7.62031651, 7.624352, 6.92464733, 7.619673, 7.75061846,
        7.705438, 7.33025646, 7.50654936, 7.696909, 7.63677359, 7.70278549,
        7.707858, 7.700026, 7.708234, 7.68069029, 7.70220757, 7.000172,
        7.672721, 7.62656927, 7.6913, 7.56979, 7.68065453, 7.22345734, 7.748091,
        7.521975, 7.706648, 7.684958, 7.55138969, 7.70703554, 7.560277,
        7.711154, 7.70519352, 7.688141, 7.704753, 7.555956, 7.708889, 6.928849,
        7.16010332, 6.9144845
      ],
      "fittestNetwork": {
        "layers": [8, 14, 8, 3],
        "biases": [
          [
            0.2744087, -0.450041771, -0.07776505, 0.07593495, -0.185695708,
            0.145958051, 0.24222444, 0.135547385
          ],
          [
            0.186593637, -0.457552075, -0.144244611, -0.0414244533, -0.07507843,
            0.37184298, -0.282787919, -0.342959523, -0.101613343, 0.399912,
            0.2364168, -0.494528174, 0.474078417, 0.167577967
          ],
          [
            0.4162581, 0.410526156, -0.03137487, -0.200750053, 0.166114792,
            0.3527738, -0.2978028, 0.483883262
          ],
          [-0.0305597186, -0.3872422, 0.123578966]
        ],
        "weights": [
          [
            [
              0.385693371, 0.1435683, 0.192106158, 1.17008567, 0.0480062924,
              -0.205288231, 0.403413564, -0.499931544
            ],
            [
              0.6376621, -0.08615809, 0.478823, 0.382840455, -0.667248547,
              -0.1988244, 0.7394566, -0.103317738
            ],
            [
              -0.065936625, -0.527555645, 0.3716419, 0.5102327, 0.5614833,
              0.6016249, -0.358796537, 0.0349336863
            ],
            [
              0.644599, -0.5574338, 0.06689185, -0.2775216, 0.0680424,
              0.104778945, -0.3842768, -0.3835531
            ],
            [
              0.0415873379, -0.21419619, -0.0846013352, 0.30964, -0.488502026,
              -0.7659122, 0.0995526, 0.23946403
            ],
            [
              0.306071639, -0.395262867, -0.2805718, 0.265546829, -0.08426005,
              0.4344796, 0.663917243, -0.2932142
            ],
            [
              1.448832, 0.720251858, -0.129461959, 0.524767935, -0.03095311,
              -0.428252161, -0.29799673, 0.5027412
            ],
            [
              -0.4991023, 0.412919462, -0.193616033, 0.453686237, 0.0615434162,
              -0.4996867, 0.7187866, 0.475085318
            ],
            [
              -1.01735926, 0.230016217, 0.2962015, 0.455468535, -0.641865134,
              -0.6496611, -0.181066, 0.477038443
            ],
            [
              0.0505271554, -0.376211315, 0.407681137, 0.0156428218,
              -0.585532248, -0.10526669, -0.00571578741, 0.709552
            ],
            [
              -0.190576255, 0.114168428, -0.270672023, -0.7369836, -0.306336731,
              -1.79040444, -0.208164215, -0.151117817
            ],
            [
              0.6583343, 0.624374568, -0.7388189, 0.399421215, -0.293883383,
              0.2079713, -0.168280348, -0.3738602
            ],
            [
              0.365501821, 1.00112522, -0.167452037, 0.453066379, -0.349944979,
              0.2870435, 0.14564091, -0.0567601919
            ],
            [
              -0.108274877, 1.10759592, 0.400823474, 0.5112185, -0.346405923,
              -0.3453138, 0.0560246781, -0.4283004
            ]
          ],
          [
            [
              0.65882045, 0.373173475, 0.170205772, -0.270784825, -0.0203555226,
              -1.23067737, 0.0386457369, -0.3865754, -0.432341367, 0.441338062,
              0.206597716, -0.03445685, 0.4275839, 0.1682052
            ],
            [
              -0.232351124, 0.46904248, -0.492648065, -0.360443771, 0.5283591,
              0.331725985, 0.5886407, 0.287654161, -0.278454, -0.114858508,
              0.566234767, -0.652667761, -0.363283336, -0.04388547
            ],
            [
              -0.217686117, 0.16506052, 0.46792224, 0.624569, 0.038362205,
              -0.4564504, -0.35395354, 0.3228158, 0.256456167, -0.468627334,
              -0.420838535, -0.4096451, -0.484048128, 0.4434998
            ],
            [
              -0.53318876, -0.761431456, -0.225341529, -0.369841129, -0.6210924,
              0.55344826, -0.0425685048, -0.116408646, -0.434203655,
              -0.459101319, -0.185925, 0.9073924, -0.151634812, 0.161867559
            ],
            [
              -0.192340523, -0.008977711, -0.168754473, -0.4354126,
              -0.207942367, -0.0739799142, 0.1043241, -0.0498873964, -1.3169831,
              -1.1024605, -0.468963385, 0.03805548, -0.168520257, 0.5549478
            ],
            [
              -0.06915849, -0.02324117, 0.056358695, -0.992699146, -0.163587034,
              0.185776442, -0.015365541, -0.264564723, 0.53334105, 0.685061157,
              0.148616374, -0.644744337, -0.6624754, -0.0503612757
            ],
            [
              -0.1747284, -0.409434378, -0.21840775, 0.5631663, 0.388603568,
              0.239897937, 0.4622088, 0.121171355, -0.0354975238, -0.140488863,
              0.139786124, -0.08515352, 0.354076445, -0.417651
            ],
            [
              0.6272918, 0.46008563, -0.134889245, 0.7016211, 0.119485617,
              -0.09908568, 0.1583637, -0.4480788, 0.740783632, -0.615310133,
              -0.6664819, -0.3260979, -0.649557054, 0.00100553036
            ]
          ],
          [
            [
              1.15879309, -0.278969824, 0.663538635, 0.5176512, 0.163514256,
              -0.3634476, -0.06881063, 0.5852192
            ],
            [
              -0.6156152, 0.688021362, 0.703044236, -0.7309696, 0.828804851,
              0.402164042, 0.6496139, 0.420405239
            ],
            [
              2.03047323, 0.110271692, 0.4743891, 0.426625282, -0.671708047,
              0.418331742, 0.00109535456, 0.437815934
            ]
          ]
        ],
        "fitness": 7.757306
      }
    },
    {
      "LayerStructure": [8, 16, 8, 3],
      "FitnessConvergence": [
        2.08119154, 5.612707, 11.0458851, 15.4678345, 17.7374115, 17.9582176,
        17.9225273, 17.91234, 18.1061745, 21.5049019, 21.71474, 21.9103165,
        27.3880653, 66.81851, 66.8487, 66.84721, 66.84114, 67.06806, 67.11891,
        201.090927, 201.483627, 201.909943, 202.03241, 202.680222, 203.810089,
        204.577255, 204.6417, 204.9651, 205.257889, 205.8154, 205.8154,
        206.046677, 206.212524, 206.579224, 206.74675, 206.847519, 206.91481,
        206.8139, 206.847519, 206.8139, 207.117172, 207.490158, 207.354233,
        207.5242, 207.558258, 221.488937, 221.358673, 222.895981, 225.438339,
        229.356812, 231.003723, 230.801865, 230.801865, 231.2062, 243.4566,
        254.206116, 259.0454, 269.526733, 274.49234, 276.671234, 277.039673,
        281.778442, 280.330383, 279.7576, 282.4622, 281.293182, 280.330383,
        284.745453, 284.044525, 282.070862, 285.047516, 283.249939, 283.3489,
        283.052368, 284.344269, 288.750519, 291.518463, 286.061462, 284.64502,
        285.350525, 292.0601, 279.188446, 284.344269, 290.7653, 286.880676,
        288.2274, 290.230927, 288.018921, 290.551178, 287.603424, 288.018921,
        289.911743, 284.444427, 272.8051, 290.12442, 278.060883, 286.7779,
        289.593628, 287.189728, 288.64566, 290.872528, 286.7779, 291.087341,
        292.386536, 289.171143, 290.337555, 285.8578, 292.6048, 286.163483,
        290.872528, 293.3726, 292.9331, 292.7141, 293.703522, 294.368774,
        294.926666, 292.0601, 288.64566, 293.814056, 296.165375, 286.880676,
        294.926666, 286.470184, 292.9331, 292.4956, 294.591553, 66.26222,
        286.2656, 294.703125, 293.924774, 294.703125, 295.038635, 288.750519,
        292.7141, 16.0462856, 67.12622, 294.703125, 293.3726, 295.262939,
        294.2576, 295.3753, 295.600372, 9.127003, 282.5603, 293.1526,
        296.052124, 294.926666, 66.57618, 286.880676, 291.626556
      ],
      "fittestNetwork": {
        "layers": [8, 16, 8, 3],
        "biases": [
          [
            0.352888465, -0.3582827, -0.387693048, -0.184587777, -0.458333254,
            -0.139453709, -0.2636423, 0.376070857
          ],
          [
            -0.363474369, -0.009669483, -0.180975139, -0.49120605, 0.194940075,
            -0.08050698, 0.0511828065, -0.0203716159, 0.08616525, 0.2579589,
            -0.106068909, 0.411713481, 0.245429859, -0.469598174, -0.125295222,
            0.132832155
          ],
          [
            0.06345147, -0.477276564, 0.340801358, -0.133737743, 0.134264812,
            0.299332857, -0.0605166554, 0.3746494
          ],
          [-0.446340442, 0.329728127, 0.294503331]
        ],
        "weights": [
          [
            [
              -0.07593111, 0.2952869, 0.113374464, -1.19949746, 0.147107333,
              0.853994668, -0.001962006, 0.280146122
            ],
            [
              0.0235112309, 0.495555, -0.842361, -0.272094846, 0.16776152,
              -0.0430530868, 0.175964221, -0.187879667
            ],
            [
              0.5257295, -1.28394389, 0.5223514, -0.3620972, 0.06453728,
              -0.121323884, 0.63529557, 0.153477445
            ],
            [
              -0.11719197, -0.6214264, 0.0741119757, -0.66273886, -0.637494147,
              -0.473765731, 0.0115929246, 0.293251961
            ],
            [
              -0.113720685, 0.03796516, 0.262930632, -0.607009351, 0.16430068,
              -0.616524458, 0.2599921, 0.6942628
            ],
            [
              0.260217547, 0.688563466, -0.6575435, 0.0573471636, 0.47051996,
              -0.301397324, 0.0387608223, -0.2719502
            ],
            [
              -0.692971051, 0.0920125246, 0.0417907536, -0.0440375768,
              -0.404754668, -0.621241868, 0.16952242, -0.129854783
            ],
            [
              -0.0260185748, 0.800137937, -0.06470758, 0.4205544, -0.08529508,
              0.16873917, 0.4820028, -0.0404083133
            ],
            [
              -0.0735356957, -0.08024448, -0.2119298, 0.0122627616, 1.06320536,
              -0.545265257, 1.18754017, 0.8885426
            ],
            [
              0.691270947, -0.68712, 0.144688, 0.712075055, 0.2511909,
              0.230388731, -0.7068674, 0.0128844427
            ],
            [
              -1.10162878, 0.4354571, -0.440105259, 0.117502823, 0.14017956,
              -0.362433136, -0.749150932, -0.18111968
            ],
            [
              0.007234633, -0.3919428, 0.3477902, -0.07076877, 0.6021215,
              -0.259862781, -0.0799901262, -0.079292
            ],
            [
              0.0132061979, 0.230412751, -0.355449855, 0.0536432266,
              0.103811614, 0.140930355, 0.332403362, -0.5386054
            ],
            [
              -0.09975457, 0.34200877, 0.1804819, -0.057754226, -0.577127039,
              -0.0742425248, -0.0593853742, -0.614957154
            ],
            [
              -0.6731, -0.239334449, -0.217675611, 0.189971432, 0.12352711,
              -0.11996156, -0.0576696433, -0.01887484
            ],
            [
              -0.363029182, -0.3455351, 0.5846646, -0.788574636, -0.02784859,
              -0.421389282, -0.130820066, -0.298538029
            ]
          ],
          [
            [
              -0.224607885, -0.365357071, 0.2113406, -0.295255423, 0.922425151,
              -0.9581808, -0.736820161, -0.09364531, 0.359304577, 0.23214823,
              -0.459561974, -0.06602269, -0.6363253, -0.104073964,
              -0.0145611167, -0.27114737
            ],
            [
              0.5693139, 0.5433663, -0.08715711, 0.6145565, -0.351410031,
              -0.992047668, -0.022344768, 0.008010312, -0.16942811, 1.03971112,
              -0.09958989, 0.7559243, 0.223755419, 0.364971876, -0.4523962,
              0.380318016
            ],
            [
              1.570162, -0.04556865, -0.9051629, 0.4875056, 0.24195838,
              -0.006389494, -0.177753583, -0.452071726, 0.2647518, 0.952497363,
              -0.02211827, -0.272526979, 0.360802531, -0.0707674548,
              -0.05542175, 0.481676579
            ],
            [
              -0.8017212, -0.6344313, 0.188518122, 0.0569844842, -0.0303908661,
              -0.24094443, -0.73224, 0.982073, 0.330840468, -0.407513857,
              -0.526268542, 0.3075049, 0.501584, -0.176315278, 0.198833436,
              0.294844329
            ],
            [
              0.560210943, -0.008434254, -0.114753723, 0.631899059,
              0.0521968119, -0.282827973, 0.080941774, 0.217271909, 0.506895,
              -0.103122778, 0.05152327, -0.299506247, 0.5497436, -0.161587775,
              0.2713067, -0.236811891
            ],
            [
              0.271744072, -0.8473772, 0.128359616, -0.141009331, -1.18772662,
              -0.2624535, -0.13506642, 0.438606918, -0.385515034, -0.02633116,
              -0.314695656, 0.4610929, -0.6317352, -0.7730976, 0.0474218726,
              -0.293684423
            ],
            [
              0.7966292, 0.19694075, -0.126829743, -0.5306259, -0.0753003,
              -0.421110064, 1.31401849, 0.2357302, -0.07400419, -0.366755664,
              0.06709965, 0.4464681, 0.4678636, -0.324878871, 0.0413100719,
              0.007741893
            ],
            [
              -0.1881257, -0.00252013537, 0.0788829252, 0.000106406646,
              -0.468725264, -1.27814424, 0.244097933, 0.387010872, -0.210828066,
              0.5532794, -0.0195121951, 0.540991545, -0.7124259, 0.0675161,
              0.166089714, 0.137937963
            ]
          ],
          [
            [
              1.02846932, 0.589009047, 0.8435894, 0.0617398322, 0.887923956,
              -0.334062159, 0.08356041, 0.168526724
            ],
            [
              0.545915365, 0.110346675, 0.42491287, -0.337341368, -0.428420126,
              0.708433449, -0.5785104, 0.2466142
            ],
            [
              -0.0331685767, -0.234116971, 0.777246356, -0.023470439,
              -0.0639850944, -0.535643041, 0.183765039, 0.08991141
            ]
          ]
        ],
        "fitness": 296.165375
      }
    },
    {
      "LayerStructure": [8, 18, 8, 3],
      "FitnessConvergence": [
        3.72832417, 5.41021824, 6.40998459, 6.53113747, 6.576973, 6.57356358,
        6.58395863, 6.613141, 6.64144135, 6.744766, 7.037568, 7.099324,
        7.2055397, 7.19701052, 7.274932, 7.28488541, 7.281196, 7.29077435,
        7.26362467, 7.29040527, 7.264793, 7.29904175, 7.27618933, 7.31537342,
        7.29799843, 7.254201, 7.30212927, 7.40080452, 7.439232, 7.40096,
        7.360882, 7.4030695, 7.392782, 7.41636753, 7.347238, 7.391715, 7.394475,
        7.481962, 7.474625, 7.46894455, 7.50528574, 7.46403933, 7.48723745,
        7.57014751, 7.354766, 7.53737068, 7.34141445, 7.36545324, 7.57655525,
        7.346809, 7.8068614, 7.66249275, 7.79601955, 7.7706337, 7.736534,
        7.69766569, 7.76404142, 7.67930746, 7.687938, 7.78195858, 7.669461,
        7.803893, 7.75436163, 7.69946575, 7.718295, 7.73297548, 7.69813633,
        7.61655569, 7.87906075, 7.87946, 7.8358593, 7.764828, 9.171748,
        10.767889, 17.880476, 17.9327374, 18.0650349, 18.1820087, 18.4670563,
        18.4396973, 18.4687386, 18.4401283, 18.4596176, 18.4687138, 18.2225,
        18.2346344, 18.4710617, 18.23244, 18.4746914, 18.5453949, 18.4697933,
        18.4645824, 18.48961, 18.5374622, 18.5043278, 18.4499569, 18.4494743,
        18.3036327, 18.52681, 18.60559, 18.5842876, 18.9359245, 19.9453583,
        20.0411263, 20.0799637, 20.060503, 20.0623989, 20.0608616, 20.0639954,
        20.0617142, 20.0621967, 20.0623932, 20.0631733, 20.0608978, 20.0645676,
        20.0644722, 20.0645981, 20.063097, 20.2035122, 20.49402, 20.8004589,
        21.15662, 21.4046841, 21.78027, 21.4856148, 174.731567, 21.9637451,
        28.338892, 21.68373, 42.08216, 43.1653976, 41.7662926, 41.76143,
        43.1723, 41.74831, 178.0281, 21.6494923, 43.0126724, 173.566071,
        43.1583061, 41.7258759, 41.72939, 21.6505947, 41.8559952, 41.727005,
        41.66531, 41.886322, 39.2061539, 177.177, 42.12138
      ],
      "fittestNetwork": {
        "layers": [8, 18, 8, 3],
        "biases": [
          [
            -0.308524728, 0.0765906, 0.14337419, -0.156601012, 0.3781172,
            -0.392357826, 0.239876971, 0.2278298
          ],
          [
            -0.295708656, -0.276456475, -0.3123796, 0.301091433, -0.275045872,
            -0.009861171, -0.0999470353, -0.333127379, 0.0136346221, 0.1144765,
            0.343018532, -0.3952527, -0.274572968, 0.267977118, 0.211942539,
            -0.239155948, 0.415828347, -0.2739532
          ],
          [
            0.4604112, -0.2808708, 0.0502906442, 0.3611287, -0.211932838,
            0.435809255, 0.128631935, 0.294960141
          ],
          [-0.03633803, -0.0157997012, 0.0306095481]
        ],
        "weights": [
          [
            [
              0.132428691, 0.211306661, 0.7666658, 0.57253325, -0.008780388,
              -0.104978889, 0.360652328, -0.7362782
            ],
            [
              0.141163051, -0.09426427, 0.8372249, -0.06470356, -0.0181434322,
              -0.06940746, 0.00385568338, 0.0258027911
            ],
            [
              -1.079559, 0.164753854, 1.01748073, -0.100092731, 0.340673566,
              0.118900441, -0.0286643486, 1.23440337
            ],
            [
              -0.000293210178, -0.483285, 0.501654565, -0.0135425515,
              0.331695974, -0.0361725129, 0.4547812, -0.199937955
            ],
            [
              -0.5863794, -0.948918343, -0.112516746, -0.09837353, -0.272476822,
              -0.08489545, 0.00806986447, -0.00589304371
            ],
            [
              -0.2572312, 0.0225774534, -0.734724939, 0.173689842, 1.036447,
              0.08214413, 0.182693228, 0.577841938
            ],
            [
              0.104514457, 0.442822, -0.228676289, 0.204095349, -0.03703833,
              -0.03377205, -0.13212809, -0.516521
            ],
            [
              0.6013333, 0.3302842, -0.432584882, 0.3406492, -0.467824936,
              0.0524425022, 0.51580137, 0.2866944
            ],
            [
              -0.00203074934, 0.119706579, 0.0003131168, 0.363933623,
              -0.08157188, -0.390741169, -0.7719605, 0.0102504306
            ],
            [
              0.7987493, 0.851816535, -1.009014, -0.304443717, 0.7020646,
              0.07409494, -0.284695774, -0.177284062
            ],
            [
              0.07999201, 0.719879866, -0.2870022, 0.2689127, 1.19403684,
              -0.948197663, 0.294113278, -0.87363416
            ],
            [
              -0.042087432, 0.202814877, 1.655897, -0.4619074, 0.236018091,
              -0.14918381, -0.14295274, 0.32816577
            ],
            [
              -0.106484771, 2.14691687, 0.2177446, 0.0142568406, -0.179657951,
              -0.2882614, -0.242264241, -0.550958157
            ],
            [
              0.0369972177, 0.136753976, -0.060714934, -0.120913684,
              -2.09655213, 0.818583, -0.0247621536, -0.004239716
            ],
            [
              -0.0136991143, -0.481467247, 0.028095549, -0.295622468,
              0.260276467, 0.611984134, -0.03419236, -0.6276614
            ],
            [
              0.056319952, 0.357985228, -0.2051405, -0.0828044862,
              -0.0621665046, -0.5851287, 0.2308487, 0.387667835
            ],
            [
              -0.219662517, -0.000840285153, 0.5937644, 0.150751889,
              -0.0114892125, 0.8186136, -0.347480446, 0.105150439
            ],
            [
              -0.0349042267, -0.1862856, -0.0446316749, -0.3308999, 0.274791241,
              0.4591401, -0.196045592, -0.266273171
            ]
          ],
          [
            [
              0.5009379, -0.07616593, 0.383688748, -0.70631963, -0.267350435,
              0.383674473, -0.071913, 0.100877583, 0.0364936367, 0.5432294,
              -0.523770034, -0.2825971, 0.165370747, -0.135068715, -0.336377382,
              -0.929032445, 0.8000059, -0.570560455
            ],
            [
              -0.08974421, -0.116533935, 0.102118433, -0.00386796519,
              0.581995666, 0.50312227, -1.57122135, -0.07960336, -0.376877964,
              -0.5138907, -0.002501349, -0.102834865, 0.351844668, 0.186122581,
              -0.386624724, 0.03638404, -0.145517409, -0.221021876
            ],
            [
              -0.354738772, 0.19822298, 0.190797061, -0.147288427, -0.07890743,
              -0.295357555, 0.0218405034, 0.06783462, 0.05977004, 0.161929116,
              0.0140701188, 4.8360405, -0.206597477, -0.0681925938,
              -0.0496450476, -0.463731855, 0.63852787, -0.0726454258
            ],
            [
              -0.205837041, 0.001966484, -0.246887639, -0.3068745, 0.473511249,
              0.112455927, -0.668545544, -0.9914829, 0.234553248, 0.253332675,
              -0.288833469, -0.43354395, 0.591571748, 0.6241917, -0.215603366,
              0.489558339, -0.864981651, 0.166119963
            ],
            [
              -0.553104341, -0.9810479, -0.0406057462, -0.217359483, -0.6399647,
              -0.138628468, 0.0105606848, 0.0864793658, 0.9979366, 0.3988964,
              0.131953627, 0.07903437, -0.152738631, 0.537512839, -0.225853264,
              -0.235318244, 0.0411895, -0.186703056
            ],
            [
              0.0592716672, 0.00259000063, -0.1189143, 0.301501244,
              -0.0895662159, 0.212730855, -0.140354738, 0.0102884835,
              0.046233613, -0.03899638, 0.178190678, -0.7084686, -0.4080881,
              0.17888993, -0.0006071131, -0.187367186, -0.4670051, -0.557797551
            ],
            [
              -0.7136158, -0.198442847, 0.11057514, 0.0107117631, -0.730609,
              0.23731795, 0.287211418, 0.178922176, -0.5758685, 0.200770125,
              -0.187367052, 0.9093383, -0.148053646, -0.812670052, 0.0396366753,
              0.0194087718, -0.02496991, 0.5107495
            ],
            [
              0.51094985, -0.019565504, -0.0515107028, -0.6140814, 0.26366514,
              -0.382056028, 0.674224854, 0.3850123, -0.311329931, -0.274300426,
              0.17307, -0.0620663762, 0.272754133, -0.7190668, -0.0438122079,
              0.519907534, 0.08952898, 0.130507022
            ]
          ],
          [
            [
              -0.0748603046, 0.487341017, 0.520734847, -0.492587447,
              0.339028537, 0.320154965, 0.7855571, -0.9105535
            ],
            [
              -0.658050358, 0.334365129, 0.3544095, -0.0992479, -0.253105551,
              0.177782178, -0.00114114746, 0.0412686467
            ],
            [
              0.361314952, 0.678693533, -0.521375239, -0.0827917457, 0.9963216,
              0.1911, -0.237743631, -0.206462115
            ]
          ]
        ],
        "fitness": 178.0281
      }
    },
    {
      "LayerStructure": [8, 20, 8, 3],
      "FitnessConvergence": [
        2.30976343, 3.13135386, 3.24408412, 5.767411, 16.9808388, 13.3274317,
        5.79088926, 14.5993176, 14.8268938, 16.9315758, 16.52112, 15.4761133,
        17.32787, 17.7792377, 17.8774, 17.9299831, 42.3345642, 42.6756439,
        42.6652031, 42.6464, 42.52072, 42.68605, 42.71997, 42.6377945,
        42.7356834, 42.7459259, 42.5948639, 42.59099, 42.78825, 38.9128571,
        42.9892, 43.08321, 43.09708, 43.0956535, 43.0911942, 43.1006966,
        43.0938377, 43.1116753, 43.10132, 43.09226, 43.1056137, 43.0903931,
        43.1072159, 43.08779, 43.09616, 43.1017, 43.1116867, 43.11019,
        43.0813179, 43.1064529, 43.124157, 43.1109543, 43.1120262, 43.11464,
        43.1055946, 43.1271858, 43.1440125, 43.1342964, 43.1404, 43.1236572,
        43.14803, 43.14696, 43.1539726, 43.1631, 43.1528549, 43.12904,
        43.1396141, 43.1519852, 43.11087, 43.1076279, 43.1585655, 43.13132,
        43.14862, 43.13627, 43.1401863, 43.1661377, 31.09985, 30.8303661,
        43.1243668, 43.1431236, 43.10189, 43.1702423, 24.0711632, 43.15548,
        43.197216, 43.223423, 43.191124, 43.1840553, 43.19864, 43.6085052,
        43.605484, 43.5850563, 43.565506, 43.598793, 43.61267, 43.5899734,
        43.61167, 43.61562, 43.59312, 43.5831375, 43.5563965, 43.6041069,
        43.58735, 43.63252, 43.6991043, 33.7367477, 36.12794, 43.2157631,
        43.4248428, 43.6889954, 43.5049133, 43.586235, 43.565876, 43.5895042,
        43.8660851, 43.8864632, 43.8744736, 43.8733521, 46.65164, 46.75382,
        43.87919, 46.72701, 46.63657, 46.7088242, 46.7731819, 43.87346, 46.6614,
        43.8826027, 46.7049179, 43.90688, 46.6506729, 43.87812, 46.698307,
        46.6409264, 46.60926, 46.69287, 43.90103, 43.87371, 43.8829842,
        46.6503334, 46.36492, 46.73695, 46.556015, 46.44046, 46.6521263,
        43.8840942, 46.603466, 46.7003326, 43.878788, 43.8823624
      ],
      "fittestNetwork": {
        "layers": [8, 20, 8, 3],
        "biases": [
          [
            -0.1372549, -0.196095049, -0.4113207, 0.3898449, -0.201230228,
            0.289983869, 0.4595579, -0.132148325
          ],
          [
            0.205210909, -0.220104754, -0.4517498, 0.43481946, 0.424164534,
            -0.3596387, 0.0134034753, -0.07843369, -0.127293885, 0.168038949,
            0.00725013, 0.18065773, -0.0857240558, -0.3031367, -0.304693937,
            -0.13622719, 0.0658761859, -0.173404157, -0.483903527, 0.104842126
          ],
          [
            0.0170553327, 0.164977178, 0.362825632, -0.244659483, -0.4661336,
            0.0479086041, 0.008862674, 0.196889862
          ],
          [-0.435847044, 0.150198445, 0.0865895152]
        ],
        "weights": [
          [
            [
              -0.4794758, 0.020127248, 0.0724017248, 0.21942243, -0.894584358,
              0.17605263, -0.599224746, -0.121854842
            ],
            [
              -0.242382482, -0.009498948, -0.240547717, -0.51358515, 0.4261588,
              -0.6135717, -0.12412113, -0.280091822
            ],
            [
              -0.216849923, 1.017148, 0.3641695, 0.563778, -0.647841036,
              -0.341305256, 0.524213731, 0.00533509254
            ],
            [
              -0.6344041, 0.408221126, -0.3814709, 0.162750661, 0.140060619,
              0.5726493, -0.460676163, -0.5718275
            ],
            [
              -0.237024367, -0.29862228, 0.474559844, -0.241593629, -0.02584356,
              0.958889365, -0.110839725, 0.000446043559
            ],
            [
              0.1645598, -0.130058646, 0.261598825, 0.300670922, -0.04424733,
              -0.9473179, -0.244594514, 0.598866761
            ],
            [
              0.181001142, -0.766034961, -0.2902127, -0.4540072, -0.428233,
              0.279228866, 0.163192362, -0.3431479
            ],
            [
              0.205494151, -0.450674117, 0.28398335, 0.5790127, -0.3765622,
              -0.686608, 0.5574867, -0.605116665
            ],
            [
              -0.3227977, -0.6494134, 0.961214364, -0.493424952, -0.1651664,
              0.5004049, 0.3774053, 0.6678067
            ],
            [
              -1.16924286, 0.2734419, -0.6142799, -0.102248609, -0.569497764,
              -0.5820411, -0.539626062, 0.1392948
            ],
            [
              0.204820693, 0.5672622, -0.453489184, -1.36262059, 0.5967719,
              0.154637769, 0.319939643, 0.61387223
            ],
            [
              0.4173078, -0.297763, 0.3645237, 0.272397339, 0.180148065,
              -0.417464346, -0.410387, 0.3122001
            ],
            [
              0.01063146, -0.9728048, -0.7290496, 0.1943805, -0.41637668,
              -0.348059535, -0.5689126, -0.4587983
            ],
            [
              0.5503472, 0.187775731, 0.5852423, -0.309454978, 0.5394314,
              0.115496963, 0.583461046, -0.154549092
            ],
            [
              0.298189223, 0.179168686, 0.5260283, -0.000211536884, 0.471941769,
              -0.2723339, 0.08479796, -0.335051477
            ],
            [
              -0.323239446, -0.4550513, 0.318050861, 0.0385768451,
              -0.0899528861, -0.683259666, 0.0884543359, -0.378076017
            ],
            [
              -0.597560942, -0.523706257, -0.07891542, -0.285179973, -0.6870355,
              -0.000803518, 0.7482558, -0.6407433
            ],
            [
              0.72774, -0.0125682959, -0.8245952, 0.225308046, 0.141710028,
              -0.31821233, 0.285975575, 0.6455762
            ],
            [
              1.11388636, 0.673276961, -0.129281342, 0.07129991, -0.9137069,
              -0.191990137, 0.260104626, 0.0982660949
            ],
            [
              0.0504693165, 0.485475063, -0.303759336, 0.894272745,
              -0.453944355, -0.00960966852, -0.7103625, 0.03402942
            ]
          ],
          [
            [
              1.13483667, -0.296474069, 1.01052058, -0.304497749, -0.24169974,
              -0.363747835, 0.105871089, 0.364380836, -0.111672156,
              0.00295263529, -0.0135795008, -0.023751555, 0.2980897, -0.6712636,
              0.367279, -0.850368, -0.4151335, -0.336076558, 0.613650262,
              0.438594937
            ],
            [
              -0.2659917, 0.33809, -0.305570275, 0.383599579, 0.4441729,
              0.892876744, 0.8999506, 0.562979162, 0.958491266, -0.2694731,
              -0.439026535, -0.19293052, -0.2005573, 0.00353332213, -0.5946452,
              -0.394525945, 0.609572, -0.009484448, 0.6691436, 0.0618076324
            ],
            [
              -0.1520571, 0.5470627, -0.0177466925, 0.35355252, 0.138563931,
              -0.192063734, -0.024661094, -0.05954373, 0.0634974, 0.9633035,
              -0.1019256, 0.8170401, -0.395271331, -0.10715872, 0.6138536,
              -0.07576815, 0.546772, -0.408917934, 0.590023339, -0.6172598
            ],
            [
              0.0208925046, -0.4648592, -0.120310836, 0.07250009, 0.2478923,
              1.151075, 0.7367106, 0.5882769, 0.249954745, 0.402125835,
              0.32236433, 0.438051879, -0.06523428, -0.3450565, 0.7338318,
              -1.40629864, -1.21191561, 0.3730615, 0.280557454, 0.62613827
            ],
            [
              0.287243158, -0.25165832, -0.447191268, -0.352398485, 1.11961854,
              0.345523536, -0.541768551, 0.205854163, -0.9398415, -0.170270264,
              -0.2729301, -0.978709757, -0.0115135685, 0.500604451, -0.4862731,
              0.3204186, 0.0477620438, 0.607296944, -0.2853762, 0.211581692
            ],
            [
              0.006964915, -0.81181556, -0.6613093, 0.7323604, -0.323688269,
              -0.3051769, 0.414393246, 0.295398, -1.415737, 0.180459365,
              -0.148017377, 0.5447402, 0.594249249, -0.280487716, -0.184594691,
              -0.661321938, 0.08344692, 0.613077164, -0.509213865, 0.261022329
            ],
            [
              -0.145205185, -0.422546923, -0.124718137, 0.112009458, 0.5795801,
              -0.552413046, -0.06240551, -0.958202839, 0.25684917, -0.432641149,
              0.3836322, 0.532135069, 0.305293858, 0.5746841, -0.09427291,
              -0.4070027, 0.0804359, -1.36450064, 0.370769024, 0.826957464
            ],
            [
              -0.09766684, 0.8443231, -0.2990101, 0.1874843, 0.405143917,
              -0.5009004, -0.12301825, -0.8107111, 0.6209473, -0.589665,
              -0.600883663, -0.568103, 0.7087404, 0.4606984, 0.695115745,
              -0.6916143, -0.5459996, 0.3108812, -0.194403678, 0.009217643
            ]
          ],
          [
            [
              0.036904633, 0.476122081, 0.6360569, 0.2649383, 0.4964916,
              0.332739174, 0.242391273, -0.238871947
            ],
            [
              -0.02687639, 0.6716977, -0.423181266, -0.530061662, 0.130601078,
              -0.498262644, -0.0100643681, 0.366674
            ],
            [
              -0.364746451, 0.175440773, 0.279135942, -0.465708256, 0.32887885,
              -0.348083556, -0.718645632, 0.154610813
            ]
          ]
        ],
        "fitness": 46.7731819
      }
    },
    {
      "LayerStructure": [8, 22, 8, 3],
      "FitnessConvergence": [
        6.106657, 6.43839836, 6.677657, 6.69904327, 6.87887669, 6.89201927,
        7.365161, 7.01559162, 6.83621168, 7.0613203, 6.9693923, 7.03269863,
        6.7614975, 7.177395, 7.347006, 6.888217, 7.16564655, 7.08288574,
        7.17862225, 7.197666, 7.199997, 7.077396, 7.11720562, 7.133901,
        6.999898, 6.931287, 7.38438368, 7.37928152, 7.27193928, 7.426882,
        7.308716, 7.387638, 7.333243, 7.29712248, 7.417512, 7.49961758,
        9.282989, 9.693634, 9.952217, 9.981585, 10.7181311, 11.8862333,
        11.91122, 17.7201042, 18.0378857, 18.141222, 18.12315, 18.0812531,
        18.1260643, 18.1319, 18.0891876, 18.2942028, 18.0837936, 18.5512314,
        18.6818848, 18.7021027, 19.0653267, 19.3686371, 18.7120857, 19.3891525,
        18.6936016, 18.6980782, 19.3980217, 18.6614876, 18.66216, 18.6949787,
        18.6765842, 18.9998512, 18.70736, 19.39078, 18.66895, 18.7118416,
        19.3899269, 18.7355824, 18.6947174, 18.6609631, 18.7053375, 18.6899834,
        19.3889561, 18.694561, 18.6639061, 18.8941536, 18.81566, 18.7541847,
        18.9532223, 19.2898579, 19.3840752, 19.024271, 19.4220772, 18.7348061,
        18.6789684, 19.0065613, 18.69005, 19.5860214, 19.3822975, 19.5664349,
        18.9397926, 19.2566814, 19.4353886, 18.6442013, 18.8415756, 18.6627274,
        19.4352875, 18.639534, 18.6390152, 19.5083141, 18.7347832, 19.5357628,
        19.5132732, 19.5066814, 19.3822689, 19.3671227, 18.7175522, 19.5245743,
        18.8567162, 19.272953, 19.4084167, 19.56699, 19.3817616, 18.1672878,
        19.54075, 19.5142517, 19.471365, 19.5842743, 19.552494, 18.6555634,
        18.6438389, 19.4251537, 18.0431366, 19.408453, 19.4975014, 19.428688,
        19.3803368, 19.5323887, 19.64987, 19.43444, 19.567049, 19.59992,
        19.4473858, 19.39357, 19.27709, 19.5670853, 19.542902, 19.5405426,
        19.4911366, 19.4102879, 19.4863911, 19.6253662, 19.6323986, 19.47224
      ],
      "fittestNetwork": {
        "layers": [8, 22, 8, 3],
        "biases": [
          [
            -0.2860161, 0.24489902, 0.101655781, 0.4854182, -0.208334148,
            0.3700739, 0.2334008, 0.0764583945
          ],
          [
            -0.05491942, 0.235160455, -0.404547334, 0.218708023, -0.481521964,
            0.4502945, -0.0202766061, -0.3761642, -0.3398013, -0.111811936,
            -0.204197824, 0.4498359, 0.150191054, -0.04281932, -0.3216189,
            0.23665534, -0.0760898, 0.120486319, -0.299895048, -0.132250249,
            -0.484529972, -0.383754849
          ],
          [
            -0.49018693, 0.0789803863, -0.36434567, 0.021936, -0.301144123,
            0.0700239539, -0.2716695, 0.09929961
          ],
          [-0.2884904, 0.490470767, -0.06396192]
        ],
        "weights": [
          [
            [
              -1.07097638, -0.356671661, 0.04565068, 0.10140866, -0.0594685674,
              -1.3154223, 0.9576093, -0.311574757
            ],
            [
              0.639544547, -0.361694276, -0.600816369, 1.11423123, 0.1714995,
              0.315750778, 0.07437998, 0.0421690457
            ],
            [
              -0.205189824, 0.07838714, 0.473150253, 0.0121477917, 0.457122266,
              -0.0108490232, -0.140188754, 0.09545791
            ],
            [
              -0.7728342, 0.258138478, 0.2628449, 1.1115278, -0.416885585,
              -0.5136877, -0.211489141, -0.491521329
            ],
            [
              -0.105425, -0.161010608, 0.07398492, -0.291791677, -0.097567,
              0.108796775, 0.00292319059, -0.302243531
            ],
            [
              0.2256378, -0.19782798, 0.195476845, 0.203252941, -0.4382623,
              0.173235521, 0.822163343, -0.167794526
            ],
            [
              0.170692384, 0.276159763, -0.6357016, -0.0112280846,
              -0.0162455961, -0.490115, -0.210943043, -0.160577953
            ],
            [
              -0.7441061, -0.513497531, 0.365975529, -0.388381451, 0.138061628,
              -0.080907084, 0.0268074274, 0.274125278
            ],
            [
              -0.07580116, -0.07852852, -0.5249141, 0.480916172, 0.20892182,
              -0.0158039331, 0.4610222, -0.0128617361
            ],
            [
              -0.718180239, -0.1946944, 0.217732161, -0.542282641, 1.00944328,
              -0.425205052, 0.10444589, -0.07998235
            ],
            [
              -0.479398876, 0.506220937, -0.627434254, 0.382911354, -0.08580595,
              0.656887054, -0.3155176, 0.194973677
            ],
            [
              -0.0190396179, 0.745223939, 0.204444036, 0.281393319, 0.5187182,
              0.4537223, -0.0681431442, 0.704289
            ],
            [
              0.0614942051, 0.5702508, 0.203788146, 0.5398099, 0.379529059,
              -0.0801853538, -0.45127058, 0.0260064
            ],
            [
              0.32444492, -0.190528572, 0.336026818, 0.3565173, -0.360334,
              0.429128, -0.461870372, 0.7142034
            ],
            [
              0.1420981, -0.46333313, 0.7240762, -0.190959632, -0.9651304,
              -0.109011143, 1.152881, -0.290540636
            ],
            [
              0.7269907, -0.209194228, 0.0237771869, -0.6166646, 0.241900638,
              0.08485997, -0.223385453, -0.114537656
            ],
            [
              0.5987122, -0.237776935, -0.26430732, 0.166176021, 0.1417132,
              0.283170372, 0.382293522, 0.5206322
            ],
            [
              -0.4536768, 0.491723657, 0.0125394864, -0.196692348, 0.0608641133,
              -0.0996018648, -0.181374311, -0.483293623
            ],
            [
              -0.486212432, 0.217807621, -0.07983264, 0.4739658, 0.6299357,
              0.0529105738, 0.0774518847, 0.589151859
            ],
            [
              0.1159402, -0.4346996, 0.284886658, -0.109627746, -0.06110519,
              -0.07786042, 0.08102173, -0.673102438
            ],
            [
              -0.255754441, -0.3554831, -0.232165933, 0.193651542, 0.0169373173,
              0.0421370231, 0.0842566043, 0.0239656214
            ],
            [
              0.22895661, 0.483192325, -0.484072149, 0.01344341, -0.0480444022,
              0.267663836, 0.6284656, -0.21909076
            ]
          ],
          [
            [
              -0.221526474, 0.341470748, -0.820856631, -0.301247, 0.00492786337,
              -0.0595802963, -0.4646992, 0.0852156058, -0.2309336, 0.278490931,
              -0.181693777, -0.352713823, -0.382494181, -0.274048835,
              0.04108607, 0.224063426, 0.6386413, 0.24194999, 0.2894379,
              0.390055478, -0.134120643, 0.00313747022
            ],
            [
              -0.3205453, -0.3748697, -0.0294064451, 0.108056061, 0.4324596,
              -0.170206651, -0.519081056, -0.174947441, 0.351266623,
              -0.144334465, 0.444223076, 0.446142882, 0.0844130144,
              0.0187578443, 0.0268278588, 0.2972263, -0.7114137, 0.0518960878,
              0.03902599, 0.4545502, 0.5659027, 0.3223342
            ],
            [
              -0.7203663, -0.552594066, -0.284105539, -0.161255658,
              0.0398747921, -0.266887248, 0.6445311, -0.181278884, 0.184740186,
              0.5541594, 0.028498888, 0.2333515, 0.6710991, -0.3902064,
              -0.03899598, 0.141636968, -0.695849836, -0.134420335,
              -0.111092828, 0.529844463, -0.199396968, 0.32638216
            ],
            [
              0.528387249, 0.261527, 0.453340232, 0.25355342, 0.408461571,
              -0.242917538, -0.202124462, -0.0424852446, 0.2323325,
              -0.482140124, -0.3330018, 0.500080943, 0.159374326, -0.5191578,
              0.7192655, -0.653850138, -0.350013077, -0.0339843743, 0.6902949,
              -0.18298997, 0.468173176, 0.0123323789
            ],
            [
              0.483029962, 0.621820569, -1.01967835, 0.009777591, -0.22375381,
              0.366024375, 0.3047179, -0.406690657, -0.703596652, -0.215752363,
              -0.211225986, 0.121538624, -0.4090646, -0.01011014, 0.558651745,
              0.3240161, 0.0169349015, 0.4527598, -0.0189623833, -0.373694718,
              -0.15021579, 0.523569047
            ],
            [
              0.10083288, -0.178058, 1.18052185, -0.0127373664, -0.784173131,
              0.227410257, -0.582438052, -0.9894199, 0.1742429, 0.441889644,
              -0.0603570044, 0.0120991468, 0.489819348, 0.4154883, 0.3985067,
              0.5456965, -0.7329766, 0.04736507, 0.02846784, 0.09931785,
              -0.2812888, 0.8643999
            ],
            [
              0.101624548, 0.0684061646, 0.271651745, 0.17861706, 0.267783731,
              -0.134618714, -0.220933974, 0.5284591, 0.239631116, 0.09521665,
              -0.141959369, 0.38070336, -0.5986678, -0.5250239, 0.0605803132,
              -0.336894929, -0.366221458, -0.35026893, 0.0205691457,
              -0.07854736, 0.04123209, 0.300554216
            ],
            [
              0.204656512, -0.6957354, 0.07918414, -0.147612035, -0.660786748,
              0.3582828, 0.229532287, 0.178686559, -0.6168195, 0.0137557387,
              0.2703985, 0.462216526, 0.340859771, -0.141461641, -0.346287221,
              -0.0627532154, -0.0595923066, 1.85943365, -0.14073205,
              0.322598368, -0.376196325, -0.559914052
            ]
          ],
          [
            [
              0.815755963, -0.412691444, 0.822119355, 0.444120675, 0.445541978,
              -0.4646029, 0.7335692, -0.4832012
            ],
            [
              0.6327175, -0.4823048, 0.0455742478, -0.6045381, 0.371146828,
              -0.5571534, -0.130319357, -0.008305435
            ],
            [
              -0.664630353, 0.3829993, 0.50960356, 0.638036251, -0.8849431,
              0.243206814, 0.417694539, 0.318077326
            ]
          ]
        ],
        "fitness": 19.64987
      }
    },
    {
      "LayerStructure": [8, 24, 8, 3],
      "FitnessConvergence": [
        6.584626, 6.64870167, 9.18786, 9.245807, 17.30886, 17.3559418, 17.37957,
        17.6185837, 18.9602261, 19.98564, 20.05751, 20.0594959, 20.059412,
        20.0593357, 20.0596161, 21.9993, 43.91802, 43.912262, 52.9154968,
        53.29681, 66.4784241, 66.6422958, 66.5646057, 66.6602249, 66.60786,
        66.651, 66.62412, 66.64646, 66.5271149, 66.62275, 66.51879, 66.66591,
        66.55267, 66.50055, 66.6443558, 66.66591, 66.65147, 66.52711, 66.65378,
        66.68519, 66.74501, 66.44527, 66.77938, 66.82765, 66.77765, 66.80365,
        66.82565, 66.81093, 66.79132, 66.8163147, 66.774025, 66.8069839,
        66.75928, 66.77481, 66.8001862, 66.80453, 66.80478, 66.80845, 66.81024,
        66.8222, 66.82379, 66.8187, 66.80525, 66.82726, 66.80479, 66.81773,
        66.81922, 195.464661, 199.5501, 200.5522, 203.148, 203.273453,
        204.67395, 204.932678, 205.030029, 205.127563, 208.244, 212.923676,
        214.910828, 218.852478, 217.985245, 218.977417, 221.75029, 220.926483,
        234.586487, 230.000626, 236.370163, 235.607712, 237.697372, 240.721817,
        247.1876, 246.615631, 245.4226, 245.859879, 247.379257, 243.882111,
        247.12384, 246.932846, 248.150879, 250.515, 253.024719, 251.3199,
        250.448318, 255.690918, 251.18515, 252.201645, 252.133453, 251.3199,
        250.115753, 251.997253, 252.886932, 253.9265, 254.838974, 253.370316,
        252.338211, 251.725586, 253.301071, 252.2699, 252.338211, 255.833817,
        252.406586, 253.024719, 251.590118, 252.133453, 253.578415, 253.9963,
        252.886932, 254.557068, 252.886932, 252.749374, 254.486755, 255.121918,
        252.201645, 253.093719, 252.886932, 253.301071, 253.162766, 253.578415,
        252.886932, 254.627457, 253.370316, 254.7684, 254.4165, 252.749374,
        253.301071, 252.406586, 256.120422, 253.439621, 254.346313, 254.980316
      ],
      "fittestNetwork": {
        "layers": [8, 24, 8, 3],
        "biases": [
          [
            0.321889758, 0.391811, 0.228057131, -0.2731241, -0.459393024,
            0.2861979, -0.202448428, -0.05522734
          ],
          [
            0.169500574, 0.417880058, -0.0410619378, -0.383188, -0.234270155,
            -0.466539621, 0.12804471, -0.484250069, 0.4202037, 0.4155432,
            0.00106936693, 0.0880329, -0.1367839, 0.0508798957, 0.1573522,
            -0.477916121, -0.421236753, 0.0276961923, 0.4900688, -0.189021528,
            0.01756972, 0.123869121, 0.182410225, -0.0120620131
          ],
          [
            0.196725711, 0.285070658, -0.175306737, -0.340204954, 0.441484451,
            0.483431339, -0.274867058, 0.185940132
          ],
          [0.2957033, 0.3539195, -0.0596017241]
        ],
        "weights": [
          [
            [
              -0.6236674, 0.743832469, -0.006147938, 0.287101269, 0.473921537,
              0.211818054, -0.206438243, 0.503800333
            ],
            [
              -0.7778, 0.00309099024, 0.6369236, 0.0334942676, 0.313219666,
              0.0220329519, 0.225689039, 0.6115376
            ],
            [
              -0.1739834, 0.1994138, 0.713233531, 0.4350537, 0.22275731,
              -0.24290511, 0.45290044, 0.12724103
            ],
            [
              -0.04119304, -0.4214094, -0.00230026245, 0.786257863, 0.2179093,
              0.00178539753, 0.5537682, -0.03372997
            ],
            [
              -0.09052137, 0.07018472, -0.317246884, 0.6750271, 0.624499261,
              -0.401742727, 0.7004064, -0.357997984
            ],
            [
              0.330504745, 0.04401064, 0.5503625, 1.310199, 0.4703789,
              -0.404850364, -0.855365157, 0.233204722
            ],
            [
              0.06909275, 0.07230621, 3.269718, 0.282243073, 0.5498267,
              -0.8096206, 0.439271063, -0.548271954
            ],
            [
              -0.406350523, 0.0151095362, -0.0301851984, 0.896313965,
              0.499245942, -0.4031796, 0.123346634, 0.160044715
            ],
            [
              -0.693771541, 0.136815965, 0.252419323, 0.600349, -0.0605575927,
              -0.6702952, -0.123949736, 0.766162932
            ],
            [
              -0.391619146, -0.06275601, -0.408797324, 0.220163286, 0.172490075,
              -0.235851541, -0.2516118, -0.11644727
            ],
            [
              -0.455896974, 0.9784714, -0.410769641, -0.8720518, -0.4082293,
              -0.187883, 0.677314937, -0.183164537
            ],
            [
              -0.112859845, 0.541968048, -0.145442769, 0.359478176, 1.13312,
              -0.5222959, -0.490536422, 0.302678943
            ],
            [
              -0.8798944, -0.3501645, 0.0531824119, 0.514206231, 0.217330858,
              -0.0127601661, 0.0424111672, -0.6343156
            ],
            [
              -0.726705134, -0.4410903, -0.4234767, -0.1402479, 0.272461057,
              0.49368006, -0.283022374, -0.237596661
            ],
            [
              -0.281726539, -0.07180196, 0.427578568, -1.01466954, -0.146427512,
              0.708929, 0.0407922156, 0.450646818
            ],
            [
              1.01044261, -0.4841971, 0.479217529, -0.02856607, -0.5200133,
              0.287480682, 0.002878496, -0.6993752
            ],
            [
              -0.685799062, -0.312726319, -0.8170508, 0.3596961, 0.189189225,
              -0.165618181, 0.0117791006, 0.293324083
            ],
            [
              0.5305489, -0.40948078, 0.0573731065, 0.6334633, 0.402547628,
              -0.347079843, -0.5616793, -0.208186761
            ],
            [
              -0.0240633488, 0.369226217, 0.223932236, -0.1686517, -0.34337613,
              1.3813132, -0.004506588, 0.190294623
            ],
            [
              0.212147623, -0.08840009, -0.055698555, -0.3047437, 0.3878562,
              -0.08107734, -0.138006628, 0.226991
            ],
            [
              0.177895948, 0.434692353, -0.9021801, 0.320014656, 0.744616,
              -0.8492713, 0.216334209, 0.7225699
            ],
            [
              -0.5420237, 0.09610282, -0.102425456, -0.399036467, -0.8112981,
              0.08672416, 0.304900765, -0.521429
            ],
            [
              0.6632367, -0.0481744446, -0.833672047, 0.452938, 0.7199326,
              -0.254566044, 0.347793818, -0.0687869862
            ],
            [
              1.0669986, 0.838870645, -0.455894828, -0.6503628, -0.9025116,
              -0.286216021, 0.6766153, -0.1809507
            ]
          ],
          [
            [
              -1.07536221, 0.116003916, -0.0207691472, 0.43392396, 0.0898175,
              0.100294337, 0.245924935, 0.7274538, 0.30955562, -0.4377603,
              -0.382882774, -0.8708054, -0.3364913, -0.16223526, -0.08234584,
              -0.537637949, 0.445383579, 0.10496521, -0.6978099, 0.522818446,
              0.332319736, 0.02457083, -0.184119016, -0.09738291
            ],
            [
              -0.0107470825, -0.9163238, 0.003082811, -0.4376937, -0.386815,
              0.077198565, -0.08665532, -0.404639482, 0.5740921, 0.287016779,
              -1.09811854, -0.0158333983, 0.02358584, 0.128536046, 0.01579244,
              0.05932236, -0.7846482, -0.336547077, -0.809095, -0.20548065,
              -0.166656554, 0.302543461, -0.9865507, 0.2189953
            ],
            [
              -1.842111, 0.9712119, 0.191806734, 0.392426074, -0.218188822,
              3.05107975, -0.0493676662, 0.450108528, 0.6995451, 0.450865865,
              0.008095213, -0.43437025, -0.570181131, -0.04418552, -0.343900174,
              0.6291465, 0.0945028, 0.161949068, 0.0922235, -0.05555616,
              -0.152958274, -1.08241832, -0.1768732, 0.310992658
            ],
            [
              0.6829496, 0.327851057, 0.316275984, -0.0422549248, 0.960059762,
              -0.714389443, 0.412235, 0.4931476, 0.6157293, 0.07291671,
              -0.101636849, -0.07333218, 0.2763334, 0.407073617, 0.0410687923,
              -0.03702497, -0.5099506, 0.0364626646, -0.6739796, 0.327601373,
              0.9429443, -0.143626511, 1.32054114, 0.342531174
            ],
            [
              -0.421079576, 0.48776257, 0.305272937, -0.132342011, 0.5607418,
              -0.2754749, 0.0386141427, 0.198139444, -0.23197861, -0.251705527,
              -0.184894949, 0.668856, -0.7018325, -0.116414368, -0.133139431,
              -0.0326367021, -0.6208665, -0.27587992, -0.08682507, 0.0124934651,
              0.245212778, -0.675255239, -0.5591851, -0.621315658
            ],
            [
              -0.2558185, 0.281723082, -0.0268577766, -0.4365226, 0.20100151,
              -0.0220600963, -0.08145747, -0.6369377, -0.02605875, -0.06065339,
              -0.18137759, 0.231403217, -0.0533269048, -0.264558971,
              0.242849737, -0.222211927, -0.194335341, -0.314576715,
              -0.217326224, 0.100489676, 0.3759086, -0.364752918, 0.377258241,
              -0.0531581342
            ],
            [
              0.5438407, 0.181685627, 0.2722485, 0.0161725525, 0.144548044,
              0.34097302, -0.1789275, -0.8422441, -0.0506460555, -0.05995518,
              0.00727659464, -0.1626043, -0.556578457, 0.470493019,
              -0.00780911371, -0.202828139, -0.167809725, 0.0921464562,
              -0.9737825, 0.2945157, -0.658608258, -0.417794019, -0.9462389,
              -0.354868978
            ],
            [
              -0.0266950969, 0.221184671, -0.4063402, 0.3357041, 0.2190057,
              0.0344244875, 0.6516764, 0.171210036, 0.584554136, -0.0745577142,
              -0.08629984, 0.13000083, 0.503072441, 0.0359282941, -0.231917724,
              -0.109412014, -0.335392475, -0.150727808, -0.12789166, 0.3923145,
              -0.191395149, -0.345970541, 0.561361, -0.5012303
            ]
          ],
          [
            [
              0.00934248, 0.720537, 0.5381946, -0.08051926, -0.595595658,
              -0.276427746, -0.2974486, 0.4263574
            ],
            [
              -0.103850916, -0.507726133, 0.6812193, -0.62854147, 0.447588384,
              -0.0576175638, -0.3469029, 0.298965037
            ],
            [
              -0.7269309, -0.546029866, -0.325276524, 0.349208832, -0.152228236,
              -0.054305125, -0.6775906, 0.212553442
            ]
          ]
        ],
        "fitness": 256.120422
      }
    },
    {
      "LayerStructure": [8, 26, 8, 3],
      "FitnessConvergence": [
        6.627345, 10.4942856, 20.0140476, 20.02713, 21.7933884, 21.9356537,
        21.9063988, 23.6164627, 43.770195, 43.89393, 48.2258377, 61.48139,
        62.9001, 62.8785133, 66.14162, 66.14283, 66.14168, 66.23472, 66.24697,
        66.63102, 66.792984, 66.7977448, 66.7726746, 66.8023453, 66.79828,
        66.83155, 66.8784943, 66.89299, 67.00768, 204.770813, 207.5242,
        211.258667, 212.140518, 212.140518, 212.177567, 213.56572, 216.727921,
        222.629669, 227.081436, 247.892776, 255.97699, 267.684937, 274.313171,
        279.472565, 279.7576, 284.846039, 288.8555, 288.64566, 287.189728,
        288.750519, 289.276581, 289.487854, 291.194946, 290.658173, 289.276581,
        292.2776, 290.337555, 291.302673, 289.593628, 290.551178, 290.4443,
        289.699554, 289.699554, 289.699554, 289.171143, 290.658173, 289.911743,
        290.4443, 289.593628, 289.065826, 290.230927, 289.593628, 290.4443,
        291.302673, 290.018036, 290.12442, 289.911743, 289.593628, 290.872528,
        289.382172, 289.593628, 290.337555, 289.487854, 289.382172, 290.230927,
        290.12442, 288.2274, 290.12442, 290.4443, 289.382172, 291.087341,
        290.337555, 290.337555, 289.487854, 289.276581, 290.018036, 290.551178,
        290.872528, 289.171143, 289.276581, 290.4443, 288.9606, 289.276581,
        290.018036, 289.487854, 288.8555, 290.018036, 290.12442, 289.593628,
        291.194946, 290.7653, 290.7653, 290.12442, 289.276581, 290.658173,
        289.911743, 290.018036, 290.230927, 290.12442, 294.2576, 295.262939,
        66.97332, 22.3545246, 284.946716, 296.278778, 283.745758, 281.003265,
        284.846039, 295.600372, 294.035583, 285.654541, 296.165375, 295.600372,
        285.047516, 287.810944, 285.959564, 295.038635, 285.350525, 284.64502,
        286.061462, 295.487762, 288.64566, 285.451752, 296.61972, 296.61972,
        207.456146, 48.81848, 294.035583, 7.63005638, 296.8477
      ],
      "fittestNetwork": {
        "layers": [8, 26, 8, 3],
        "biases": [
          [
            0.316009521, 0.0309148431, 0.4128363, 0.3046093, -0.347656131,
            -0.3620752, -0.233202159, -0.307440877
          ],
          [
            -0.268433332, 0.234818086, 0.0340290666, -0.293347716, 0.114159644,
            0.0120978951, -0.239895761, 0.0198199153, 0.492156863, -0.330521822,
            0.244987592, -0.258366585, -0.18416065, -0.2894696, 0.150299892,
            -0.137304485, 0.341285467, 0.203352556, 0.197142109, 0.116292655,
            -0.1630333, -0.382813454, 0.35774982, -0.109155238, 0.072883904,
            -0.382412553
          ],
          [
            0.469693422, 0.0513417125, -0.283586025, 0.121379673, -0.212081969,
            0.417201519, -0.125256836, 0.265709043
          ],
          [0.310788035, 0.235493764, -0.0509931445]
        ],
        "weights": [
          [
            [
              0.4375797, -0.196869671, -0.2926907, -0.10586518, -0.08870262,
              -0.277435839, 0.479757667, -0.693877757
            ],
            [
              -0.1614725, -0.441786, 0.198961109, -0.127235949, -0.6489437,
              0.07531322, -0.3980908, -0.056812983
            ],
            [
              0.168644011, -0.275147378, 0.6814971, 0.327961534, -0.141196728,
              0.134390414, 0.2865244, -0.5959999
            ],
            [
              0.244209349, 0.0644398555, -0.230696142, -0.1810885, 0.09636438,
              0.0454973578, -0.133441627, -0.195074216
            ],
            [
              -0.130158171, -0.516489744, -0.3718369, -0.07977585, -0.210321963,
              0.364661574, 0.6547834, -0.251537383
            ],
            [
              -0.07193875, -0.4372893, -0.648680747, -0.963215649,
              -0.0339122824, 0.683954656, 0.4538972, -0.0433442555
            ],
            [
              0.3763704, 0.5468002, 0.233610526, 0.63380444, 0.8014352, 0.98458,
              0.6689361, -0.5155154
            ],
            [
              -0.183888614, -0.369109571, 0.22137697, 0.64777714, -0.206442147,
              -0.381308526, -0.0121805072, -0.340555549
            ],
            [
              -0.3672682, 0.725395262, 0.1779521, 0.255560249, 0.627596259,
              0.5103577, 0.483497858, 0.190167457
            ],
            [
              -0.2894165, -0.6095658, -2.90941477, -0.0205788016, 0.16821374,
              -0.114293881, 0.585065663, 0.15326032
            ],
            [
              0.268697858, 0.0471734069, 0.00725341029, -0.148044735,
              -0.177625641, -0.5952827, -0.8285214, -0.08493838
            ],
            [
              0.209448829, 0.220848545, 0.8882453, 0.410051048, -0.007604846,
              0.008990407, -0.0840857252, -0.8712503
            ],
            [
              -0.4083665, 0.0742129, -0.468873382, 0.0309843346, 0.195668072,
              -0.490767866, 0.435099959, 0.07878456
            ],
            [
              0.5864442, 0.149238974, -0.142841756, 0.233704358, -0.08683491,
              0.0189902037, -0.4051494, 0.6286462
            ],
            [
              -0.209028572, 0.230778545, 0.6453485, 0.6136924, 0.260403,
              0.006704918, -0.30528307, -0.0267116558
            ],
            [
              0.527344048, -0.515819848, 0.318105429, 0.3627699, 0.6471657,
              -0.425238371, 0.3899858, 0.0223134533
            ],
            [
              -0.199914336, 0.3414351, -0.358115852, 0.14412111, -0.639228642,
              0.0435483381, 0.583475649, 0.144864008
            ],
            [
              0.698376954, 0.9653575, -0.588059247, -0.85992384, -0.495083421,
              -0.159552932, 0.299827, 0.409524739
            ],
            [
              -9.89148757e-5, -0.154549733, -0.483428, 0.444276452, 0.8259608,
              0.6709974, 0.104076862, -0.102348089
            ],
            [
              -0.303768933, -0.107377768, 0.00510009937, -0.009428233,
              -0.229750156, 0.589051545, -0.3314421, 0.735712
            ],
            [
              0.477265179, 0.141856015, 1.30001485, -0.4191472, 0.09569526,
              0.203323036, -0.194768131, -0.125003368
            ],
            [
              0.650018036, -0.550744, 0.0864835, -0.198597342, -0.0799194649,
              0.161024809, -0.464693934, -0.286446482
            ],
            [
              -1.21378541, 0.107392907, -0.108071163, -0.493085474, 0.271653771,
              -0.2586671, -0.07925397, -0.2904949
            ],
            [
              0.7065117, -0.142771021, 0.1373606, -0.59693265, 0.125501692,
              -0.375683337, -0.7534707, 0.5926547
            ],
            [
              0.141086, -0.132288679, -0.570194662, 0.170813143, 0.218347654,
              0.108880132, 0.5266735, -0.233250022
            ],
            [
              -0.563136756, 1.0653646, 0.486229479, -0.3031131, -0.4328192,
              -0.177259952, -0.245335385, 0.335053444
            ]
          ],
          [
            [
              0.209033445, -0.273794979, -0.2971659, 0.379003435, 0.5811778,
              -0.15382573, 0.0485059023, -0.0449839756, -0.00535303354,
              -0.141331419, -0.5003353, -0.709059358, 0.2541287, -0.00241957558,
              -0.157114789, 0.180351824, -0.062330015, -0.131246135,
              0.162023142, 0.678288639, 0.3522709, 0.128682867, -0.112799168,
              0.3966872, -1.12732017, -0.175444841
            ],
            [
              0.175552472, 0.6878118, 0.234102666, -0.639736831, 0.0013957367,
              -0.357329547, -0.121273577, 0.3320434, 0.5813699, -0.5665147,
              0.376379967, -0.452610165, 0.02143167, 0.421462834, 0.102189377,
              -0.3197897, 0.0988909453, -2.21686673, 0.0489514619, -0.0660765,
              -0.119214833, 0.611443, -0.164782718, -0.447222561, 0.5117848,
              -0.008701289
            ],
            [
              -0.200994819, 0.3930527, -0.277546674, -0.321753174, -0.238376319,
              0.3380469, 0.700984, 0.1301596, 0.6596429, -0.124155626,
              0.0333725773, -0.689171433, -0.7237743, -0.344895273,
              -0.304514736, -0.07430267, 0.11603874, 0.424753278, -0.362472057,
              -0.284470648, 0.120892383, -1.32124543, 0.7232642, -0.434098,
              0.334316254, -0.247751415
            ],
            [
              0.468889058, 0.08450115, 0.670656264, 0.8048124, -0.2676221,
              -0.70561403, -0.279822022, -0.638057947, 0.5197535, -2.03292084,
              -0.287185848, 1.006761, 0.111427046, -1.52144372, -0.159455776,
              -0.122057855, -0.158328861, 0.8223046, 0.3923701, -0.126447678,
              -0.716835, -0.417317271, -1.20645225, -0.1483382, 0.3766259,
              0.2191491
            ],
            [
              -0.136816964, -0.609033167, -0.538973, -0.111547589, 0.06459755,
              -0.0277014375, 0.0994848, -0.411542952, -0.002892077, 0.9880875,
              -0.138384044, 0.0816714, 0.5809265, 0.0735423937, -0.145956665,
              -0.109539732, 0.139087871, -0.210909009, -0.00499859, 0.393919945,
              -0.09020382, 0.2927718, 0.91200006, -0.660944, 0.08486909,
              0.136142462
            ],
            [
              0.3452636, 0.666846, 0.247666821, -0.512266457, -0.146087468,
              1.008735, 0.309152663, -0.353730619, -0.0603954569, 0.665844262,
              -0.053188514, 0.4809929, -0.08434611, -0.0894450247, -0.282240242,
              -0.155702055, -0.3709694, 0.461828649, -0.237882808,
              0.00129404955, -0.209328, 0.129502982, -0.8628993, 0.0688311756,
              0.680529654, 0.339134872
            ],
            [
              0.138073564, 0.02275738, 0.06473997, 0.01023098, -0.184868947,
              -1.21369374, 0.668248832, -0.22467047, -0.5054982, 0.1548649,
              -0.08914894, 0.405978739, -0.09180224, -0.388694376, -0.338484943,
              -0.0385600962, -0.04150015, -0.6171163, -0.497905433, 0.08971548,
              0.46603924, 0.256053925, -0.177750453, -0.471271873, 0.0426167846,
              -0.226929754
            ],
            [
              0.0729109049, -0.06375828, 0.04473485, 0.476674616, -0.02005843,
              -0.09251145, -0.3075719, 0.00135916332, 0.122255817, -0.416337937,
              -0.6901557, -0.0206027627, -0.429793715, -0.08025484, 0.335351735,
              -0.407227576, 0.5708772, 0.0284250975, -1.20073712, 0.09378252,
              -0.625297248, -0.313307762, 0.306670129, 0.129150257, 0.349432915,
              -0.15893665
            ]
          ],
          [
            [
              0.20081684, 0.4712578, 0.5263608, 0.100660026, 0.406843781,
              -0.09695911, 0.3646857, -0.06953627
            ],
            [
              0.817812264, 0.452277, -0.3389601, -0.8328137, -0.21882695,
              0.1908268, -0.09793552, -0.6738017
            ],
            [
              0.253445745, -0.0674976259, 0.466093779, 0.327129662,
              -0.203574777, 0.0235648751, 0.180769086, -0.225921929
            ]
          ]
        ],
        "fitness": 296.8477
      }
    },
    {
      "LayerStructure": [8, 28, 8, 3],
      "FitnessConvergence": [
        5.061096, 6.424856, 6.736165, 7.862246, 9.62578, 18.0049667, 18.1138515,
        18.0609474, 18.1249256, 18.1089878, 18.0931931, 18.0983543, 18.1026344,
        19.20433, 17.8494339, 19.22893, 19.3791924, 19.4199085, 19.44533,
        18.7579937, 17.85183, 19.3996658, 19.396574, 20.4928513, 20.476532,
        20.1730251, 20.0346718, 20.4800186, 19.273037, 20.289135, 20.482708,
        20.1486111, 20.5006542, 20.38678, 20.5008335, 20.484024, 20.4078255,
        20.472599, 20.5005951, 19.5981979, 20.3970013, 20.1396828, 20.5736389,
        44.7816, 40.28329, 20.12881, 20.1825447, 20.0980549, 24.8509178,
        19.3499088, 18.6229877, 77.10253, 40.96937, 77.004715, 44.4124641,
        40.7507362, 40.7596245, 40.51748, 40.7097473, 23.7645741, 40.80269,
        40.5495644, 82.75088, 77.93971, 21.9455242, 22.0545177, 40.4727631,
        40.43136, 40.674408, 40.785408, 40.3379021, 40.55183, 43.79819,
        64.6422958, 77.026474, 59.35669, 77.0134354, 42.4328079, 40.3638649,
        40.58131, 40.5407372, 64.6532745, 64.8415146, 64.66763, 73.0523453,
        40.9561348, 73.05891, 64.75008, 40.6023865, 40.6953468, 40.3743629,
        19.21007, 40.4086723, 22.0519371, 40.81265, 77.86144, 76.98625,
        40.5521736, 42.37125, 40.62554, 21.9045868, 40.4016953, 40.4034538,
        40.7157974, 40.681076, 28.6378441, 44.299202, 23.9120064, 40.395916,
        40.2445869, 40.572197, 40.3572, 40.4049377, 84.4132156, 40.3542328,
        23.8268967, 44.118, 40.53781, 40.2824173, 78.11499, 64.73256, 40.72452,
        44.14494, 77.8854752, 45.38461, 52.459, 41.09209, 44.5759048, 40.54806,
        42.9513168, 40.62682, 40.3445778, 64.66238, 77.91174, 64.7042847,
        40.5950737, 47.7661667, 64.72452, 52.8173256, 76.98529, 64.66829,
        40.4285622, 77.87677, 45.4843521, 44.7082939, 40.6300659, 42.7071152,
        40.5939178, 40.96541, 22.2957077
      ],
      "fittestNetwork": {
        "layers": [8, 28, 8, 3],
        "biases": [
          [
            0.372400165, -0.396102667, 0.366134167, -0.0349549651, -0.266508579,
            -0.3138535, 0.424646139, 0.133012161
          ],
          [
            0.1255065, 0.3508855, -0.352115035, -0.0365242362, -0.130738676,
            -0.281101346, 0.235909924, 0.0169096589, -0.153089464, 0.0245630145,
            0.4105587, 0.0309224725, 0.2072178, -0.3057903, 0.2945199,
            0.394639254, -0.213928878, 0.335373878, -0.295382977, -0.1210534,
            -0.09730476, -0.446849, -0.1424784, -0.117255509, -0.182348788,
            -0.14278084, -0.292969, -0.4187343
          ],
          [
            -0.250394, 0.0420410037, -0.225802481, 0.148936376, 0.111537158,
            0.411602974, 0.1517422, -0.3988557
          ],
          [-0.421560645, 0.24619244, 0.07460338]
        ],
        "weights": [
          [
            [
              0.342127264, -0.166517645, 0.210931167, -0.0323651433, -0.4305632,
              -0.113814719, -0.09719822, -0.2346062
            ],
            [
              0.07513787, -0.036247313, -0.246025577, 0.427305639, -0.476722538,
              0.2654608, -1.52102315, -0.106885806
            ],
            [
              -0.533477, 0.527980149, -0.367634237, 0.718855143, 0.5890601,
              -0.6924344, 0.4594156, -0.0657753348
            ],
            [
              -0.267233, 0.892013133, -0.6076913, -0.308220476, 0.4398624,
              -0.7057938, -0.4559316, -0.305759579
            ],
            [
              -1.04152, -1.29802966, 0.361557335, 0.6145982, -0.276683152,
              -0.0123440623, 0.239405259, -0.153838873
            ],
            [
              0.5054789, 0.6552799, 0.472421885, 0.5428489, -0.5747905,
              0.0453573465, 0.06613344, 0.0304756165
            ],
            [
              -0.44382304, 0.373652935, 0.921293855, -0.07955192, 0.315938383,
              0.264204741, -0.5839122, 1.15945876
            ],
            [
              -0.5617995, -0.374874651, -0.152610585, 0.7362593, 0.1193345,
              -0.9637931, 0.6656553, 0.6498334
            ],
            [
              -0.4609248, -0.3627357, 0.574205, -0.0369494557, 0.1445015,
              -0.08230555, 0.0728637, 0.731973231
            ],
            [
              -0.2579883, 0.2451045, -0.4149048, 0.461711347, 0.398078233,
              -0.2079485, -0.118267477, 0.330751121
            ],
            [
              0.00374047738, 0.5283299, -0.5032101, -0.1573748, -0.009969251,
              -0.523709834, -0.08609603, -0.5369422
            ],
            [
              -0.2028715, 0.254936546, 0.411322176, -0.09368167, -0.116963923,
              -0.30483073, -0.27990678, 0.5353852
            ],
            [
              -0.6869805, 0.347287565, 0.468354344, 0.162421525, 0.126327515,
              -0.225907981, 0.185980886, 0.492855
            ],
            [
              0.7009571, -0.84901917, 0.011593461, 0.4677263, 0.2723117,
              0.413883, 0.599155, -0.3660383
            ],
            [
              -0.138666928, 0.391065657, 0.080493845, -0.100209177, 0.232774466,
              0.52500385, 0.617382467, 0.0632400662
            ],
            [
              0.102832049, 0.181060016, 0.4100688, 0.138478339, -0.0609256029,
              0.3859716, 0.507968068, -0.110053778
            ],
            [
              0.270924747, -0.298395157, 0.167818889, 0.3430864, -0.252030134,
              0.23444128, 0.289077431, -0.0340650678
            ],
            [
              -0.05317099, 0.0225999672, 0.610465944, 0.6459475, -0.2794479,
              -0.57008183, -0.5154885, 0.03569707
            ],
            [
              -0.4219466, 0.6571956, -0.202133536, -0.0579939969, 0.43247357,
              -0.0106274989, -0.120909095, -0.19938153
            ],
            [
              0.391191244, -0.223408476, -0.07905206, 0.396493673, -0.6184172,
              -0.373893678, 0.6211674, 0.537233531
            ],
            [
              0.4057259, 0.263192952, -0.05319377, 0.338923246, 0.3628565,
              -0.5383081, 0.5904746, 0.2613895
            ],
            [
              -0.114801407, 0.210479617, -0.07739174, -0.3890509, -0.6710819,
              0.2954902, 0.07764143, 0.573564231
            ],
            [
              -0.251005232, -0.177852079, -0.334480882, 1.11353385, 0.08188361,
              -0.217370033, -0.1354323, 1.30552042
            ],
            [
              -0.09717915, 0.246719763, -0.7897813, -0.408594847, 0.3212941,
              -0.347888, 0.4077984, 0.493979633
            ],
            [
              -0.9369871, -0.4474396, -0.008950174, 0.104808636, 0.306301057,
              0.104411438, 0.5652904, 0.317920148
            ],
            [
              -0.247160971, 0.07550062, -0.161446035, 0.136268646, -0.08733333,
              -0.331317335, -0.05687517, 0.592135966
            ],
            [
              -0.1279195, 0.223201156, -0.03651352, 0.0969393253, -0.943425357,
              -0.378678381, -0.0415285826, 0.06918079
            ],
            [
              -0.05785197, 0.573456943, -0.599115551, -0.7223677, -0.5409128,
              0.104358107, 0.195026666, -0.07364839
            ]
          ],
          [
            [
              0.6616554, -0.491493165, -0.268890679, -0.253708124, 0.457071066,
              0.395314038, 0.453220963, -0.324875057, 0.2656111, 0.0237833858,
              0.09599304, -0.5521313, -0.164672971, -0.07532978, -0.5949978,
              -0.298303068, -0.474387348, 0.166895092, -0.07145804, 1.02940238,
              0.1344406, 0.062063098, -0.0485759974, 0.1013763, 0.191276044,
              0.489884079, -0.164155066, 0.731970131
            ],
            [
              0.216937512, 0.156368315, 0.09557432, -0.250915766, -0.365364254,
              -0.307139337, -0.249345481, 0.634583056, 0.603609, 0.22900188,
              -0.135544121, 0.1835621, -0.3805639, 0.2986044, 0.669499457,
              -0.0923019648, 0.175777778, 0.000247299671, 1.19451225,
              -0.0216795132, -0.3307359, 0.193268657, 0.284376979, -0.09252155,
              -0.0243866928, 0.234833, -0.212661386, -0.4505729
            ],
            [
              0.480349481, 0.178704381, -0.257001758, -0.0765456, -0.0154179446,
              -0.0187808275, -0.656879, 0.5978809, -0.6810555, -0.07467219,
              0.07519118, 0.273332059, 0.305446535, -0.0300148129, 0.438279748,
              0.195072472, -0.01059295, -0.0973995849, 0.6209107, 0.6188465,
              0.742829144, 0.681911767, 0.191093162, -0.04930803, -0.19867754,
              -0.00164532452, 0.4674845, -0.254691541
            ],
            [
              -0.283359021, -0.009459546, 0.366740048, 0.0645172, 0.534936965,
              -0.5577681, 0.498858243, -0.0835898146, -0.424909979, -0.07065958,
              0.33174625, 0.322059363, -0.00338556874, 0.07677906, -0.15236333,
              -0.0599711426, 0.207224876, 0.109677374, -0.6704559, 1.04549062,
              0.133874312, 0.4220267, 0.467257529, -0.197074831, 0.6604313,
              -0.244906589, 0.189502209, -0.732970655
            ],
            [
              -0.09844378, 0.661271751, -0.174405754, 0.026501, -0.266602218,
              0.0130278468, -0.603636563, 0.236822471, 0.00633436441,
              0.240984365, 0.00185420469, 0.261786222, 0.444448948,
              0.0927014947, 0.424861968, -0.804469645, -0.295381129,
              0.370678544, -0.296188623, 0.6220132, -0.150470734, 0.6620837,
              -0.424311, 0.09229988, 0.415768266, -0.207832813, 0.2934388,
              0.112275839
            ],
            [
              0.6446808, -0.057360176, 0.09559904, -0.336555749, -0.0290135741,
              0.5442489, 0.3402872, -0.3945537, 0.08006555, -0.290461332,
              -0.104163885, -0.223412856, 0.2151865, 0.423371255, 0.2593177,
              0.278327376, 0.126246333, 0.7167154, 0.447791457, 0.05334276,
              -0.3168164, 0.0432325, 0.042561695, -0.751160145, -0.07057321,
              -0.51713717, -0.0608244725, -0.146042943
            ],
            [
              0.215651542, -0.449458063, 0.641053259, -0.0950853154,
              -0.309995651, -0.145226091, 0.541891158, 0.0101771951, -0.6188032,
              0.5262694, 0.5952572, 0.468785942, -0.1292478, -0.417886883,
              0.5875049, 0.300384343, -0.6869312, 0.420459181, -0.200146139,
              -1.02086, -0.025241375, 0.7046241, 0.6153057, -0.49565348,
              0.0539551377, 0.4904074, 0.241813451, 0.0542782545
            ],
            [
              0.07185739, 0.312479764, 0.714852631, 0.151952982, -0.07231289,
              -0.04910034, 0.03606379, -0.409741133, 0.399621964, 0.9990295,
              -0.00137937069, 1.151857, -0.182056129, 0.06616622, 0.119204678,
              -0.681270957, 0.283892453, 0.7236422, 0.378734171, -0.669805467,
              0.02403009, 0.2460538, -0.09311968, 0.0766634345, -0.3701304,
              0.6794513, 0.543658555, 0.6236354
            ]
          ],
          [
            [
              0.7099952, 0.199048609, 1.1960063, 0.229120344, -0.0165488124,
              -0.6142731, -0.499264061, -0.237869561
            ],
            [
              0.5974701, 0.2084705, 0.0122428592, 0.101617873, -0.46489802,
              -0.09495747, -0.6044685, 0.174628913
            ],
            [
              0.119431674, -0.672196567, -0.472157121, 0.0586545058,
              -0.491599143, -0.4973739, -0.04589842, 0.429624
            ]
          ]
        ],
        "fitness": 84.4132156
      }
    }
  ]
}
