{
  "_info": "A total of 9 cycles, each trained for 120 epochs, with a total of 35 agents.",
  "_additionalNotes": "Non greedy, no speed information",
  "Evaluations": [
    {
      "LayerStructure": [7, 10, 3],
      "FitnessConvergence": [
        1.760906, 2.960527, 4.04908657, 4.05603647, 4.07652855, 4.08313847,
        4.07081842, 3.86394262, 4.024887, 9.059847, 17.0996361, 17.1236153,
        17.2680016, 17.4392872, 17.5348282, 17.6179466, 17.86428, 17.9666634,
        18.2693062, 18.3065834, 18.56451, 18.5705833, 18.64177, 18.6622086,
        18.7599239, 19.0056858, 19.0709839, 19.0733852, 19.279665, 19.2948112,
        19.2778816, 24.7648182, 24.8203583, 25.0912552, 25.0919571, 25.0955276,
        25.09727, 25.0948963, 25.0954857, 25.1335564, 25.1443977, 25.1722927,
        25.1681328, 25.1734371, 25.1727524, 25.1678162, 25.1773834, 25.17439,
        25.2204952, 25.175148, 25.2215385, 25.2255669, 25.2438011, 25.2438774,
        25.2452621, 25.24554, 25.2454338, 25.24162, 25.24221, 25.2415543,
        25.2454586, 25.25497, 25.2550068, 25.2552929, 25.2577553, 25.261385,
        25.2634525, 25.2597866, 25.261837, 25.258482, 25.26155, 25.261467,
        25.25618, 25.2564259, 25.25925, 25.26145, 25.2589226, 25.26014,
        25.2623615, 25.2619438, 25.2515373, 25.2542725, 25.2591915, 25.2609482,
        25.2622547, 25.26074, 25.26092, 25.26154, 25.2577553, 25.2609673,
        25.26039, 25.2608185, 25.2616234, 25.2614613, 25.2617664, 25.2615814,
        25.2631016, 25.258297, 25.2576046, 25.2610321, 25.2615089, 25.2655144,
        25.2710762, 25.26691, 25.266367, 25.1685677, 25.2662888, 25.2656631,
        25.266964, 25.26663, 25.2554474, 25.264513, 25.26766, 25.2658844,
        25.2660027, 25.2124958, 25.2693768, 25.266367, 25.2559128, 25.2680664
      ],
      "fittestNetwork": {
        "layers": [7, 10, 3],
        "biases": [
          [0.0, 0.0, 0.0, 0.0, 0.0, 0.0, 0.0],
          [0.0, 0.0, 0.0, 0.0, 0.0, 0.0, 0.0, 0.0, 0.0, 0.0],
          [0.0, 0.0, 0.0]
        ],
        "weights": [
          [
            [
              -0.110983908, 0.116019, 0.6985376, -0.265485555, 0.738007545,
              0.6066832, -0.3169432
            ],
            [
              -0.2769502, 0.307638049, -0.113440879, 0.587429464, 0.196064353,
              -0.629111946, 0.591261864
            ],
            [
              0.97184366, -0.07916168, -0.0523301363, -0.00344640017, 0.5400563,
              -0.133419558, -0.808210731
            ],
            [
              -0.483975142, -0.5336311, -0.08216621, -0.0420877337, 0.3100086,
              0.711949348, 0.413746655
            ],
            [
              -0.593459249, -0.5345905, -0.02574867, 0.581602931, 0.4192977,
              -0.6806228, 0.4801224
            ],
            [
              -0.108364619, -0.497144461, 0.134422958, 0.6444219, -0.03347969,
              -0.5690805, 0.704489946
            ],
            [
              0.4367324, -0.234743387, -0.618519545, -0.0561217666,
              -0.0395984054, 0.007871109, -0.1821028
            ],
            [
              -0.721341968, 0.166172743, 0.0300887823, -0.0043656826,
              -0.478816926, -0.759951353, -0.6366502
            ],
            [
              -0.149707824, 0.6175188, -0.371817023, -0.6969753, 0.6726059,
              0.686452866, 0.230382264
            ],
            [
              -0.290034175, -0.696759462, -0.484387636, -0.2055342, 0.324610353,
              0.492733, 0.107803285
            ]
          ],
          [
            [
              0.194230959, 0.3212291, -0.0208054185, 0.380871177, 0.200331435,
              -0.113921054, 0.0472105145, 0.6249157, 0.154646, -0.7180722
            ],
            [
              0.7214112, 0.43472743, -0.49910596, -0.46410653, 1.4282012,
              0.00669032242, 0.5197968, -0.3906275, -1.05162489, 0.381768823
            ],
            [
              -0.17431204, 0.112508714, 0.120392561, -0.2325843, -0.205710441,
              -0.488012, -0.06398579, -0.000901520252, -0.30110693, -0.132683933
            ]
          ]
        ],
        "fitness": 25.2710762
      }
    },
    {
      "LayerStructure": [7, 12, 3],
      "FitnessConvergence": [
        17.2434216, 4.82321358, 16.5016, 16.6521549, 16.5930157, 16.6024513,
        13.5052567, 4.962802, 16.700489, 13.0469141, 16.6108189, 4.848361,
        16.3612785, 16.7311611, 4.98605967, 12.68484, 16.82899, 11.7500544,
        16.7949448, 16.146862, 16.5400867, 4.95453453, 16.8140774, 16.4612885,
        5.011588, 16.814291, 16.7111874, 17.0459328, 17.18654, 16.70624,
        13.1736221, 16.8108158, 16.779232, 5.4600296, 16.5143967, 16.7039814,
        4.95529175, 16.678196, 16.6684933, 9.915042, 16.8447018, 16.8984528,
        4.807955, 16.82337, 16.954916, 16.6801987, 16.94436, 16.7212181,
        5.533594, 4.810005, 16.9229279, 6.04095459, 5.519265, 16.6013775,
        4.89901924, 16.0933971, 16.4407, 17.2288723, 16.5226765, 4.93929958,
        16.6837578, 7.902378, 17.2552223, 17.4874783, 17.6253014, 17.6225128,
        17.60835, 17.5988617, 17.612278, 17.6246166, 17.5846157, 17.52094,
        17.5890388, 17.5928173, 17.5989513, 17.689764, 17.6327477, 17.60317,
        17.61018, 17.5672112, 17.5928478, 17.6097927, 17.5859623, 17.58541,
        17.59804, 17.5692329, 17.5798111, 17.5832386, 17.585516, 17.606926,
        17.6079273, 17.6087437, 17.588913, 17.7771988, 17.8187485, 17.8486347,
        17.9816666, 17.97291, 17.9798546, 18.2400761, 18.2625046, 18.972868,
        18.95411, 19.0201035, 19.0698929, 19.08558, 19.1350517, 19.301075,
        19.1885, 19.3184681, 19.3036728, 19.2871628, 19.3117733, 21.1763859,
        20.9243126, 22.7911777, 22.9931774, 23.00644, 22.9982376, 23.2891865
      ],
      "fittestNetwork": {
        "layers": [7, 12, 3],
        "biases": [
          [
            -0.143484533, -0.3717264, -0.3117684, -0.231591642, -0.07510179,
            0.0798640847, 0.00676971674
          ],
          [
            -0.275216579, -0.171419919, -0.28961122, -0.337654829, 0.262411,
            0.202854738, -0.09717327, -0.115933836, 0.473945141, 0.325204253,
            0.2685691, -0.3159243
          ],
          [0.402139783, -0.207267344, 0.0777027]
        ],
        "weights": [
          [
            [
              0.667208552, 0.346086621, 0.325728059, -0.234277725, -0.390231371,
              0.130210608, 0.0158026218
            ],
            [
              -0.290739626, -0.686393857, 0.4898995, 0.0130769294, 0.172009215,
              -0.459680557, -0.588843346
            ],
            [
              0.520302534, -0.6328912, 0.647038, 0.161540389, 0.1603455,
              0.457009852, -0.7292646
            ],
            [
              0.152487621, -0.06638341, 0.231343389, -0.3093092, -0.226244166,
              -0.7033063, -0.3238537
            ],
            [
              -0.04909147, 0.9502362, -0.175181344, 0.513209343, -0.492835641,
              -0.18622, 0.4368878
            ],
            [
              0.177451089, 0.06121615, -0.135135114, 0.0343385525, 0.0547377877,
              -0.428937376, -0.136895418
            ],
            [
              -0.08220905, -0.353117317, 0.435547352, 0.6486565, -0.477041841,
              -0.611503, -0.536361933
            ],
            [
              -0.06809976, -0.718509555, -0.08508688, 0.3572776, 0.6230794,
              0.04395412, -0.3727781
            ],
            [
              -0.262295485, -0.6741102, 0.12623547, -0.07907158, -0.0281983018,
              0.09783119, -0.1577236
            ],
            [
              -1.34421265, -0.258792281, 0.4638703, 0.497967124, -0.05935686,
              1.13139582, -0.303416282
            ],
            [
              0.359081864, 0.000174962523, 0.7693304, 0.3335021, -0.5761974,
              -0.70336163, 0.311942577
            ],
            [
              0.3396879, 0.539628565, 0.353666723, -0.490281552, 0.2761453,
              0.0290148072, -0.007700622
            ]
          ],
          [
            [
              -0.6078372, 0.7728443, -0.07950997, 0.135360777, -0.43799147,
              0.149918422, 0.3908039, 0.32806167, 0.219996274, 1.22445011,
              0.1799299, 0.296705246
            ],
            [
              0.05214063, -0.4123758, 0.633509934, -0.608997345, -1.34354246,
              -0.08047384, -0.09254199, -0.4655074, 0.362708539, 0.6073402,
              0.751477361, -0.406043768
            ],
            [
              -0.752584934, -0.3693713, 0.1160081, 0.5183822, -0.5984316,
              0.470429569, -0.322508931, -0.249972224, 0.6172962, 0.481807947,
              0.168759048, -0.053325817
            ]
          ]
        ],
        "fitness": 23.2891865
      }
    },
    {
      "LayerStructure": [7, 14, 3],
      "FitnessConvergence": [
        6.05592728, 7.101786, 7.568508, 9.523267, 16.07825, 16.4005051, 16.7417,
        17.4314728, 16.4502144, 16.4205723, 16.6361389, 16.0936241, 16.75443,
        17.363203, 16.58215, 17.0529, 17.62932, 19.77486, 19.8989086,
        19.8273182, 19.9170055, 19.9419918, 19.94577, 19.9447212, 22.7911053,
        23.7600327, 42.29635, 42.55335, 42.51408, 42.4288445, 46.0036278,
        46.3971367, 45.94462, 24.2855968, 46.4480743, 46.40345, 46.378212,
        46.3162842, 43.8463669, 43.9059143, 43.94814, 44.2487068, 44.1383,
        46.420723, 43.80734, 46.3838348, 43.6247063, 42.2024727, 43.85024,
        43.8487473, 46.418457, 46.4676781, 45.9563026, 46.5006065, 46.380764,
        44.3927, 46.497963, 46.0923424, 46.497654, 44.2233734, 44.0908546,
        46.495533, 46.5093, 44.2380142, 43.85168, 45.7149048, 43.6944847,
        43.7664871, 46.14082, 43.8108444, 43.78467, 46.1438522, 46.247776,
        45.7442474, 45.92832, 46.16871, 44.1336555, 46.56975, 43.8128548,
        43.9031067, 43.5269432, 24.2192688, 46.58595, 46.57042, 46.38909,
        42.3996849, 44.4851761, 45.9748459, 44.3765335, 45.85811, 46.11985,
        45.71638, 46.0637627, 46.5785751, 46.16783, 46.4447556, 47.52958,
        47.5255432, 47.48833, 42.179287, 23.7313633, 42.40474, 47.5070534,
        42.4054337, 43.2017632, 43.9663124, 43.84259, 47.4848328, 47.506237,
        43.572998, 43.61444, 47.48872, 47.4601021, 42.2462, 47.4292641,
        47.5384827, 47.5335846, 47.4487419, 24.8118515, 43.96807
      ],
      "fittestNetwork": {
        "layers": [7, 14, 3],
        "biases": [
          [0.0, 0.0, 0.0, 0.0, 0.0, 0.0, 0.0],
          [
            0.0, 0.0, 0.0, 0.0, 0.0, 0.0, 0.0, 0.0, 0.0, 0.0, 0.0, 0.0, 0.0, 0.0
          ],
          [0.0, 0.0, 0.0]
        ],
        "weights": [
          [
            [
              -0.220160007, -0.2274719, -0.428258181, 0.535489559, -0.480011255,
              0.352956921, 0.593087
            ],
            [
              0.595956862, -0.467746854, 0.2516935, -0.278283924, 0.854703963,
              0.5186611, -0.585540056
            ],
            [
              0.362382054, 0.170107961, -0.4750713, -0.0873931646, -0.8304708,
              0.7222687, -0.105169795
            ],
            [
              0.3182702, 0.6732085, 0.634879231, -0.7094357, -0.08923364,
              0.716984451, -0.488271147
            ],
            [
              -0.626293063, 0.5166824, 0.244598731, 0.268051952, 0.381890774,
              0.0637359, -0.564086556
            ],
            [
              -0.655899167, -0.421526, 0.013507247, 0.360495567, -0.2026217,
              0.524559855, 0.544494033
            ],
            [
              -0.0834837556, 0.362371922, -0.750291944, -0.5574508,
              -0.429759622, 0.35814, -0.133985817
            ],
            [
              0.374636233, -0.059454482, 0.305375218, 0.342182875, 0.04903006,
              -0.600631952, 0.0225800034
            ],
            [
              -0.5764665, -0.474484682, -0.211118788, -0.5126059, 0.145316109,
              0.124251023, -0.01606524
            ],
            [
              -0.2547469, 0.9122694, -0.118492961, 0.00934624, 0.211037725,
              0.00545603037, 0.395916343
            ],
            [
              -0.311579227, -0.679543138, -1.102415, -0.151777327, 0.6378354,
              0.108285785, 0.587619066
            ],
            [
              0.4643123, -0.336193085, 0.374643058, 0.207079858, 0.690318,
              -0.4674661, -0.7145196
            ],
            [
              -0.036973238, -0.127422988, 0.12460769, 0.100375473, -0.7976972,
              -0.2099164, 0.186500877
            ],
            [
              0.269603431, -0.8111707, 0.5908697, 0.446651161, -0.1332753,
              0.152098536, 0.360390663
            ]
          ],
          [
            [
              -0.360218674, -0.6413141, -0.138316154, -0.609588861,
              -0.531222761, -0.08026624, 0.295186162, 0.407590032, 0.6099721,
              0.837009966, -0.05472213, 0.425028235, 0.520155132, 0.748548269
            ],
            [
              -0.2567359, 0.619581461, -0.7158332, -0.5349015, -0.410457939,
              -0.48885572, 0.0303863287, 1.74101281, -0.662165344, -0.2907281,
              -0.0301561616, -0.440206081, 0.197567046, 0.513101935
            ],
            [
              0.285027862, -0.763466, 0.6598592, 0.456890076, 0.7560657,
              -0.615375042, 0.6301616, -0.600033045, 0.06691253, -0.307699651,
              -0.6829846, -0.665182233, -0.001915918, 0.316931665
            ]
          ]
        ],
        "fitness": 47.5384827
      }
    },
    {
      "LayerStructure": [7, 16, 3],
      "FitnessConvergence": [
        1.37189627, 6.32576942, 9.148234, 9.176808, 10.3953781, 11.12982,
        11.1088333, 17.9207439, 17.980772, 18.5796318, 18.1836967, 18.1607838,
        18.343174, 18.3336029, 18.3530865, 18.2129631, 18.5508614, 18.2295914,
        18.4626942, 18.3221931, 18.4353523, 18.4384289, 18.220108, 18.1257553,
        18.1890316, 18.3021774, 18.7956276, 18.8347034, 19.0806389, 19.0905266,
        24.14316, 24.1354885, 24.11617, 24.1292057, 24.1163845, 24.1274,
        24.12688, 24.126524, 24.1355953, 24.1328125, 24.1071873, 24.0804558,
        24.1349754, 24.1341171, 24.1300755, 24.1448288, 24.1049118, 24.1157417,
        24.0836086, 24.120163, 24.1431236, 24.1215878, 24.1952667, 24.1384869,
        24.154562, 24.0874882, 24.0915833, 24.14853, 24.1594143, 24.1182213,
        24.105793, 24.1304455, 24.1462345, 24.1365967, 24.0610771, 24.1309757,
        18.9684448, 24.2227325, 24.2289429, 24.1087971, 19.1128559, 24.3237915,
        24.3268318, 24.3080673, 19.1179447, 24.30476, 24.2915516, 24.2274876,
        24.3054218, 24.3126335, 24.247139, 24.2923012, 24.2815132, 24.3174782,
        24.3144264, 24.30951, 24.3483372, 24.2464066, 24.2438374, 24.3245487,
        24.34262, 24.3234215, 24.3395977, 24.0866661, 24.33014, 24.2465248,
        24.3206253, 24.33219, 24.31224, 24.2818184, 24.24488, 24.24426,
        24.3276062, 19.1166515, 24.3255253, 24.31311, 24.2412453, 24.29037,
        24.2449036, 24.3145523, 24.2313156, 24.2675419, 24.3142128, 24.28857,
        24.285799, 24.3335781, 24.2961159, 24.2834034, 24.2730083, 24.2443867
      ],
      "fittestNetwork": {
        "layers": [7, 16, 3],
        "biases": [
          [0.0, 0.0, 0.0, 0.0, -0.2820568, 0.0, 0.0],
          [
            0.0, 0.0, 0.0, 0.0, -0.0272011161, 0.0, 0.0, 0.0, 0.0, 0.0, 0.0,
            -0.3932041, 0.2081766, 0.0, 0.0, 0.0
          ],
          [0.0, 0.0, 0.0]
        ],
        "weights": [
          [
            [
              -0.4362174, 0.010863781, -0.3522342, -0.580844641, 0.292334557,
              0.4297582, -0.3179313
            ],
            [
              -0.4596774, -0.1753505, 0.190069079, -0.19609642, 0.753433347,
              -0.113081932, 0.727437258
            ],
            [
              -1.00644314, 0.261352539, -0.5031575, 0.00983399153, -0.403915673,
              0.220385417, -0.1252133
            ],
            [
              -0.556840539, 0.2144178, -0.318195552, -0.430175066, -0.365932435,
              -0.2726219, 0.705170035
            ],
            [
              -0.468738317, -0.341982841, -0.324061483, -0.06276541,
              -0.597833931, -0.0616506934, -0.0158694983
            ],
            [
              -0.692809939, 0.109113351, -0.7120515, 0.66029346, 0.304811954,
              0.390439719, -0.1659106
            ],
            [
              0.268937469, 0.210932285, -0.03730447, 0.129714966, 0.149053156,
              0.0566510558, 0.558291852
            ],
            [
              0.149932623, -0.298489451, 0.6968368, -0.3534286, -0.2611715,
              -0.7394682, -0.658114
            ],
            [
              0.03731209, 0.6815314, 0.2743371, -0.2782622, 0.537557,
              -0.440976381, 0.127492547
            ],
            [
              0.458217144, -0.155714333, -0.6776873, -0.739735961, 0.673099041,
              0.6083573, 0.292252749
            ],
            [
              -0.030227121, 0.5052117, -0.5586107, -0.260815769, -0.07706118,
              0.274105668, 0.376582921
            ],
            [
              0.326527685, -0.4509084, 0.426929355, 0.683512449, -0.199847639,
              -0.7510623, 0.441959023
            ],
            [
              0.170128822, 0.345378965, -0.0117897391, -0.4652789, 0.509747744,
              -0.2629638, -0.7541286
            ],
            [
              0.765588641, -0.08897541, 0.242553309, -0.7215998, 0.673692,
              0.43441695, -0.40857327
            ],
            [
              0.6960547, -0.1682412, 0.390158981, 0.4290526, 0.340188384,
              -0.406583667, 0.163385332
            ],
            [
              0.207946032, 0.4290455, -0.228156418, 0.207519025, 0.492979,
              -0.7449473, 0.0565781
            ]
          ],
          [
            [
              0.515046954, -0.189831436, -0.114585847, -0.482648134,
              0.101424456, 0.390033782, 0.6133157, 0.04490308, -0.08466858,
              0.7349994, 0.509291768, 0.7204701, 0.130844519, -0.485760331,
              -0.419452131, -0.436639428
            ],
            [
              1.26758575, 0.362918347, -0.141781509, 0.504946351, -0.22660175,
              -0.7690022, -0.0165127236, -0.351712078, -0.487289071, 0.07699299,
              -0.858347654, -0.008998837, -0.234657854, -0.06198692,
              0.323379278, 0.0538497567
            ],
            [
              0.7465472, 0.282607377, 0.6536939, -0.164899379, -0.0241721272,
              0.2335659, -0.512256, -0.557378769, 0.3341603, 0.2953173,
              0.111365855, 0.394771516, 0.5741862, 0.4456241, 0.252722,
              0.8485424
            ]
          ]
        ],
        "fitness": 24.3483372
      }
    },
    {
      "LayerStructure": [7, 18, 3],
      "FitnessConvergence": [
        4.9609127, 3.93508673, 3.02888155, 6.290621, 6.1224103, 6.33301735,
        24.8211441, 24.8702946, 25.0312443, 25.0301361, 25.05445, 25.0534115,
        25.1197338, 25.146431, 25.1258068, 25.1388321, 25.1470985, 25.1574516,
        25.17311, 25.20861, 25.2112331, 25.2281551, 25.282114, 45.09608,
        45.096653, 45.061676, 45.09657, 45.0979, 45.09597, 45.0949364,
        45.0628738, 45.0921669, 45.11578, 45.12883, 45.12483, 45.1311455,
        45.12898, 45.128624, 45.1307068, 45.1263123, 45.12543, 45.12242,
        45.1239052, 45.1250076, 45.12276, 45.12485, 45.1299, 45.12723, 45.12646,
        45.129776, 45.1324234, 45.1340446, 45.13089, 69.61057, 69.6622849,
        70.22648, 70.25444, 70.2417145, 70.2380753, 70.2682, 70.2972, 70.32632,
        70.3123245, 70.31432, 70.30561, 70.3119354, 70.3774948, 70.3901443,
        70.4885, 70.48168, 70.4826, 70.4856, 70.46892, 70.49193, 70.4841156,
        70.4927, 70.56465, 70.56644, 70.56649, 70.5665054, 70.56652, 70.56652,
        70.56644, 70.56639, 70.56637, 70.5665, 70.56622, 70.56649, 70.56616,
        70.56652, 70.56652, 70.56575, 70.5665, 70.56652, 70.56652, 70.5665,
        70.5665, 70.56647, 70.5665054, 70.56649, 70.5664749, 70.56649, 70.4873,
        68.74784, 68.62401, 68.6332, 68.756485, 378.845551, 380.540771,
        379.8449, 397.71698, 401.054626, 399.9211, 423.0998, 426.4132, 425.3176,
        426.1219, 428.291748, 431.482819, 431.6229
      ],
      "fittestNetwork": {
        "layers": [7, 18, 3],
        "biases": [
          [
            -0.006468594, -0.403567076, -0.209500134, 0.358404279, -0.153567612,
            -0.2933575, -0.4544742
          ],
          [
            0.18089591, 0.00667446852, 0.4849546, -0.333791733, 0.228186831,
            0.139053687, 0.437882423, -0.3346988, -0.152235448, 0.0508434176,
            -0.457704425, 0.188745722, 0.265442252, 0.01960212, 0.205211982,
            0.066360414, 0.332553625, -0.0244894624
          ],
          [0.351330042, 0.463528037, 0.4924636]
        ],
        "weights": [
          [
            [
              0.4445393, 0.04456625, -0.738093, 0.75525105, -0.303342938,
              0.6792355, -0.442757
            ],
            [
              0.523613334, -0.156285763, 0.31403017, 0.632815, -0.5188074,
              0.24099274, -0.52191633
            ],
            [
              -0.3100196, -0.640553355, -0.0212407652, -0.225851744,
              -0.41358307, -0.08643919, -0.4147098
            ],
            [
              -1.23361146, 0.925984561, 0.0619400144, -0.379243135, 0.271033019,
              -0.235993832, -0.2032892
            ],
            [
              0.340121359, -0.5715816, -0.2806028, -0.284623265, -0.7190429,
              0.393958837, 0.403820425
            ],
            [
              -0.201208547, 0.05988236, -0.28193748, 0.201829568, 0.226430759,
              -0.6240102, -0.6995967
            ],
            [
              0.797454834, -0.08219927, 0.158966616, -0.07329753, 0.48065877,
              0.142559186, -0.747331142
            ],
            [
              0.3430571, 0.209964365, 0.3865827, -0.399012685, -0.1860341,
              0.5680752, -0.131474078
            ],
            [
              0.372892618, 0.03339604, -0.410443932, 0.4555912, -0.01108764,
              0.09542245, -0.6064658
            ],
            [
              0.802222133, -0.09897989, -0.5304347, -0.0637934953, -0.433217645,
              -0.6178447, -0.7419051
            ],
            [
              -0.07185102, -0.295300961, 0.2655941, -0.5774437, 0.478288054,
              0.316080749, 0.05144246
            ],
            [
              0.59038645, -0.3222237, -0.460229039, 0.57681334, 0.141690612,
              -0.6287979, -0.491565466
            ],
            [
              -0.534967065, 0.652335763, -0.8831958, -0.543839, -0.433908075,
              0.461335182, 0.383120656
            ],
            [
              0.0266509019, -0.6540174, -0.387286127, -0.3530681, -0.392794371,
              -0.332416177, -0.254775167
            ],
            [
              -0.291921318, -0.451786429, -0.406490535, -0.0596385747,
              -0.05948832, 0.7414901, -0.571050048
            ],
            [
              -0.483110756, 0.295416862, 0.5179548, -0.282474816, -0.02778838,
              -0.03807572, -0.314206243
            ],
            [
              -0.518196464, 0.365654767, -2.153502, 0.6780225, 0.105474517,
              0.131420955, 0.18388401
            ],
            [
              -0.574158669, -0.5246584, 1.09857035, 0.298955441, -0.163246229,
              -0.342525184, -0.9924725
            ]
          ],
          [
            [
              0.579456151, -0.399550825, -0.182393014, 0.000303418434,
              -0.3026842, -0.146495685, -0.208765209, 0.348519027, -0.3413937,
              -0.2385646, 0.008204819, -0.1685588, 0.246384978, -0.219645724,
              0.06672378, 0.0392191, -0.07510732, 0.323270023
            ],
            [
              -0.206045359, -0.2343924, -0.226185977, 0.2884065, 0.14727062,
              -0.124224864, 0.013382256, -0.7976789, 0.292012334, -0.7437327,
              0.08083279, -0.074951075, -0.335586071, 0.6596042, 0.360999674,
              -0.199183822, -0.6398747, 0.0174441524
            ],
            [
              -0.17383863, 0.6557416, 0.0429148674, -0.218773842, -0.0300380848,
              0.413320035, -0.08524322, 0.407261729, -0.2717139, -0.00111275911,
              -0.245212287, 0.17592369, 0.217448145, -0.07123037, -0.5055312,
              -0.6461302, 0.04898727, 0.0939306
            ]
          ]
        ],
        "fitness": 431.6229
      }
    },
    {
      "LayerStructure": [7, 20, 3],
      "FitnessConvergence": [
        2.99469233, 4.884988, 5.923313, 6.28234768, 7.26087666, 7.833004,
        10.0933371, 10.102087, 10.42611, 17.8724174, 17.9089012, 18.1153946,
        18.154871, 18.2445469, 18.6013279, 18.6109715, 18.718689, 18.7767143,
        19.0756969, 25.133604, 25.0990276, 20.838129, 19.1885948, 19.143713,
        20.6576233, 25.1063766, 20.9103642, 19.286293, 19.0733261, 19.9235439,
        21.58975, 21.41906, 19.08242, 19.189394, 19.76918, 19.2896118,
        19.6402073, 19.35829, 19.1819019, 19.0877075, 21.196579, 19.0776463,
        19.1893272, 19.57941, 21.4561577, 19.2247562, 19.0766983, 19.2311287,
        19.0712452, 19.3077927, 19.287508, 21.25243, 19.12691, 19.075901,
        19.2783661, 19.1832962, 19.291996, 19.1805668, 19.0797443, 19.1217842,
        20.9814129, 19.0720558, 21.05735, 21.61985, 19.0629311, 21.1183071,
        19.2941723, 19.221365, 21.4456329, 19.2466564, 19.08509, 19.2291985,
        19.2491226, 20.9832726, 19.0787373, 23.3333054, 19.0815086, 19.1807919,
        19.0679855, 25.09569, 19.1658611, 19.2890816, 19.32363, 19.32152,
        19.2207985, 21.1526089, 20.0024071, 19.2897739, 19.1820927, 19.1839161,
        19.2276058, 19.08083, 19.6317673, 21.43615, 25.091917, 20.7772026,
        20.89191, 19.2958355, 19.2859058, 19.2337456, 19.2869778, 19.2725487,
        19.2690125, 21.0027332, 19.1879387, 21.440321, 25.10178, 19.2664986,
        21.4440937, 19.4162846, 19.227726, 25.10445, 21.4315243, 20.979351,
        20.8399048, 19.2669983, 19.350029, 19.07605, 19.9246769, 19.07044
      ],
      "fittestNetwork": {
        "layers": [7, 20, 3],
        "biases": [
          [
            0.129548177, -0.389224052, 0.07677847, -0.114973724, 0.295914531,
            0.0, -0.430112
          ],
          [
            -0.304061532, -0.3309859, 0.0, -0.265703082, -0.337303877,
            -0.0759758353, 0.0, 0.0, -0.282975674, 0.0, 0.0, 0.171723232, 0.0,
            -0.3919685, -0.004813969, 0.0173469186, -0.3243842, -0.164826334,
            0.21611236, -0.350488067
          ],
          [0.0, -0.427642584, -0.265870571]
        ],
        "weights": [
          [
            [
              0.499198049, -0.149877191, -0.192478269, -0.186492264,
              -0.552898169, -0.304910541, 0.007901005
            ],
            [
              0.9973268, -0.755713344, 0.6540551, -0.0148967858, -0.0101974607,
              -0.402107567, 1.26813984
            ],
            [
              -0.00327479839, 0.241601944, 0.165255189, 0.661998749, -0.3850206,
              0.08953875, -0.358351171
            ],
            [
              0.5073061, 0.387455672, 0.220673114, 0.665723741, 0.002193625,
              -0.21558854, -0.887264132
            ],
            [
              -0.7208985, -0.638576746, -0.6321287, 0.39971137, -0.16674906,
              0.2539743, -0.1283871
            ],
            [
              0.440446138, -0.126816362, 0.209584117, 0.7692344, -0.739174247,
              0.3488631, -0.0275005959
            ],
            [
              -0.00117323629, -0.559534431, -0.0795790553, -0.1351251,
              -0.348302722, 0.12898241, 0.426589727
            ],
            [
              0.5927383, 0.627109468, 0.137282908, -0.63679564, 0.739168763,
              -0.14430052, -0.6657378
            ],
            [
              0.721741438, -0.433455348, 0.169427112, -0.233662412,
              -0.348943353, -0.528180361, -0.455977559
            ],
            [
              0.634814262, -0.398118854, -0.5228913, -0.544264555, -0.485413879,
              0.612781048, -0.340784073
            ],
            [
              -0.240104169, -0.00639992952, 0.232845441, 0.139553666,
              -0.696107864, 0.706809044, 0.662777662
            ],
            [
              -0.129316226, -0.366600037, 0.701771, 0.597975, -0.251314282,
              -0.280304372, 0.205207124
            ],
            [
              -0.135319874, -0.6481612, -0.6371157, 0.165255189, -0.299892664,
              -0.5891286, 0.6151447
            ],
            [
              0.348412275, 0.002561857, 0.100745134, 0.653225064, -0.7522272,
              0.678632855, -1.13142669
            ],
            [
              -0.301305622, -0.00352096558, -0.17688328, -0.636408448,
              -0.114095986, 0.745458364, -0.5774745
            ],
            [
              -0.7478124, 0.162594318, 0.409854, 0.603989959, 0.208309263,
              0.452641368, 0.447869271
            ],
            [
              0.541556954, 0.196800932, 0.7084416, 0.111745618, -0.742142439,
              -0.09475633, 0.5681275
            ],
            [
              1.02108538, -0.0527676344, -0.5100857, 0.411144137, 0.7507751,
              -0.305925131, -0.44800058
            ],
            [
              0.0959880948, 0.196816519, -0.467079133, 0.396933168, 0.7400465,
              0.5453587, 0.7174028
            ],
            [
              0.143728629, -0.124472678, 0.3851769, -0.275923133, -0.7640128,
              -0.3939416, 0.483525276
            ]
          ],
          [
            [
              -0.4641937, 0.4720245, 0.769384146, 0.794501364, -1.083454,
              -0.417588145, 0.5201764, -0.6171293, -0.5863421, -0.126902282,
              0.4850247, 0.285653085, -0.00186347961, -0.396279484, 0.711939931,
              -0.0282235742, 0.178420484, -0.5352856, 0.364663064, 1.46222878
            ],
            [
              -0.587973833, 1.15850878, -0.313676834, -0.268056363, 0.614363551,
              -0.327637285, -0.0258647669, -0.0181770045, -0.01460886,
              0.484546185, 0.0540562533, 0.129062653, -0.508973241,
              -0.589480042, -0.1153276, -0.328756332, 0.697939754, -0.9730411,
              0.028292, -0.656915665
            ],
            [
              0.0554365143, -0.0188621879, -0.282998651, -0.062449038,
              -0.524418831, 0.114088096, -0.2780254, -0.06038675, -0.662804,
              0.447416276, 0.0477762148, 0.3327514, 0.5730797, -0.207603753,
              -0.184362352, 0.453254461, -0.449586719, -0.05862379,
              -0.193207324, -0.682213664
            ]
          ]
        ],
        "fitness": 25.133604
      }
    },
    {
      "LayerStructure": [7, 22, 3],
      "FitnessConvergence": [
        3.49092484, 9.047299, 5.49288368, 18.53341, 6.68992424, 23.5208931,
        23.6955338, 23.9140682, 24.1396255, 24.284523, 24.645216, 24.6625175,
        24.6596279, 24.60838, 24.6787548, 24.68533, 24.6954327, 24.7621117,
        24.7562714, 24.7916946, 24.937933, 25.3971882, 43.9502373, 43.9846649,
        44.00928, 44.0916252, 44.08245, 44.09536, 44.1095657, 44.112648,
        44.079216, 44.12821, 44.1289444, 44.0682755, 44.1486, 43.7639427,
        34.8777161, 34.7545929, 44.1240768, 44.1279945, 44.12935, 44.1345673,
        44.1294365, 44.1245842, 44.1245842, 34.63211, 44.0276031, 44.12036,
        44.13327, 44.13303, 44.120018, 44.1283226, 34.7248955, 44.1626053,
        44.1829567, 44.1544724, 34.8558426, 34.9385376, 44.17649, 35.2478867,
        44.143177, 44.1689, 44.1917076, 44.2072678, 34.57579, 44.15386,
        44.1988525, 44.2047844, 31.370491, 44.1829262, 34.9802322, 25.3221817,
        34.9880867, 44.1496964, 44.17228, 44.22862, 44.1695328, 24.7341576,
        44.2240372, 44.2222481, 44.2411346, 44.2326241, 44.2298775, 44.22354,
        44.2312546, 34.44104, 44.19601, 44.2484779, 44.24123, 32.3344574,
        44.0981522, 32.01405, 34.4984131, 44.19437, 44.1386948, 44.191658,
        28.5135212, 44.239872, 44.22122, 44.1868477, 32.4432068, 44.2412376,
        31.7843266, 44.23511, 28.4718685, 44.0645676, 44.2095261, 44.1975937,
        44.11002, 32.3493729, 44.15048, 44.201683, 44.20737, 34.5883446,
        44.2312164, 44.2328033, 44.23524, 34.8188171, 44.2365646, 72.02254
      ],
      "fittestNetwork": {
        "layers": [7, 22, 3],
        "biases": [
          [
            -0.07670182, 0.08201176, 0.0, -0.31538558, -0.3604952, -0.375135779,
            -0.009729207
          ],
          [
            0.273002982, -0.252542377, -0.467072964, 0.175486669, 0.242919669,
            -0.474027157, 0.008830965, 0.0, 0.199325666, 0.120821416,
            -0.42696178, 0.361302853, -0.384890318, -0.0616759658, -0.151019633,
            0.077714026, -0.102721274, 0.0, 0.43659687, -0.112767637,
            -0.442372918, 0.222982869
          ],
          [-0.162591636, -0.194287717, 0.3272679]
        ],
        "weights": [
          [
            [
              0.39583084, -0.7807138, 0.572885156, -0.6579076, 0.368280321,
              -0.3916395, -0.2785823
            ],
            [
              0.0261540413, 0.3235341, -0.33011508, -0.2734791, 0.7742661,
              0.423746049, 0.5317941
            ],
            [
              0.4247666, 0.6851304, 0.244703159, -0.343711585, 0.6281119,
              0.05464704, 0.09983367
            ],
            [
              0.5924904, -0.2925676, 0.00618665665, 0.199146852, -0.03686905,
              0.673895836, -0.06252226
            ],
            [
              -0.183552086, 0.308092922, -0.353370428, -0.313234, -0.0693407059,
              -0.123824179, -0.442456484
            ],
            [
              -0.256881177, 0.0176087283, -0.7578269, -0.0563080348,
              -0.125085682, -0.7236397, -0.171079934
            ],
            [
              -0.3400072, 0.26045984, -0.0593621135, -0.120530367, 0.331477016,
              -0.646432161, 0.7725458
            ],
            [
              -0.126426473, -0.524672866, 0.4770531, -0.0392015278, 0.436698645,
              -0.7655548, 0.5838253
            ],
            [
              -0.0314148068, -0.7209087, -0.10277693, 0.3677379, -0.164848581,
              -0.496922284, 0.02605313
            ],
            [
              -0.071778, -0.277670145, 0.0616135821, -0.076978676, -0.289119571,
              0.573159933, -0.900668859
            ],
            [
              -0.631026864, 0.3982377, 0.5068444, 0.5921352, -0.2664646,
              0.228565112, 0.3373205
            ],
            [
              -0.372294664, -0.332125664, -0.129180849, 0.301702, 0.7095277,
              -0.07259622, -0.00764870644
            ],
            [
              -0.723893, -0.481810927, 0.13979277, -0.215501979, 0.3129121,
              -0.3262529, 0.0833337
            ],
            [
              0.7093915, -0.236368954, 0.481031954, -0.1148306, -0.7715602,
              0.07723189, -0.6727656
            ],
            [
              0.120665908, 0.7383253, -0.549473763, 0.11693123, 0.228627041,
              0.392324179, -0.283673584
            ],
            [
              -0.116037, 0.344017148, 0.370521247, 0.236100763, 0.4886468,
              -0.197346792, 0.0681679845
            ],
            [
              -0.5563522, -0.197433576, -0.057848718, -0.788840532, -0.7749208,
              0.00678129261, 0.123123318
            ],
            [
              -0.4224801, 0.800226748, -0.298210979, 0.286200851, 0.791808963,
              -0.5799482, -0.188593015
            ],
            [
              0.992202461, -0.648189843, 0.253296137, 0.135575354, 0.166056052,
              -0.149271071, -0.217394322
            ],
            [
              -0.146319926, -0.188264444, -0.418743163, 0.514841557, -0.6988583,
              -0.0541265272, -0.141180843
            ],
            [
              0.7850553, -0.152549744, -0.406232119, 1.16191816, 0.335120171,
              0.707476854, 0.8661649
            ],
            [
              -0.215424478, -0.5848327, -0.2725478, 0.5041095, -0.5787345,
              -0.06622373, -0.187536955
            ]
          ],
          [
            [
              0.398358, -0.246050447, 0.09254991, -0.170619711, 0.323935121,
              -0.472006351, -0.15547812, 0.40385738, -0.2608648, 0.171553969,
              0.601581931, 0.009975755, 0.8222018, 0.670902967, -0.235557348,
              0.0114654852, 0.439280629, 0.174778417, 0.06817613, -0.35994035,
              0.273634851, 0.197182208
            ],
            [
              0.3797472, -0.5758662, 0.274332225, -0.70818603, -0.270092,
              0.400881916, -0.04036912, 0.573485, -0.3474785, -0.09513662,
              -0.7618408, 0.695050955, 0.7360838, 0.5713884, -0.008163114,
              0.3311325, -0.3891602, 0.256781936, 0.6682042, -0.333192945,
              0.137525469, 0.1598907
            ],
            [
              -0.0704998448, 0.6766627, -0.387608349, 0.4930284, -0.12304455,
              0.6198399, 0.4183844, -0.107656732, -0.754056036, -0.463214934,
              0.493884921, -0.697624743, 0.103828013, 0.369948834, 0.167763218,
              0.289203167, -0.3817734, -0.242926747, 0.7127886, -0.490831316,
              -0.7637625, -0.679579735
            ]
          ]
        ],
        "fitness": 72.02254
      }
    },
    {
      "LayerStructure": [7, 24, 3],
      "FitnessConvergence": [
        16.82632, 16.6036072, 16.6034164, 16.637886, 17.16814, 18.9284859,
        18.9856644, 19.06973, 19.0697021, 19.2534084, 20.9852524, 21.11044,
        21.26022, 21.0730858, 20.9243946, 21.210146, 21.230793, 20.968359,
        21.1439972, 21.22168, 20.9814377, 20.9850788, 20.96579, 20.956749,
        20.9948368, 21.2235565, 21.2089958, 21.2189846, 21.24498, 21.2205353,
        21.21588, 21.33075, 21.3306732, 19.32363, 21.0085926, 21.0282269,
        24.2493153, 24.2262669, 24.2442856, 24.2575226, 24.2302055, 24.17137,
        24.2642288, 24.38224, 24.3866329, 24.383091, 24.3941364, 24.4120483,
        24.3576221, 24.380928, 24.4133472, 24.4145927, 24.4524117, 24.4240227,
        24.4282722, 24.4561729, 24.4480972, 24.4633369, 24.4616337, 24.4632359,
        24.4675217, 24.4701748, 24.4803543, 24.48216, 24.4814281, 24.4866676,
        24.4789963, 24.66185, 24.6695576, 24.665905, 24.672699, 24.7112217,
        24.7490234, 25.0508671, 24.9371586, 25.024826, 24.9970379, 25.0338078,
        25.0091915, 25.0338554, 25.119669, 25.1965637, 25.1895676, 25.1761856,
        25.2725716, 25.545805, 25.2038841, 25.315649, 25.54478, 25.6230354,
        25.649971, 25.7080727, 25.6459236, 25.63619, 25.6694679, 25.7011776,
        25.6764584, 25.635088, 25.6329174, 25.68137, 71.36454, 71.3678055,
        24.96503, 25.204504, 24.7972126, 71.3638, 24.7352123, 71.22785,
        71.37607, 71.3317, 71.38468, 71.37646, 71.383606, 71.38078, 71.38096,
        71.38124, 71.385994, 71.38723, 25.2150536, 71.38668
      ],
      "fittestNetwork": {
        "layers": [7, 24, 3],
        "biases": [
          [
            -0.2793796, -0.00522094965, -0.2607864, 0.2923262, 0.230355963,
            0.000129401684, -0.436062932
          ],
          [
            -0.0200154185, -0.408058763, -0.0769634843, 0.21057032,
            -0.0222277045, -0.242112815, -0.00580972433, 0.1564356, 0.3044362,
            -0.280758858, -0.233841479, 0.444289565, -0.023534596, -0.154877484,
            0.237212285, 0.224254712, -0.2768129, 0.09071797, -0.0780066848,
            -0.2272287, 0.460797548, -0.3592875, -0.4894836, -0.198337018
          ],
          [-0.009784639, 0.08047825, -0.03985578]
        ],
        "weights": [
          [
            [
              -0.207031965, 0.598467, -0.234041929, 0.2666113, 0.0787524,
              0.201201767, -0.464934349
            ],
            [
              -0.403778255, -0.3609174, -0.5108121, -0.17023024, -0.650574565,
              -0.834013641, 0.268503875
            ],
            [
              0.537128568, 0.003639031, -0.04234196, 0.09553081, 0.192027628,
              0.54229784, 0.05966307
            ],
            [
              0.766099334, -0.276515782, 0.439765722, 0.18805474, -0.8886197,
              -0.126631334, -0.300185949
            ],
            [
              -0.0554205179, 0.0675417, -0.168996036, 0.4301736, -0.7429399,
              -0.0395742655, 0.05712666
            ],
            [
              -0.557404459, 0.06820786, 0.204303488, 0.106940925, 0.5305146,
              0.05139337, 0.35284102
            ],
            [
              0.449242145, 0.265606046, 0.03995212, 0.1753052, -0.352648,
              -0.215610862, 0.134221479
            ],
            [
              -0.07723088, -0.06884594, 0.400440782, 0.198710829, 0.0110925548,
              -0.137752786, -0.03454074
            ],
            [
              0.442081332, 0.370792925, 0.7001093, -0.9967381, -0.5230448,
              0.2818458, 0.0863598
            ],
            [
              -0.0144523717, 0.304728031, -0.100408122, -0.142538428,
              -0.653862357, -0.4855783, 0.587626
            ],
            [
              0.7630279, -0.6134209, -0.154831678, -0.5893862, 0.5382594,
              0.486057758, 0.06016153
            ],
            [
              -0.886009634, 0.172867239, -0.346546948, 0.0456976444,
              -0.111139461, 0.0810884461, -0.475374818
            ],
            [
              -0.428606868, 0.356387258, -0.482300758, 0.01275676,
              0.00310409744, -0.349815935, 0.6943761
            ],
            [
              -0.847813666, 0.5732681, -0.0266810767, -0.593347549, 0.5893227,
              -0.179526329, -0.350951731
            ],
            [
              0.110193595, 0.3880136, 0.242834911, -0.09909503, 0.438197047,
              0.180606529, 0.6508806
            ],
            [
              0.136824667, -0.7598442, -0.5201894, 0.330973685, -0.517986357,
              0.3107772, -0.670343637
            ],
            [
              0.112434685, 0.6597365, 0.407327771, -0.351365566, 0.5278076,
              0.263180137, 0.176834255
            ],
            [
              -0.0520774238, 0.2143937, 0.06486527, -0.000409106637,
              0.0386473462, 0.6085712, -0.278858721
            ],
            [
              -0.5443823, 0.6770045, -0.422526628, -0.306263268, -0.8593911,
              -0.0279738624, -0.251672626
            ],
            [
              -0.137521088, 0.240033627, -0.117745727, -0.00509279966,
              0.490368128, -0.0505595, -0.9920719
            ],
            [
              -0.5068534, 0.18275933, 0.345561624, 0.728521466, -0.395633042,
              0.0334611535, -0.327589929
            ],
            [
              -0.156776652, 0.415287733, -0.123043545, 0.2807436, 0.225510448,
              0.04522187, 0.00679359632
            ],
            [
              0.158071265, -0.2255333, -0.273117155, 0.0874277651, -0.7466949,
              -0.295534551, 1.79461992
            ],
            [
              -0.103098467, -0.213828877, 0.6317266, -1.33492649, 0.07292062,
              -0.6434127, -0.4484998
            ]
          ],
          [
            [
              -0.687153935, 0.617714465, 0.8605941, 0.202539429, 0.100559905,
              -0.348261178, -0.282749534, 0.316956967, 0.121818341, -0.7527004,
              -0.111301363, 0.6764657, 0.223444566, -0.277109116, -0.121854484,
              -0.0442945957, -0.392845124, 0.454436779, 0.267971873,
              0.220263332, 0.610417366, -0.06282884, -0.301176548, -0.0474168062
            ],
            [
              -0.136138275, 0.01630801, -0.406768322, 0.6263501, -0.178504393,
              0.328931868, 0.186891735, 0.645506263, 0.147118673, -0.481489629,
              0.32036227, -0.06012225, -0.436076522, -0.1460986, 0.50143075,
              -0.2300472, -0.511613131, -0.424975276, 0.280890942, 0.212197512,
              -0.226719379, -1.62408066, 0.38553834, -0.382152647
            ],
            [
              0.273394376, -0.284150124, -0.3764667, 0.0986855, -0.307456851,
              0.093883805, 0.21265772, -0.00369839929, 0.203088865, 0.266964853,
              0.6632911, 0.492104739, -0.16335088, 0.1818621, -0.493598342,
              -0.380894244, 0.122764438, -0.53232336, -0.0019399398, -0.4450369,
              -0.497285128, 0.716066539, -0.6161643, -0.106652118
            ]
          ]
        ],
        "fitness": 71.38723
      }
    },
    {
      "LayerStructure": [7, 26, 3],
      "FitnessConvergence": [
        5.44611835, 4.761058, 5.368209, 4.78583574, 5.402231, 6.014657,
        6.97461367, 10.4937019, 19.000948, 11.2507582, 17.5544739, 24.1289253,
        24.2414055, 24.286932, 24.316906, 24.4354134, 42.01811, 68.55525,
        68.55942, 68.565155, 68.57437, 68.56382, 68.5741348, 68.56995, 68.57055,
        71.2307, 71.26234, 71.31289, 71.3327255, 71.36172, 71.3686447,
        71.3678741, 71.69348, 71.67098, 71.6794739, 71.78828, 71.75724,
        71.73338, 71.82248, 71.89521, 71.8994, 71.54872, 71.89932, 426.6313,
        428.148163, 426.994, 72.0059357, 71.5867157, 71.94977, 71.69751,
        427.427948, 427.500153, 428.3635, 427.500153, 427.7165, 72.0210342,
        71.93519, 72.29917, 429.506134, 427.6444, 428.148163, 429.57724,
        430.003021, 428.148163, 429.078766, 431.552856, 436.637878, 464.866425,
        439.70285, 440.8176, 455.999969, 467.0492, 462.915833, 437.37735,
        446.063171, 462.4231, 446.875336, 459.5357, 456.173462, 459.085266,
        469.502075, 461.210022, 459.5357, 467.575439, 442.181519, 460.0964,
        465.562927, 445.056366, 457.780762, 449.342072, 461.099121, 467.837677,
        470.068726, 453.9577, 456.8649, 458.7463, 465.936279, 461.542084,
        446.37616, 455.652283, 461.9834, 466.573517, 466.7852, 468.203827,
        470.88797, 473.010956, 498.050781, 507.928436, 521.893433, 488.893127,
        497.573975, 508.785156, 525.518, 528.1985, 534.2862, 548.559265,
        531.9311, 76.47048, 479.434357, 528.8843
      ],
      "fittestNetwork": {
        "layers": [7, 26, 3],
        "biases": [
          [
            -0.0395500064, 0.3978883, 0.151817784, 0.350452781, -0.0372703671,
            0.166190132, 0.256881952
          ],
          [
            -0.362928033, -0.174084961, 0.168705091, -0.340256929, 0.173290715,
            0.224350557, 0.46821928, -0.41290772, 0.03291565, -0.458106041,
            0.2733177, 0.24072884, -0.205520928, 0.3108095, -0.366058469,
            0.0214540362, -0.118981063, 0.0, 0.3010658, 0.258119583, -0.4209143,
            0.05874306, 0.460554, 0.213948235, -0.4820224, 0.183755979
          ],
          [-0.0933888555, -0.1793068, 0.38753438]
        ],
        "weights": [
          [
            [
              0.543688, 0.140464574, -0.7110288, 0.3227551, 0.0446494,
              -0.235869139, 0.3330083
            ],
            [
              0.009810696, 0.152049184, 0.6249562, -0.811285853, 0.359628975,
              0.510012269, 0.04301113
            ],
            [
              -0.377863616, -0.8227141, -0.748806536, 0.1801936, -0.102000408,
              -0.103880189, -0.4052585
            ],
            [
              0.0375226736, 0.0280780345, 0.06878358, -0.421284676,
              -0.381458521, -0.6900883, -0.5731857
            ],
            [
              -0.200289547, -0.7075565, 0.7787485, 0.103620648, 0.075028874,
              0.303959936, -0.5880015
            ],
            [
              -0.467441678, -0.0917455554, -0.2478416, -0.216457009,
              0.0320172869, -0.5864387, -0.250729084
            ],
            [
              -0.195392013, -0.4964108, -0.427262664, -0.07316297, -0.03031671,
              -0.0338276662, 0.2526011
            ],
            [
              -0.37210986, -0.681415439, 0.9531411, 0.427387178, 0.455137849,
              -0.1363397, -0.8327083
            ],
            [
              -0.0288925562, -0.252890348, 0.6972045, -0.6491556, -0.559324861,
              0.466119051, 0.468885452
            ],
            [
              -0.603943467, 0.6237665, 0.4226806, 0.09185949, -0.398819566,
              0.691072464, 0.190182164
            ],
            [
              -0.420286119, -0.09974885, -0.09417212, -0.658723, -0.4644198,
              -0.352293253, -0.657120645
            ],
            [
              0.6777246, -0.3522359, 0.456156373, -0.2228217, 0.4957043,
              -0.372792, -0.72206676
            ],
            [
              0.142351747, -0.75702405, -0.3149819, -0.9913406, -0.169483647,
              -0.156716526, 0.307335675
            ],
            [
              0.240179032, -0.333619475, 0.201996729, 0.508131862, 0.203556746,
              0.409802675, -0.144622013
            ],
            [
              0.141569257, -0.1707695, -0.140284151, 0.4522705, -0.400813669,
              0.752414465, -0.100006878
            ],
            [
              -0.3992622, 0.6865382, -0.508459449, -0.6604538, -0.5786741,
              -0.7000928, 0.0136173368
            ],
            [
              -0.7079736, 0.2363903, -0.227386475, -0.0611980557, -0.7042678,
              -0.104542285, 0.3049282
            ],
            [
              -0.380502, -1.3031038, 1.00962269, -0.10396903, 0.195456237,
              0.166915759, 0.5652032
            ],
            [
              0.5150392, 0.21976617, -0.016664749, 0.5076539, 0.06576401,
              0.693414, -0.349596173
            ],
            [
              -0.139009759, -0.34348464, -0.7316377, 0.5923761, 0.2050548,
              0.4545311, 0.380930632
            ],
            [
              0.235944, -0.402172655, 0.5916542, 0.270279169, 0.5417689,
              0.293991327, 0.433411568
            ],
            [
              0.209108129, 0.561978638, 0.349910736, -0.432315856, -0.6306929,
              0.17031832, 0.195101991
            ],
            [
              0.132253557, -0.0245567784, -0.161387265, -0.07924025,
              -0.24139069, -0.0682953, 0.335016459
            ],
            [
              -0.2787979, 0.1176074, -0.731875658, 0.1268735, -0.5131326,
              -0.0106343525, -0.03239696
            ],
            [
              0.7737703, -0.4022622, -0.5356823, -0.2829262, -0.4372381,
              0.167233914, 0.0312363543
            ],
            [
              -0.495721668, 0.0334740281, -0.283950567, -0.7203504, 0.1912523,
              -0.06280565, 0.08054286
            ]
          ],
          [
            [
              -0.46888864, -0.436181635, -0.403476745, -0.162307769,
              0.132947028, 0.346907258, 0.289836973, 0.05267328, 0.6392611,
              -0.6660185, -1.03934634, -0.6053306, 0.181552827, -0.5192559,
              -0.5472319, 0.5531479, -0.0215836167, 0.0652596354, 0.359877646,
              0.0221427083, 0.593262851, -1.02188182, 0.6469227, 0.6637602,
              0.11108721, 0.2580075
            ],
            [
              0.42950213, -0.805517554, 0.398053765, -0.000600579253,
              0.329903573, 0.622668862, 0.1491626, 0.435916543, 0.672734261,
              -0.5893626, 0.291783452, 0.532361269, 0.3040887, -0.499254048,
              -0.3383838, -0.70150286, 0.06020825, 0.6090128, 0.327358067,
              -0.278395385, 0.347486675, -0.07086953, 0.338633716, -0.08593181,
              0.146981657, 0.6853268
            ],
            [
              -0.360735416, 0.395160139, 0.690652847, -0.351961374, -0.1376698,
              0.5537777, -0.115604818, 0.228715539, -1.02343857, 0.09864563,
              0.596414864, 0.612189054, 0.704245, 0.3628983, -0.6496711,
              -0.2711918, 0.700251, -0.330481678, -0.559519768, -0.521877766,
              0.497176737, 0.498209834, -0.019198, 0.104061618, -0.128124088,
              -0.229580075
            ]
          ]
        ],
        "fitness": 548.559265
      }
    }
  ]
}
